{"input_neurons": [{"weights": [-0.36209478607042], "b": -0.3754936167173475}, {"weights": [0.36752423460213834], "b": 0.22562889532961106}, {"weights": [-0.9237798131673516], "b": 0.7489169506457736}, {"weights": [-0.5664391865624281], "b": 0.3137509513546386}, {"weights": [0.4881148711848198], "b": 0.5267857419128703}, {"weights": [-0.465143799821923], "b": 0.2963674228714892}, {"weights": [-0.24173408975316213], "b": -0.7223234020652256}, {"weights": [0.9175281161299311], "b": -0.3477517521136053}, {"weights": [-0.20463051256311426], "b": -0.6597704641426998}, {"weights": [-0.9879173394007301], "b": -0.19980716477900962}, {"weights": [-0.20528181669408818], "b": 0.048203828329570264}, {"weights": [-0.6248414749611446], "b": 0.5278732207692709}, {"weights": [-0.6096151908768517], "b": -0.8815622420333324}, {"weights": [0.3188571583820312], "b": 0.1276851117964628}, {"weights": [0.986970704585443], "b": 0.16615712323156218}, {"weights": [-0.9169596979715973], "b": 0.07847625365501054}, {"weights": [0.4061082900912567], "b": -0.2969743992883058}, {"weights": [0.43328415559603384], "b": -0.7612202767735381}, {"weights": [-0.6969161399447188], "b": 0.8283350190738934}, {"weights": [-0.8657046184045305], "b": -0.06437047721946976}, {"weights": [-0.9899291559742662], "b": 0.7557730169259653}, {"weights": [0.10907616432478284], "b": -0.4760686103389473}, {"weights": [-0.04720123935802323], "b": -0.5779601066812581}, {"weights": [-0.23321774852228727], "b": -0.045716356172003314}, {"weights": [0.7082130451403916], "b": -0.4583271289332276}, {"weights": [-0.20471106795335703], "b": -0.020947413702906648}, {"weights": [-0.20561743699088297], "b": -0.13493047408945325}, {"weights": [0.4640021080450891], "b": -0.2854472471988585}, {"weights": [-0.11290307160293489], "b": -0.38811164643569396}, {"weights": [-0.9575525333400507], "b": 0.062170910428336335}, {"weights": [0.5134457307375124], "b": -0.6144549220556221}, {"weights": [0.4457139960389902], "b": -0.4960050066528139}, {"weights": [-0.7925244521138182], "b": -0.26068210827713223}, {"weights": [0.6903021910215192], "b": 0.4705714947412236}, {"weights": [0.37838794081830307], "b": 0.8225193231028589}, {"weights": [0.2750492835303062], "b": -0.1015040176982267}, {"weights": [-0.9734176059368209], "b": 0.4055007979217846}, {"weights": [-0.182124288051424], "b": -0.4294245974446471}, {"weights": [0.1758915676315247], "b": 0.28170929057188676}, {"weights": [-0.27935618143064733], "b": 0.7316172073607117}, {"weights": [0.5922846368901955], "b": 0.6807470058388156}, {"weights": [-0.718157897680821], "b": 0.8620347728214703}], "hidden_neurons": [{"weights": [-0.27155850046710195, 0.6625512762405805, 0.15247313048245337, 0.21581144920655793, -0.2422102076393291, 0.47700665427865485, -0.5725149478914828, 0.37758244453707523, 0.39856124244430036, 0.5356103284800515, 0.5565262818565035, 0.3181516361616237, 0.7098062734738673, -0.50231456741335, -0.3464964417979164, 0.0503595210168728, 0.5841458908289019, 0.7553087669253731, -0.7751733954602515, -0.4144486737233135, 0.4423279981150088, -0.6184070367940484, 0.41554551615912727, 0.10867853580118103, 0.7783106710531775, 0.6860648404587497, 0.7172328649284567, 0.05621848096802862, -0.566521410687753, 0.3472924373398312, -0.34138950968475723, 0.07285639289119916, -0.15735386173313826, -0.053555603718159706, 0.7147210230929051, 0.31917803863272565, -0.7930505508055825, 0.9098949663728855, -0.9983217485302389, 0.40532553621366296, 0.6854430929614601, 0.80483234685068], "b": 0.07730226429235842}, {"weights": [0.10646806395666752, -0.42531604168656445, 0.6028369063995085, -0.1538430729721849, 0.7311147626651149, -0.17866525687050272, -0.4442275686461745, 0.6670168156550591, -0.2043792384716394, 0.2286596831052079, 0.2867176094145836, -0.3713481614922711, 0.8188700032351963, -0.12022235607592346, 0.027077569096299214, -0.3565909800754741, 0.4151445203694031, -0.055460045813249925, 0.8195019379604802, 0.0025738322276200876, 0.24370475631561406, -0.4801168855714668, 0.5325421393684848, -0.8845256603662341, -0.17307481126827384, -0.002013922557734693, 0.8211265996241195, 0.588105689087931, 0.2528563381338338, -0.42506258369103733, -0.9562712090031467, -0.38725982671125414, 0.020902840624632768, -0.8085030774663327, -0.27161864125097246, -0.3514324809010274, 0.6562475064503386, 0.8196760586526142, -0.4930416815731653, 0.905456511545307, -0.17898915722312392, -0.45826445502975166], "b": 0.7794247884240608}, {"weights": [0.8346450826832312, 0.6212551828696218, -0.49712807659106883, -0.9900268875635887, -0.21465110207287985, -0.15598282211905512, -0.059388736852971524, 0.3761973466650461, -0.6416650635250423, -0.10941563579772651, -0.7485927953097293, -0.21828366957800593, 0.8586227982222996, 0.7110926422225501, 0.7265027635275052, 0.21003726694680158, 0.2914340757010616, 0.7702273305592717, 0.02453112665402668, 0.42609270863865567, 0.9622072194472493, 0.34432338329080436, 0.6968374225730674, -0.19766013595476362, 0.36712759784381177, -0.44994779183970035, -0.2881018040513288, -0.9227955528130389, 0.3545348150372003, 0.051960486254610805, 0.028764092392236762, -0.576355485096635, -0.5608930520712077, -0.29646925859424744, 0.7666957010245716, -0.9308501169789503, -0.40947118070367017, -0.9029127942881499, -0.7889272160820908, -0.21297756347054686, -0.1545172772051029, -0.33341612797923315], "b": 0.9097858997510817}, {"weights": [-0.3106953138598483, -0.8721829733826725, 0.9201803798542532, -0.966585252578775, -0.8804413636763213, -0.06420666439599065, 0.23601254064907362, -0.23095068903634397, 0.3253416052220408, -0.18815112182403193, 0.3546596321908546, -0.12956234074973216, -0.4780591562065688, -0.5776643647311046, -0.4463332049929798, -0.9201223877845894, -0.24771507301736828, 0.5155333184658122, -0.7352235869573496, 0.34334620612226696, -0.012209675143471488, 0.8126063109182164, 0.7535444741254533, 0.2468505941757384, -0.992379351225672, 0.6310612793448809, 0.7751976942104992, 0.10284485137334332, 0.7458908658809367, 0.9815544962014597, -0.8547507535437406, -0.9362521901928376, -0.1905961545921786, 0.4805096071592181, 0.9322336959828843, 0.26692024796951097, 0.5700417252999088, 0.15503690382790536, -0.6521384838492272, -0.688322147613585, 0.946834996404464, 0.7682916713367853], "b": 0.6482286166825744}, {"weights": [-0.5538987962392135, 0.6975918109521144, -0.05130095271137125, 0.7128055011498322, 0.7256720464775177, 0.020119513064416727, -0.8574957663793925, -0.1576141272688616, -0.22606111818715702, 0.1829936226402955, -0.10278510418240905, -0.27214759536513444, 0.7709802691134808, 0.8426653838638634, -0.7999316650317521, -0.2799153713556455, 0.7322277881617989, -0.9986167235194277, 0.7441674330696311, -0.21423681573899156, 0.2747050500331778, -0.14344490987084701, 0.01787585137461245, 0.03282754018477951, 0.42330849952591043, 0.604568738493789, 0.47827745558889956, -0.43205683535386763, -0.11719271950199395, -0.4797460165037595, 0.23598056979580528, 0.6891368117359062, -0.8380036639457644, -0.6600206666446298, 0.3975636721868776, 0.31297518624834764, -0.11640556465144747, 0.6796330460239381, 0.7200119201034683, 0.5701660527371317, 0.2016504699803161, -0.9225143945386443], "b": 0.24869890268721506}, {"weights": [-0.5259627674644336, -0.23874523316050245, -0.6592189203699981, -0.2637463341197406, -0.4640219113470656, 0.5398420799023471, -0.8420035381334308, 0.9092434643008607, 0.871651662492313, 0.9267684995817045, -0.5240709509632286, 0.5337496039455516, 0.5254062453675914, 0.9849885890986105, 0.059159807695299715, 0.06837995488334592, 0.9122776719436938, -0.676944769398891, -0.22970586797362724, 0.3948329303800766, 0.266122546166623, -0.20333125673244967, 0.9964974845395498, -0.06405568315041443, 0.21880566892481323, 0.2771463014897153, 0.9500990230151385, 0.2688795113915017, 0.8386637278299689, -0.2559665100644066, -0.6928035253207829, 0.5201527138867119, 0.1614660170035127, -0.8147960939744565, -0.7475720764766973, 0.28975114361093346, 0.6993764251619767, 0.5758411488490924, -0.9029972025722899, -0.4405831938858906, 0.4102855464745925, -0.9032967650662405], "b": -0.2640290776176666}, {"weights": [-0.15702936895457387, -0.611450289615745, -0.7119742288887092, 0.7286521644591828, 0.2504125166015012, -0.2531803219648252, -0.7623194989593827, -0.7693449560239993, -0.9899919969658182, 0.4034290740690627, 0.09769857316082353, -0.36484377753981745, -0.6359639786350779, 0.2469859250244053, 0.5775914300967235, -0.1527668839398595, -0.4953128550119057, 0.7966406381004159, 0.4551850006944509, 0.11738122198553791, -0.1266010015973924, -0.9097120455102135, -0.619874268267788, 0.1930006608950634, -0.19637326192050186, 0.2611173109700129, 0.4723704063719032, 0.17992027031598767, 0.304293793921683, 0.03803440864198948, 0.5327900217380033, 0.34927855974803346, 0.415350580731745, 0.8775147586287284, -0.12756175260348201, 0.9400078277133519, 0.5526817107647204, -0.5006925826163426, -0.9465319166988622, 0.7711941162497407, 0.489460283243182, 0.624615817674474], "b": 0.9401889511587089}, {"weights": [0.0383813470576404, -0.845023741669575, 0.6872140431191938, 0.8591997088660848, 0.4150045026699185, -0.9691921163348745, -0.06901957461937536, 0.45848378401653034, -0.07448969760402457, 0.8574854699741286, 0.5039789368585632, -0.33057555495340796, -0.8733944101308566, 0.24738582055931957, -0.052045088721692556, 0.2838921985788667, -0.8269425257879672, 0.6946078908330715, 0.09153667340393135, 0.7047948288586885, -0.7918635493172723, 0.8711012167833265, 0.7054612884097335, -0.699509270156276, -0.46581152167783957, 0.12935386292669393, 0.3096495310323033, 0.3708057401374749, 0.5289854300026646, -0.06596512417302924, -0.04084249569118992, 0.8358586282691407, 0.987572672570308, 0.6228843568760805, -0.16139242192948888, -0.4997553399715644, -0.33640626859110423, 0.5261950465316965, 0.14846985153637648, 0.3095643815786038, 0.5189067761220276, -0.8546979743813292], "b": -0.1921769290443065}, {"weights": [0.7260638714326542, 0.06173354613220172, 0.26437493084807984, -0.539833417264209, 0.8294106608488003, 0.4472693526924332, -0.37096434145935264, -0.057892285503555074, -0.00279970742849156, -0.7660297835649432, -0.32958600833195284, -0.2456849958960352, -0.8566511903357439, 0.8497779572797448, -0.8092464688683496, 0.8746024236653853, 0.2191275098033827, 0.17377700701626697, -0.5439735828448338, -0.35079287337143916, -0.9365664826041264, -0.7580420355609878, 0.8373229636851529, -0.3088129278657157, -0.2952432919054975, 0.6908903685756984, 0.6031416882222509, -0.8672210711166326, 0.8135575491181497, -0.5258569076600141, 0.8029418900556178, -0.17843529974798367, 0.6819642299315762, 0.4021678313474282, -0.2068361329236179, 0.3941555378493431, -0.04232944275926709, -0.5831537814446002, 0.644855177437129, -0.590193341094555, -0.4899066276798443, -0.2613391881312985], "b": 0.5985577192411657}, {"weights": [-0.258211426083093, 0.16919590282770391, -0.23177864016121763, -0.669259747539642, 0.6198990259377017, -0.2486642257495435, 0.7605317444250816, -0.7646592242009169, -0.3065464331517511, -0.5842194224960191, 0.3735338939749502, -0.6747273829973008, -0.09054150179597098, -0.2926643944427405, -0.3578822746485515, -0.18754179133696325, 0.9169607067893266, -0.9611736353918172, -0.6832037292822555, 0.8852104544082608, -0.8182987733846108, -0.6841567059966964, 0.2823252202884281, -0.5557577423994053, -0.926381641373764, 0.11001855032813523, 0.7044248885091267, 0.8065574950880592, 0.9691748012901169, -0.8648313470413771, -0.38094992955313134, -0.6168069848085596, 0.44324353079125567, -0.9877936054332093, -0.5418020765706042, 0.7953603013138395, -0.37579577260382546, 0.7011733846761912, 0.8979110562462209, 0.4182416323496265, 0.02360132292578676, 0.5408355272257199], "b": 0.4530507890556641}, {"weights": [-0.4321735659803141, 0.40592396419268595, -0.14105620947080388, -0.9581083548481679, -0.8243315395979924, -0.6092019589259985, 0.08347402954607475, -0.8713185054944161, 0.24338735512825194, 0.8904327942112618, 0.5861235518265413, -0.24214042022989712, 0.1033863955580061, 0.44789431607337904, 0.7050495950852373, 0.6087735129405489, 0.6217925434248115, -0.4145431781616362, 0.2210161297937674, -0.49248272440644225, -0.30858684674309456, -0.48084550168559725, -0.813377675248713, 0.42182232080093374, -0.314981913610374, 0.11616913601352086, -0.5673713897248145, 0.3959638663748051, 0.2444689848354351, 0.31630023102476357, -0.33160132865574443, 0.574942645891575, 0.9300714284601799, -0.12026362621248898, 0.4737702936433148, 0.8435477254710275, 0.9644616102126737, -0.7332585889100856, 0.056623015336560334, 0.19540767397971548, 0.5819811504635279, 0.866475594320008], "b": -0.024224847129252547}, {"weights": [0.32401491232125323, 0.8767412579563221, -0.9605552704046474, 0.5188354510758444, 0.534513343253604, -0.2292654135683514, -0.6729521180823481, -0.3719822706611382, -0.6781370184100797, 0.6739391366053171, 0.707387384534343, -0.3675050322678608, -0.546529511167541, 0.41723598537802853, 0.23739775717355016, -0.6827364428392286, 0.7555903600335365, -0.9347920191540025, 0.49866707347010686, -0.2565721602112383, 0.9010092525575597, -0.15117599378179292, -0.5399678461644204, -0.11239331709622902, -0.6851422541085941, 0.6664370109512434, 0.8854168286696547, -0.8129976524495521, -0.027977208568678247, 0.9135265246327031, -0.37028985259117575, 0.05052707307403792, -0.9289017977723952, 0.9776322548130925, 0.7961813783094969, 0.9654114290987632, -0.3537796257015122, 0.9655641141694422, -0.505994947388531, 0.6477415825573354, -0.6109901243891431, -0.9270333413644094], "b": 0.7978266194040471}, {"weights": [-0.5641801115934149, -0.5191797736652362, 0.34044255074417284, 0.8003757026947804, -0.38129342730411087, 0.8782657739230724, -0.1422728392801358, -0.33906170523094126, -0.6145761775069156, 0.3313344845925177, 0.004866207838739145, -0.57613313436118, 0.41062809838778347, 0.5590586924950214, -0.537478742752437, -0.8264451916749505, 0.5570175851008048, 0.14093892206627334, -0.3489661160697026, 0.8891866792887841, 0.6012065414123351, -0.33147148100312096, -0.7236332974389559, 0.77313099312178, 0.5835202921041851, -0.7156853413698974, 0.2152624887936183, 0.114610236418494, 0.4548813073990212, -0.3235181418306863, 0.8182551467309915, 0.3223308814071082, 0.3951851596943674, -0.9496391702566236, 0.730067728337173, 0.9844776733445231, 0.6606896142884702, -0.5546750643813996, -0.23390512443978628, -0.46855212199905916, -0.8020977132822968, -0.39402972949058856], "b": 0.9921292373188555}, {"weights": [-0.9013748108112849, -0.778256811322247, 0.39804437316217034, -0.8853485138443078, -0.7137915551153933, -0.9684364667752663, 0.2775947441282465, 0.6828323314131715, -0.16443349224169546, 0.37390675828284814, -0.25394931103835217, -0.8311049851311916, -0.4027665151299118, -0.15213916496897717, -0.478725095514267, -0.944627277351731, -0.4055674378025522, -0.6357660492002408, 0.2224568192215004, -0.551389485278869, -0.9699683639427497, -0.9156341902987324, 0.9856096296789949, 0.2419703671373079, 0.3144845150947966, -0.07026710456316909, 0.11615902059523275, 0.45669022610421917, 0.17795748857706095, -0.5511353635833054, 0.25556514482723647, 0.5865493361831984, -0.9973647759918318, 0.47181505684782654, -0.7804914728770465, 0.6773586161694067, -0.5688990022331069, 0.6612316016269888, 0.20946555955118806, -0.6671431384921918, 0.5776309692133246, 0.46320439870606767], "b": 0.04718047372051126}, {"weights": [-0.7070915202276806, -0.16060539592069367, 0.8257892899441677, 0.6219138464682632, -0.16861611840394852, 0.7121862710037536, -0.9696317172699149, -0.802884917927015, 0.8936868020767659, 0.6419372609636413, 0.17294100599188567, -0.8671577646863673, 0.836148993510198, -0.16133511113425714, 0.20025074953397692, 0.7020359766087123, 0.9944526816917045, 0.577316277830213, 0.31078070102439526, 0.17753998519677516, 0.06617380198575806, -0.9465047037392962, 0.8160239817461026, 0.37673747850701367, -0.6305085909543788, 0.35115366307724916, -0.5566386143488593, 0.1712628206942015, 0.08240042170203599, -0.7248918767858867, 0.24133711153995874, -0.041202237061414904, -0.24422708448798058, -0.13498987165279352, -0.140590258922642, -0.2006142411197469, 0.5486079428971047, -0.5301971656848579, 0.30275255245575994, -0.08400980234087951, -0.4576689682925328, -0.6020957026126079], "b": -0.7324226091164783}, {"weights": [0.8144316830047738, -0.7924690744108798, 0.554030785035744, -0.41891396260639846, 0.6216871678507159, 0.3761728657600758, -0.43347182861678224, 0.1313423645489722, 0.6741426735755385, 0.4924480117356713, -0.8403027256368678, -0.5992431193976109, 0.6680872357543823, 0.8632829062100134, 0.0752554474961511, -0.35225623070301393, -0.1063281597505159, -0.2984762661203526, 0.011420672692923128, 0.15924466931976555, 0.9047473161227371, -0.8913717656381495, -0.8151538289874709, 0.5544797398298902, 0.24172189838297897, 0.6410306975459519, -0.07918233623999282, -0.9952667446657204, -0.1800521132330588, -0.502707922392871, 0.5748964492870643, -0.8379379788888084, -0.2251726758821313, -0.6376571323661699, -0.7211469551486838, -0.6634235035522327, -0.29893508164993543, 0.5778957306293393, 0.16710404927064704, 0.8670760657624679, 0.8259723423457839, -0.5395767497500288], "b": 0.5423854412717783}, {"weights": [0.6809828865484393, -0.43958859897798885, -0.8464352984107715, -0.5322863392311541, -0.4288620982685658, 0.7345742016685071, 0.52002196363257, 0.20961792983585092, -0.8722485848945873, 0.8960140423158827, 0.25684968071877856, 0.2341535948923381, -0.7712911166193974, -0.12677831631458858, -0.17186116017849984, 0.35396294854955546, 0.6300509124849223, -0.4821875526727837, -0.535357923071974, 0.17159920997969502, 0.552538675935548, -0.9856323703404484, 0.8430458658273992, 0.595910786052571, 0.7998884884188067, 0.9894782469321268, -0.8851915117141611, 0.08310158605605333, 0.211976244345788, -0.02932770610800861, 0.62510390979469, 0.8006801887401531, 0.7633499207731145, -0.11306281054978107, 0.26830054527746405, -0.14817089886890034, 0.7047546295200622, -0.20082678509482754, 0.818058326428422, 0.22012366218145618, 0.4545839329526249, -0.2588581168033539], "b": 0.7369567901892391}, {"weights": [-0.2434501174677428, -0.3784905189553338, 0.7237195743246947, -0.3670125031828153, -0.33063452189784925, -0.7024804770697044, 0.5337385777179828, -0.7369323431831125, 0.6135470874188929, -0.7019043752348457, -0.11383310534613611, 0.4521184691074547, 0.9286715675793651, -0.4933631971603276, 0.7970238268468679, -0.3887805799138693, 0.07361559484783786, 0.881448242867551, 0.0456551027258838, -0.615077462153661, -0.8596596346414782, -0.980499117140158, -0.009765043568527032, 0.45836611401600735, -0.6036759695987519, 0.6321295919194552, 0.04690884574107823, 0.46450548245820933, -0.4229339815402071, -0.9421254659981979, -0.648851358846499, 0.6995564480159542, -0.709404100055347, 0.3295001680960543, 0.5492357908580747, -0.9113559688749557, -0.054102797911598, -0.8174230323053819, 0.5587923187367283, 0.10471271741909627, 0.785408536975533, -0.5520225651411736], "b": -0.2724755164704522}, {"weights": [-0.46858344684530917, -0.25251218802367403, -0.9183675234510495, 0.4143268486687681, -0.5889635144491645, -0.32269449179239973, 0.15060111406074417, -0.3511887353858727, -0.7187219065327528, -0.033083641621061366, 0.14289685395559815, 0.1301614159406317, -0.06374062254130064, -0.817879589835389, 0.0369788370558124, 0.2828152457867792, 0.12804336126066573, 0.7694247323383046, 0.48626526498522993, -0.9533058017991334, -0.23717702084285253, -0.00957722877174838, -0.9905736263229343, 0.24092244718290767, -0.9437421477622241, 0.6546748885246296, 0.4192136427383151, -0.7326384735619231, -0.23134054214020816, -0.7502043310841509, 0.2763384447977153, 0.2607065614738482, -0.6443219680071601, -0.13332282617375713, -0.4292237708742046, 0.28810688452079325, -0.5645111163331391, 0.2901761304325161, 0.14169143401279105, -0.6788924852890188, -0.29870202882759633, 0.7236852579988757], "b": 0.41795799901943687}, {"weights": [-0.8901992104794254, 0.5664369376221488, 0.2580500828865997, -0.3724564173747187, -0.6192441594471685, 0.7622548903683029, -0.6367959446028217, -0.701929799276469, -0.5201831798177934, -0.3089244025348523, 0.9196573870168319, 0.8514731946968255, -0.304520889485719, 0.4125523859161324, -0.9973266582321316, -0.593386904316201, -0.37200707396207555, 0.9313217257798769, -0.021192028581897393, -0.6801240351269904, 0.9082060593907912, 0.11787406639983522, -0.07413035390902523, -0.2282313887923022, -0.3894126130519069, -0.10997577525857616, 0.9016667521005077, 0.4121600437011588, 0.26654711015532206, 0.6351606166462698, -0.9888067160975893, 0.06242536090979023, 0.5980995842454822, -0.9142699133750141, -0.052534041995841774, -0.09040796130940798, 0.9414844526611217, 0.6799880640875364, 0.7930016990031317, -0.23773617260139202, -0.030187752348748376, -0.12866936368716986], "b": -0.9626062736916645}, {"weights": [0.5452502010096045, 0.04566102173772535, 0.5465048392430536, 0.3766493370742168, 0.29821811313552904, 0.3694125924351055, 0.3004793081384656, 0.7514063871940366, 0.28919648602796877, -0.34805275814715797, -0.6704811839103695, 0.6386603954010668, -0.43399552561490773, -0.7161035371868905, 0.037763633294724874, -0.9778144548144221, 0.11598147006790027, -0.38608277991438444, -0.8817531263437042, 0.5600494234229947, -0.6911624237202396, 0.13481152635132543, 0.5519466916658025, -0.7093882248028196, -0.22229440417684132, -0.5282465309869122, -0.3483735391016014, -0.13082875185386444, 0.3787286086045265, -0.3408266905999622, 0.7514623410219179, -0.5860251714754792, -0.007908027984417254, 0.06556631518803568, 0.7713144669294207, 0.9487457914611885, 0.9766536220020483, 0.21908200128804278, -0.9893979748654234, -0.7544458039167532, 0.8981283660489967, -0.9594784825789522], "b": 0.15488975077443268}, {"weights": [-0.4579541630910793, 0.011737119756675796, 0.15180834920439468, -0.20985859170931653, 0.5042216977332061, -0.9531816377963567, 0.06533150507580832, 0.10235820203776269, -0.5180671166795627, 0.30648580505236445, -0.7981030295131775, 0.9845895247247196, 0.8050312749077615, 0.6322089981866075, 0.020944821059211582, -0.7890255878633383, 0.00392949813319543, -0.26731816103606976, -0.9574152304941241, -0.4404035879404977, -0.7182013672963152, -0.18502432106722266, -0.1613449127489568, -0.8210022164310025, 0.9724071027563481, -0.23255829657086724, -0.5219887718949439, 0.5338968132511264, -0.47018099156192705, 0.5075050262827461, -0.8538729382520702, 0.6208133536712437, -0.41453105918615263, -0.06860333747776703, 0.1565113165075227, -0.9451213900316553, 0.07046568517216811, -0.41286341484992195, 0.4493262731067047, 0.2598449309997004, -0.15042519399431198, 0.3291052894508648], "b": 0.8710505034476872}, {"weights": [-0.35676808975920427, 0.8715773773492743, -0.8207016307236679, -0.9685801641209908, 0.45134457816413875, 0.3767973607775563, -0.14168067902448267, -0.10733491762527914, 0.2752024117627099, 0.17403094258518648, 0.4419553974539059, -0.909477039311388, 0.6953089220545763, 0.6676485019655201, 0.8329821642794888, -0.5961367036174907, -0.4212438263595979, -0.27670262752627917, -0.5009099702599391, 0.7059295508015266, -0.402235501458003, 0.8578492626672103, -0.6690702958569166, -0.36874927403984703, 0.24242453757111115, -0.4462889636544063, 0.3537816845860542, -0.046907839690899955, 0.34101911878418134, 0.3181081842179265, -0.991801294048628, 0.07910720909700775, 0.8637204000944902, -0.07777101355522298, -0.61626189946577, -0.6858941557096345, -0.3855586619621587, 0.9029415323735059, -0.676702854684337, -0.1911598598383899, 0.8029004256462287, -0.7807332692472639], "b": -0.9511635880038081}, {"weights": [0.17091389356092512, -0.01133042769785031, 0.29976203143919844, 0.2192758455949848, -0.38045812706175663, 0.8309465273397738, 0.2044830900290291, -0.4218808906290623, -0.8759791706655913, -0.8218626397398441, -0.0806978946292034, -0.31545982727696464, -0.32025121722467653, -0.3986363518331253, 0.16685988892575065, 0.30765026934358386, -0.24243660061089845, -0.2971191108012732, 0.511586861001031, -0.054475544115901275, 0.2774559064572526, -0.20782682529377916, 0.22051911279318093, -0.9518159050028996, 0.37692112311866266, 0.8181052227765018, 0.17519716997251233, -0.6173786880496632, 0.3525288933279416, -0.6556915211342946, -0.6849851067259711, -0.15752490319532853, -0.9927376213975043, -0.09086466127511472, 0.6335967751900866, -0.764614246214085, -0.16430485631029512, -0.3066223416804812, 0.5972206356278338, -0.7578300129835029, 0.6763760751779697, 0.16663238759200882], "b": -0.07944687317110266}, {"weights": [0.6307034033603143, 0.6840633630610071, -0.7129214314085739, -0.29885788295772486, -0.7710689020424046, -0.25060189923281473, -0.6627317056080018, 0.880788555317876, 0.6890285897888393, -0.5484211629413167, 0.0031889360128556365, 0.7451247997504515, -0.10924303580521033, -0.48929205589074987, 0.011256445274327342, -0.6371975865206521, -0.21390936466538601, 0.7459199184594918, 0.49600025582549856, 0.8004155118081511, -0.6368977234149853, 0.6885048825368616, 0.06893225219374588, -0.8363067611128345, 0.13380487058572021, -0.4666599803685363, -0.12537989340866162, -0.7628265859014243, 0.9463930642506542, 0.6890466528449988, 0.08277432549268404, 0.9073152837936225, 0.7771302979715644, 0.7203866022987262, -0.2087080847655911, -0.24525820881805505, -0.18354147452610015, 0.4815643231430302, -0.67859098329678, 0.9016410755058433, -0.9777030702633733, -0.09390862141787282], "b": 0.8034997571868943}, {"weights": [0.1633388404008711, -0.7918713004294875, -0.010500760384454466, 0.6226799801077878, 0.6001605993343413, -0.7659648908474288, 0.7202069598732117, -0.4719311345965993, -0.5072826498120471, 0.49031770279123066, 0.90784454549776, 0.31781171310215406, -0.9433740506784518, -0.02083353237388552, -0.24436231428449995, -0.15019459698207815, 0.017760183434532006, 0.25900670096776524, -0.9196773158538916, -0.46233432819650044, 0.8331879286363295, 0.6876903458336083, 0.9634330233692059, -0.5633178653080604, 0.05836726218522714, -0.20583872718730234, -0.06457894950992804, 0.4892726278002748, -0.6329882206718895, 0.04746012091850216, -0.2860008353207566, -0.675247610405108, 0.5724555695158986, -0.6573122246551426, 0.12342620598527088, 0.019310023173259916, 0.7371065971608359, -0.8830711037190866, 0.15839928316782448, -0.5211944272703639, -0.18569297010161478, -0.04868756553578435], "b": 0.2903262570195948}, {"weights": [-0.8217273726047216, -0.9787833696972617, -0.6248251171454413, -0.9206683979480148, 0.26447827204344, -0.5293554064027088, 0.6701451825692222, 0.21332203833188212, 0.8300912482080971, -0.2474648127861767, 0.5552627142064364, -0.1759508436424222, -0.8817431846425392, 0.6526939467305124, 0.16951515380888482, -0.8436839586335774, 0.8832636787132748, -0.680414483082415, -0.9500715339896022, 0.18324957675442088, -0.3674838582861055, -0.5886308609740212, 0.16844120042184985, -0.7820825908573321, 0.8687988096092629, 0.4613361552050059, -0.237662298448716, 0.7728225883313709, 0.0948190247971199, -0.8655736065138169, 0.9583115330040943, 0.2964075167065814, -0.7836966394273661, -0.04570839472576327, -0.6703655023493502, 0.14971313284134924, -0.05278639269116181, -0.5164588802182577, -0.9905598858895421, -0.8893222015213227, -0.6625738009438276, 0.5261090966217885], "b": -0.41587208573641976}, {"weights": [-0.8487919870898666, 0.12531349312330753, -0.7889557857016198, -0.6611962690714293, -0.9811806328476518, -0.5095109467407124, 0.9885646095975797, -0.7103872578667003, -0.25938326036291914, 0.20977752995414822, -0.1363760357555619, -0.5218373823434883, -0.15959201446656124, 0.5701916976895798, -0.30111673996848154, 0.3519639840825277, -0.944026642491191, -0.4509507223393343, 0.030229014029611534, 0.38664749208966165, 0.5181477671872583, 0.7729057965977479, -0.9171237735975559, -0.1029355667051639, 0.966197425359145, -0.760121501897197, 0.8427503792643503, 0.39675722247289924, -0.25306018093604554, 0.7614657132202973, 0.07647856923872642, -0.7176652826828267, -0.38014628660021055, -0.6311310789363727, -0.2646549724638847, 0.5323939722867115, 0.9644774916176262, 0.4828444209004057, 0.641870451709569, 0.6012273838555315, -0.19060906016135992, -0.7301081690525804], "b": 0.012152700722014353}, {"weights": [0.5260258856987874, 0.7857791778717689, 0.5423685957918496, -0.7956732328349909, 0.688750635226222, 0.084696906348811, 0.15077889240180165, 0.818435578270374, -0.1674279760777091, -0.5606185682619571, -0.4926849545281422, 0.2950010916192949, -0.22487905154077836, -0.09386401457871796, 0.6356333566784604, -0.41300149589602975, 0.3647244210037073, -0.33251965606117295, -0.7968606141938732, -0.27266967512506524, -0.8387533139300551, -0.03465100558716494, 0.03103025719967878, 0.4080039569645333, 0.8116660491871646, -0.20998943511095325, -0.8566025450406529, -0.0673339763223022, 0.9780979812097874, 0.3260733900216546, -0.21269458140422004, -0.8765486724458964, -0.4886935373459027, 0.8208335780276983, -0.6649292994071954, 0.04272422465032255, -0.9724412623150995, 0.6104028294482104, 0.16164995105682034, 0.5373924736196929, -0.23113849288955368, -0.4948522985197268], "b": -0.38549887076499956}, {"weights": [-0.058179479646789156, 0.05705597934829565, 0.43135395683254796, 0.28023270036653614, -0.7192814633312221, 0.08837076777668518, 0.3807946666156554, 0.08420782422352269, -0.7290879029748856, -0.46422222121770274, -0.5477502037409427, -0.7809421341760836, 0.5261451982888876, 0.47706846058338526, 0.3533045922618041, -0.26872281375569473, 0.13937885170218078, 0.885451381130058, 0.4870133890333337, 0.39237298613578964, 0.7810097110337697, -0.4906053851349166, -0.6864325745648419, 0.7366114041485472, 0.7240447042706781, 0.02896866824540001, -0.26226606073184033, 0.43793149888990746, 0.300729440951198, -0.21576739220159635, -0.26686666719950347, -0.8510597482805555, 0.30875448103664627, -0.6155659733147747, 0.052642888134293075, -0.14837466704243774, 0.1750344636492167, 0.2387248005505802, -0.015999663850723378, 0.8146597238548317, -0.1723468318040533, -0.4291890472523694], "b": 0.8324585020112811}, {"weights": [-0.21469934333723906, 0.4245959235366199, -0.7484723330392262, 0.11668770843987963, -0.18788083284990975, 0.5289852627420049, -0.3171433515654414, 0.13841041554235978, -0.8727852121944262, -0.9988988799571463, 0.1375139473045397, 0.9846797274029591, 0.21353848785192198, 0.9520040101614673, 0.06630840954299644, -0.7112036174009195, 0.6219533747431853, -0.0586473897923121, 0.9482831201013531, 0.4183161127965416, -0.8423522185617716, -0.9688874779421017, -0.9644535933381735, 0.16623982478786514, -0.8509245345623269, -0.4325488395562722, -0.19225947190747394, -0.6764059630829016, -0.8270659941004974, -0.28889633082577704, 0.8615581506996461, 0.800670882528346, -0.8139972681397667, -0.5156906042507612, -0.16230649194992175, 0.6265912444431854, 0.023310549872851194, 0.2833483158149659, -0.34450421846475887, -0.7653991790978403, -0.15204413454198962, -0.7688411434432831], "b": 0.19648162401620706}, {"weights": [0.8365394048077326, 0.20989770286458498, -0.6000335712147844, 0.6468549485048747, 0.7465469034823702, 0.9690913016497236, 0.8246033469156211, 0.6597611599782136, -0.9204703134834389, -0.5862111162739954, -0.9746325495987722, -0.24790464373850063, -0.5028179471601413, -0.23846651102914374, -0.7344349653367541, -0.558337804342492, -0.5585591611198293, -0.20196574310141235, 0.04059588546820825, -0.10929411252948529, -0.05274035278060363, 0.4815384026499294, -0.48983926071565653, 0.6334651747815927, -0.27300308256741346, 0.3565621963091803, -0.6077909154613175, 0.2818114772838394, -0.8746439300403377, -0.25577183404825865, 0.40609829715108936, -0.929092512349831, 0.02213562155691262, -0.883120000306719, 0.63411894325041, -0.6911026124863675, -0.9320191690496622, -0.48356908283103595, -0.9981452799281494, -0.857389633022166, -0.16196301707320693, -0.4114066286070164], "b": 0.454414149448213}, {"weights": [-0.3998483142738112, -0.9745438069178842, -0.4530792929204066, -0.33861001846160743, 0.14974391709421297, 0.7178141259528155, -0.36192779189019264, 0.4902282117929253, 0.15609866995900679, -0.24286028147442562, 0.1920097519332542, 0.7147088401777169, -0.948155115017163, 0.9252732000205219, -0.9864498521370102, -0.512490510877851, -0.7088557727054938, 0.8877361153591417, -0.889898708872527, 0.9791447045210608, 0.20684401683128306, 0.6070462156155532, -0.15385016638643445, -0.979027189655435, -0.5691219513506176, -0.9381833311491545, -0.45848009384869326, -0.5196380962338023, -0.09054039077398768, 0.5138079653091094, -0.5004602965158484, 0.1238525517955733, 0.8222075773423463, -0.037642808037189335, 0.36507808076887893, 0.7961735406689068, -0.3231116384072459, -0.5674485355443133, -0.05879192871420713, 0.5843304749881391, -0.0952716952228927, -0.3872971395916889], "b": 0.3997146398912732}, {"weights": [-0.8123264058921369, 0.7696918043414183, -0.3866943194394197, 0.20642379849594894, -0.7324352678143224, -0.937232275866412, -0.3784222608607297, -0.6669142238756547, -0.3151790231278553, 0.14667613224410436, -0.5601587780543609, 0.23542282568726547, 0.07805309542828254, 0.3420274633453131, -0.42437067479791146, 0.659671884830084, 0.5011924556406899, 0.24638816225198568, 0.1977648088179651, 0.40151596403392653, 0.6027768043344421, 0.7952274864909636, -0.037510983951168475, 0.8224949684920457, -0.17957782119977272, -0.6420444248505757, 0.0069533984753944456, 0.060339591524820824, 0.5935247948203997, -0.11747646204569695, 0.5909067378796682, -0.1785153753275599, 0.7332490840571038, -0.5644456777456832, 0.9856373210623912, 0.7926121380166904, -0.13578257205256872, 0.29737963980659776, 0.7542933106279237, 0.10680071904879251, 0.6679758808538632, 0.2598042944740888], "b": 0.8217076039228361}, {"weights": [0.518951247126944, 0.2939240151522089, 0.7883222954089193, -0.17243460371446284, 0.363348530216969, -0.8551343513859453, 0.39038367245879346, 0.37047687912406224, 0.2014511662370455, 0.06565812832483386, 0.7241256418051103, 0.31022772056573955, 0.7657865779050885, 0.19766851651444228, -0.13385184622851742, 0.22014923954238586, 0.06343991931063808, 0.22215128268717454, -0.9193658270412979, -0.06045886286659585, 0.3462905500751772, 0.8127894628874395, -0.9257572530769851, 0.36681744151076034, -0.11547769900119786, 0.5425826059633907, -0.37926544432753406, -0.5837798810866681, 0.5521819587643038, 0.9307170978416475, 0.10316265720126383, -0.8651642319953148, 0.6395926297230381, -0.389288958101744, 0.30732759886093386, -0.31216035001616427, -0.38054699955977833, -0.5084382421949436, 0.690737503622922, -0.6312238890076189, -0.7435765749336751, -0.8756828313904284], "b": 0.42331266182036664}], "output_neurons": [{"weights": [-0.19177804729171655, -0.6727181777233706, -0.922177907471392, -0.0846670671696721, 0.9861240839440046, 0.5140468107978555, 0.1407847694710158, -0.3580426813916253, 0.924091727731386, -0.6721144810613466, -0.9334154902717009, -0.4424400800967916, -0.49910138736084875, 0.3767843246074576, -0.13169662449835928, -0.2537699251211374, -0.11690509935085869, 0.7525864238129487, 0.45744681786505925, 0.48866648146762537, 0.5733253562369978, -0.4258937530685787, 0.8261897738922848, -0.7471887751077995, 0.5878774658635895, -0.7747703533819712, 0.6867451408136147, -0.28132779017226395, 0.1825944339048251, 0.18767573727716935, -0.7714457310139031, -0.9240856235925505, 0.9462134149670764, -0.9293612941147047, -0.04397354300270084], "b": 0.012144792779296365}, {"weights": [-0.7644949995407713, -0.9251001443059759, -0.23818336420093278, -0.8862692601853266, 0.6850339312551086, 0.5082603701330113, 0.5593217240676385, -0.6631901121292627, 0.09483413234209181, -0.41421705304235124, 0.3958596157999281, 0.015481861520757034, -0.11260615333263857, 0.24465707029940087, 0.018535508526090094, -0.8838926239099683, 0.9570233029412072, -0.08223737796417896, -0.42100946848324305, 0.15162228894627083, -0.10031433130418632, 0.513533795359957, 0.5552334463899298, -0.8331001302639995, 0.38744787678248227, -0.7664657667050614, 0.217839148859317, 0.6016557226452797, 0.27164510816723175, -0.18957301623400014, -0.9448956817357383, -0.716987357036516, -0.13400129414767847, 0.5088586391021919, -0.9334680046947494], "b": 0.13370025981354638}, {"weights": [0.5184528935448003, 0.5921101101032213, 0.5284768528816781, -0.20867426529788502, 0.950482957891843, -0.9742072115918574, -0.12249886047836989, -0.02744733705658242, -0.9641698644637162, -0.2713403323183079, -0.4245836026041412, -0.9795773463883592, 0.2335043991394108, -0.1490752548186587, -0.7895729339828952, -0.9150743355551687, 0.741030945633196, -0.30616438818149083, 0.5596456062525976, -0.8999788050951407, 0.641405017694098, 0.8929893825893711, -0.4345524653648398, -0.17512201861277088, 0.5023770673329782, -0.7027734882374237, -0.33040266647666994, 0.8047558515767357, -0.5142546172411215, -0.7856207668369453, -0.28307557027766395, 0.291512027671349, -0.8199622582455695, -0.8385752945940799, -0.940135832240055], "b": 0.8564923888784963}, {"weights": [0.4987292751210153, 0.2247412024562334, -0.2245958401300845, -0.30645299671376214, -0.10318651708153759, 0.9403763879201539, 0.9473981930529305, 0.33238929899926917, 0.1959213063294445, 0.9803555092573886, 0.05197327197211177, 0.24564150047828703, -0.39368482817638695, -0.14384408964249196, -0.4656112973245814, 0.6135737335949951, 0.7218396699957086, 0.0037443401643735275, 0.5878838642418904, -0.36568527261398986, -0.6565506883104193, -0.47630180892436114, -0.8949878477684254, 0.3097247292844856, 0.668712220668553, 0.9259987986776017, -0.5359389349979973, 0.006590094409753666, 0.2671224135995094, -0.768043514291638, 0.8888347748073475, -0.5123220937130701, 0.6817525845340657, -0.7899278445013886, -0.6710973257612203], "b": -0.5688306427035621}, {"weights": [0.03805273300305401, -0.2755014030984937, 0.02347954422843035, -0.11818854376901555, -0.9109855000710805, -0.7156281395034936, 0.24277426266136137, -0.08211692587474184, 0.8734456475249275, 0.2058290715007507, 0.10337444313332234, -0.7715982928215885, -0.6391068460601628, -0.027894625130982176, 0.05791900895583324, 0.5803719122563225, -0.6168370523761906, 0.9850561418462853, 0.9169676702975809, 0.9482964442200092, -0.6950021656286955, -0.37244136219649127, 0.7114517290771161, 0.785305365133101, -0.11508944575674618, -0.03160269066681076, 0.09171380895333758, -0.6409203447623788, 0.6647308861847556, -0.15681430473823266, 0.9361280179768656, -0.973888770921356, 0.8873547616765043, 0.30534440537172913, -0.9658502112782585], "b": -0.3829945322116406}, {"weights": [0.227166514019165, -0.26285273918458696, -0.39510714469066643, -0.5002428836292727, 0.6049137098415274, 0.3999370430285756, -0.2800491511580834, 0.2147914467717944, -0.7978578843176767, -0.6095244676280405, -0.49664694360412276, 0.5761551445865509, -0.15614702157579918, -0.25427818541148994, -0.8130552127721613, -0.8725410324887324, 0.1384647781224182, -0.045655533998089526, 0.034684942113405004, 0.594981358459814, 0.7314279902181506, 0.20974926188466436, -0.057498150456265495, 0.21564743675719122, -0.20354147655754007, -0.29153262019613346, 0.9978478187173929, -0.10903366055352937, -0.317354613052792, 0.49277998466039197, -0.3170475761929683, -0.6351657669673445, 0.8571821742848538, 0.12813390777445122, -0.7884348353234887], "b": 0.1440338944682602}, {"weights": [0.12440731979508834, 0.12015631134013138, 0.7345224942012649, -0.47394758324790165, -0.3323121657038903, -0.6348630307580692, -0.947320337607205, -0.25336703656097126, -0.680719811998695, 0.4073200507769479, 0.033091209323296455, 0.3862633295573443, 0.23526311924797194, -0.023985183601735738, -0.80057189306486, -0.5902180889468562, -0.024732964704257565, -0.021973234157465438, -0.8219892107657554, -0.03636073009637997, -0.020529134958448214, -0.8224642685594585, -0.14791382204619707, 0.04167159570829271, -0.8831381414671398, 0.30446538872771245, 0.6737195097737594, -0.09025369309464537, -0.3035324543821847, 0.8397481067587003, 0.8709360378363946, 0.9072434410794517, 0.433434865049253, -0.6983872785425167, 0.6031886636199844], "b": 0.7279650057092981}]}