{"input_neurons": [{"weights": [0.5617657390432997], "b": 0.9949849913949882}, {"weights": [0.4726099124761638], "b": 0.9159528767934775}, {"weights": [0.9075255017043753], "b": 0.6549712293307888}, {"weights": [-0.9945618692688036], "b": 0.6865995289885818}, {"weights": [-0.20376389316987398], "b": -0.7175462796375145}, {"weights": [-0.9570225539614836], "b": 0.9963601436986631}, {"weights": [-0.5827675223976125], "b": 0.15107636068950714}, {"weights": [0.18674995669132222], "b": -0.7354026967131677}, {"weights": [-0.520211694693756], "b": 0.2653988610441882}, {"weights": [-0.8105916226913126], "b": -0.7152528096818556}, {"weights": [0.04857888487719886], "b": 0.4210197512400966}, {"weights": [0.8676709953935466], "b": -0.38181676065073233}, {"weights": [-0.16177352826071312], "b": 0.9183586515258237}, {"weights": [-0.6146550982099697], "b": -0.36096335017906633}, {"weights": [-0.7828448485946171], "b": 0.1812811516362598}, {"weights": [0.8569848472075559], "b": 0.9628947543072972}, {"weights": [0.5718342405476624], "b": 0.26811513536338105}, {"weights": [0.2953291318139297], "b": 0.33155116148357977}, {"weights": [0.8036270850688663], "b": 0.91012752963161}, {"weights": [-0.008228403879729118], "b": 0.4217177945144326}, {"weights": [0.24921608429381248], "b": 0.5236631438879458}, {"weights": [0.5340549954833593], "b": -0.10160211318587375}, {"weights": [0.012891521366896086], "b": -0.2698629540434172}, {"weights": [0.7231851238166451], "b": 0.44559348182361913}, {"weights": [-0.4949309864710605], "b": -0.38998801466398425}, {"weights": [0.46577986953945305], "b": -0.48354884275319976}, {"weights": [-0.02648399667072332], "b": -0.8248233871898649}, {"weights": [-0.5763810232484186], "b": 0.6032522540057483}, {"weights": [-0.637863810531935], "b": 0.4292017643406729}, {"weights": [-0.8499472597778022], "b": 0.19878895571762234}, {"weights": [0.8626894377320626], "b": -0.10877864639744006}, {"weights": [0.10518708145905409], "b": -0.4668833624837039}, {"weights": [-0.2796986037275446], "b": -0.27292108485354083}, {"weights": [0.8513400387557284], "b": -0.7612210239167267}, {"weights": [-0.9220010458549324], "b": 0.6807183331836428}, {"weights": [0.845524753616657], "b": -0.3493600401948289}, {"weights": [-0.9792262905398841], "b": -0.8213530861456382}, {"weights": [-0.0680644056084565], "b": 0.021964703766521154}, {"weights": [0.2477437803442839], "b": 0.024125542932031063}, {"weights": [-0.902211391477953], "b": 0.15314927194109318}, {"weights": [-0.41501842551344836], "b": -0.6927961254230388}, {"weights": [0.8380937080516655], "b": -0.41865335298065287}], "hidden_neurons": [{"weights": [-0.4846219212640166, 0.6431481894596198, -0.8050150313960738, -0.935810848860086, 0.21961202704595872, 0.9131938521864691, -0.2409608133887977, 0.7388522009634368, 0.04950885512221581, -0.20523129395382234, -0.6336555139839917, -0.7755522194073885, 0.14957778625086582, 0.13666845960718055, -0.06401171754593316, 0.19042320540101465, -0.800009125469467, -0.1116928706936815, -0.8628819279219417, 0.7073940886223513, -0.5872292604104603, -0.9053820460178308, -0.8665907394682648, 0.5285965429372477, 0.5834068895462163, 0.5068227827841592, 0.8163605289582498, 0.23935884556333398, 0.012984828850969299, -0.02357692903792552, -0.7899685046334601, 0.5332281736180207, 0.6740026680642326, 0.593154361793814, -0.15692013763363533, 0.9800865265797805, 0.6848523945239113, -0.5506642556453885, -0.9364425327650376, 0.1284938043982331, 0.22583438124481647, 0.26785325127143933], "b": 0.20546330971756688}, {"weights": [0.20846801973610418, -0.5491753481641466, 0.3434605790121372, 0.4456654753531719, -0.05724865314888672, -0.3681073857520176, -0.3644801108783431, -0.6261100774889194, -0.44956653062151, -0.2692486425187304, -0.43384931675670724, -0.7717456625132397, -0.30150139154311195, 0.9709388566725057, -0.12121421753691308, 0.7911701223001399, -0.8326997905887805, -0.3540047734795688, -0.9079809030368655, 0.34526649480071736, -0.6722579252897789, -0.24865386134812506, -0.41753120630313845, 0.8045922302842368, 0.28549340999863415, 0.39183790237864313, -0.9950047285070023, -0.9492643687721127, 0.28781566456481156, 0.6945333055893868, 0.9278593063275504, 0.763524826109125, -0.057454129683816246, -0.7033373124172912, -0.3481910910171253, -0.6625293837726816, -0.6510966743263016, -0.273568639132141, -0.13828570143645513, -0.39331391722670106, 0.8104034270444913, 0.49226986635685943], "b": -0.8962535344001135}, {"weights": [0.7511375893182881, -0.8292602933568454, -0.9838876451476788, -0.7238189291640034, -0.5567875135582185, -0.21435094457914405, 0.5606538460699635, 0.12174991900179277, -0.8779708997191573, -0.38224002686946257, 0.9107548355155659, -0.6383309004339539, 0.11980788306310997, 0.10155073178397167, 0.4485805470529778, -0.5181420895949214, -0.7655308927624724, -0.32381948997671817, 0.10474469733589609, -0.6285003670201428, 0.2530022781670922, 0.9983835787856101, -0.7434365009250024, 0.7570910112518161, -0.4393698004919764, 0.961955418510382, 0.5646203174777487, 0.3277851502783107, 0.9956940441304436, -0.3499812399700022, 0.589457410260747, -0.2940533595680208, 0.23573321673509207, 0.05176562593428735, -0.304430953981214, 0.0555456108504051, -0.1473479445231045, -0.69246702022151, -0.2618169529714458, -0.8349839379656772, 0.9283860780081206, 0.9799198994547067], "b": 0.8431413421044611}, {"weights": [0.42672469530959867, -0.7865416401840764, -0.6103366504429015, -0.8481199418872156, 0.5139662485875871, -0.6406561701655702, -0.8133423788768046, 0.28644225345207297, 0.29856193213536364, -0.804743248577465, 0.509759368464737, 0.1726509902673794, 0.8812722766235639, 0.028892085657318933, 0.12751851890256094, -0.9557024878073102, 0.895558509000846, 0.40618761380872237, 0.26428158289480264, -0.24865887548056076, 0.02177655386297017, 0.7524885836107305, 0.4222973857792529, -0.5777425893951775, 0.08474763376278327, 0.8760856529915304, -0.8314126558380133, 0.8587580263952004, -0.40175832865439065, 0.033566330202313255, 0.967511592449896, 0.8864191654337452, 0.9457921832729075, -0.14002960194054115, -0.3931311745557977, -0.46862228209176493, 0.2789188082514673, -0.12169853502394279, 0.1154301764951351, -0.767861710741297, 0.4528504416675452, 0.283030662531919], "b": 0.4485865832812761}, {"weights": [-0.33077877726310767, -0.23225363488468975, 0.12952903830209528, -0.6058373666305086, 0.5566468807455343, 0.3909055036262892, 0.42488344416833, -0.642007363300745, -0.25475812455588565, -0.6084946887591107, 0.9899455993657076, -0.6931866803264035, 0.4016473044017268, -0.9610224486935026, -0.2352565912151392, -0.3034702706623229, 0.5177671489851154, -0.796209457783696, 0.550354207596824, 0.03153537703950149, 0.8767846106475423, -0.1606955228322271, 0.010825463681227276, 0.3775836988691492, 0.42504962013373726, -0.47090212508311846, 0.8433393418763346, 0.19074032954564402, 0.28258878434563495, -0.24571260839405573, 0.213515825653535, 0.340689955488761, 0.9277127128333826, 0.26828407769796025, 0.664247542023815, 0.21233401461952828, -0.454605107150178, 0.6252078180913194, 0.26210925101773186, -0.4015441445312935, 0.08124393678430475, -0.5606841434877479], "b": 0.927742011131353}, {"weights": [-0.9318740245174251, -0.47751083634993363, -0.2805780317882778, -0.03195197460153376, -0.994535253370501, -0.35967643065498356, -0.16794031646879626, -0.9013941375976657, -0.6847297885872397, -0.4785284824778766, -0.13187838358490578, -0.723506304793081, -0.5779124299347305, 0.16724426063467734, -0.17653034995625383, -0.3379499156815615, -0.652678118051855, -0.16447316618490304, -0.49953150838627813, -0.08407205185496291, -0.30643211738193377, -0.7739774684740286, -0.6552128536323214, 0.0167772512277522, -0.29681424193715467, -0.5029964630636681, 0.01755557253010065, 0.014027562276136996, -0.9421971167769092, -0.3190863267374884, 0.06653146790353492, -0.21624550668310105, 0.9134389943046246, -0.8564386357404254, -0.6322878736150723, -0.03031418379206441, 0.9837975232070457, 0.5337441674545977, 0.45013077375340105, 0.6553158760987658, -0.2340824929800529, -0.5098953719444987], "b": 0.2687944571718148}, {"weights": [-0.22860520790227978, -0.3647597084033043, 0.2166788968006368, -0.12516785969011046, -0.04025248745104393, -0.937714420254399, 0.40462849929831535, 0.18220669987386184, -0.01933072617407494, -0.15257822342227856, 0.7746835882135068, 0.3577843710462507, 0.25748702636423726, 0.651659496858596, 0.08999985657913956, -0.4838589118372423, -0.5213243966999832, 0.5842750184971919, 0.34425536904889764, -0.9648801035231531, 0.27421763129538657, 0.011811596268006985, -0.28285736378740833, 0.06698213468072134, 0.5994988173788423, 0.21599651552544175, 0.4714771212528124, -0.8186128153264673, -0.8244655606434947, 0.08576658750306798, -0.4204112959812285, -0.47062507509425866, 0.5169595393854671, 0.530198078744589, -0.13419994002384317, -0.46983507695636617, 0.940120345371465, -0.08820954902091649, 0.2553511931988204, 0.834860338073752, 0.22961316085074213, -0.7243819095564794], "b": -0.4807152285156826}, {"weights": [0.19289769565977766, 0.1518097904616338, 0.11803155826388534, 0.8443962350470908, 0.8145968375567265, 0.7427649921948922, -0.10970281791083614, 0.14745767599117166, 0.7817814810714478, -0.983858876017492, 0.81457958783636, 0.25920323944571644, -0.5795918304675569, 0.8684318783127056, 0.170953799581943, 0.8998324690067969, 0.036715490916563676, 0.09490032764637335, 0.8409965859657762, 0.8741521378399981, -0.35999753906449916, 0.35263755119400253, 0.22402989840713605, 0.1252486741182064, -0.8299582260412535, -0.41971299431277354, 0.5419153179690699, 0.1758788130213369, -0.0563500259534242, 0.19718438086628565, -0.5605998384342181, 0.6098377172919862, -0.9337730198069767, 0.6805557291919451, 0.70371719909303, -0.8316877090375527, 0.5381709351095281, 0.6821503957432429, -0.5440766933351224, 0.12509197914624703, -0.21715479924632497, -0.7281818028144675], "b": 0.9836827666682995}, {"weights": [0.316937361563709, 0.41390842015591156, -0.3269726069717602, -0.20048615568051975, -0.5681563964757299, 0.9337110622025713, 0.9688069074284382, 0.3318523866921663, -0.9045771377641554, 0.023115188520668628, 0.512289004015968, -0.8887389146636855, 0.1511697200480786, 0.482013405897038, 0.38654971242712555, -0.11701430543785785, -0.6018821339266176, -0.40226404538084126, 0.46754485570557924, 0.11019692794515601, 0.1180346907318841, 0.29027316592269803, 0.9689957706977579, 0.8897556288360267, -0.6726535011348451, 0.7695591346568349, -0.6408449574632253, -0.7378579964226144, 0.10659821612333698, -0.3513513050288708, 0.20164320245390033, -0.8508973415899104, -0.5190229110030207, 0.7027120387790018, 0.5138302574934601, -0.3903979938661588, -0.8771436382643814, -0.13627042267431366, -0.5942465483742727, -0.07404502948109992, 0.8652037296936534, 0.6271860733858381], "b": -0.7426745258476952}, {"weights": [-0.9680958170438363, -0.22229073089302642, 0.6034548723839297, -0.055789073358760044, -0.04072386346691825, 0.9029648838111621, 0.6375860550574322, -0.28864906679807123, -0.21289288979001375, 0.054229520550028276, -0.2132165302300686, -0.8930882344852626, 0.224952046292191, -0.7754941947458311, 0.39430306318130315, 0.5660792894082582, -0.6034890183853858, -0.8412373125648451, 0.13778702934211529, -0.6502395894029263, -0.22884992934751103, -0.5414845534190385, 0.4825893826301284, -0.5400756060551393, 0.10507385363653166, -0.893295103692652, -0.2057101205227545, 0.4708724624299614, -0.7582795752846803, 0.6296700112302684, 0.031269910695085334, 0.2924600343213617, -0.634236058607146, -0.4573606633252041, -0.21169206572627175, 0.6417081057112808, -0.5116388690378142, -0.859859813303905, 0.38150700640665924, -0.8145348581540506, 0.5291379764622011, 0.2352011333467423], "b": -0.5354034439042696}, {"weights": [-0.32340010514631734, -0.6308261709298011, 0.6099903057646663, 0.4504749665263241, -0.7586828646255577, -0.6144248040373099, 0.7398056976862424, 0.7364347437048722, -0.8009820734449162, 0.2043161002829581, -0.7659854588615371, 0.6862670551465022, -0.2231477471305947, -0.0949298237318068, 0.9455179298451297, -0.028449931809617857, -0.8500469559042441, -0.5386307282016558, 0.5091142986744062, -0.08774501542910418, 0.16034845246644314, -0.7058444117513116, 0.8208925657622055, -0.28203487958077944, 0.5824587946848743, 0.31306871681097226, 0.7270565519114198, 0.6029203329533164, 0.10412026484446679, 0.9137944999166667, 0.06440074476219793, -0.3597723398152133, 0.10991139460788246, -0.41771376327634546, -0.3150809246155071, 0.9717951939123699, 0.7017707945965055, -0.4899610459479866, 0.13862319423827518, 0.8946702762523175, 0.7987710564836319, 0.0514364768255513], "b": 0.07606516740907465}, {"weights": [0.177294117792405, -0.7332618072396859, 0.26637752584468255, 0.4369036474206274, -0.4018136764771707, -0.8386488573051394, 0.6748719163960986, -0.552471031015914, 0.05612371809999339, 0.9834290135170871, 0.39139648937451765, -0.9635819838347375, -0.18357349567444636, -0.506808204078163, 0.34341816016226034, -0.4616703134923634, 0.444566279151521, -0.6816561968659756, -0.26768678195936957, -0.7320936831125775, -0.11496263830141862, 0.2361534703664836, -0.6675128279645071, -0.44669295029581835, 0.9008549193833961, 0.6053506949818159, -0.14114621513677417, 0.3231406942800079, 0.040640587305913245, -0.32851412776721967, 0.44893303640820115, -0.18035949365247794, -0.6445478989105873, -0.6789651137566004, 0.7068307709346591, 0.13132609289321673, 0.04108401380235427, -0.08426543404802511, 0.34149732906230135, 0.440476337399877, 0.1873074449810297, -0.32096067254618554], "b": -0.25251453828688386}, {"weights": [-0.9656576399991224, -0.7589850059570213, 0.4657109260530834, -0.026765232033734376, 0.7614816107497928, 0.7801083914112421, -0.04168971666765975, 0.5895273749667498, -0.6316864230044388, -0.7786917311693937, -0.35311846596655583, -0.6884436148412476, -0.8467973609842556, -0.03889460042635973, -0.45290011796250873, 0.9582299068607514, -0.1362994718269508, -0.5240141435633283, -0.7689180660893908, 0.29413427259607894, -0.45188724509484746, 0.5583380948258769, -0.016164389530382905, -0.3112480007924425, -0.011707341364001422, 0.8162542126827594, 0.6401310723561757, -0.5864733432012565, 0.02073864006815551, 0.4826846162152667, 0.904818636717154, -0.16785890666182057, -0.8557125012730706, 0.9963830878505915, 0.16584875133001553, 0.8929963714542326, -0.7951449234494765, 0.10630477913803116, -0.2270764280119575, 0.3576643277108684, -0.672481556676376, -0.5724750822236928], "b": -0.703036954239225}, {"weights": [0.6738952948089436, 0.4003448391706177, 0.7357143585569752, 0.6555903945165469, 0.7535997815091884, 0.006908447027924813, 0.10763153656510527, 0.8464661430090465, -0.3049122776042683, -0.06151083170088678, -0.7278168382070751, -0.24039792912444535, -0.4503136236999836, 0.7242850412896744, -0.1262029798484534, 0.7281550408872364, 0.13239070707383727, -0.32229920990607197, -0.3789853301776167, 0.6449500509814354, 0.5754529006256732, -0.4368636427195012, -0.8509349820299454, 0.0007247690031266796, 0.8580142479853645, -0.2516653866086498, -0.005968542812651689, -0.7438823427031207, -0.973649360900918, 0.17910727254623326, 0.38565839500718613, 0.14383322775238394, -0.8786707850638267, -0.6459728357554286, -0.34737103302086547, -0.6777081592398642, -0.7869286678538745, 0.668280762706303, -0.43179883700836763, 0.11927124518259102, -0.15048626874486049, -0.7044598563273397], "b": -0.16459481702343037}, {"weights": [-0.4532837402363801, -0.9476909817020738, -0.16931078290927304, 0.0911708295633138, 0.8404245805698776, 0.35900404509265615, 0.8318921643270694, 0.8331603082335135, -0.694425199765262, 0.5143831979952149, 0.24496235986353332, -0.544835061618395, 0.007070143447474919, 0.3260464025370857, -0.11366263817878486, -0.14805706646092975, 0.981808541598914, -0.8055891249670768, 0.5559420725521451, 0.6046167573604766, 0.8110657647873449, 0.598014104810582, 0.7167506924189431, -0.975935507641615, 0.16754745890844247, 0.12280615867872058, 0.654815686201575, 0.49800228222230647, 0.34185604548370785, -0.5875143454964022, -0.39553476622722394, 0.8633043089757964, 0.32546312679217193, -0.006730594799697176, 0.4772433068825579, -0.3669708859974887, 0.8601781905149251, -0.9470992242459073, -0.04923733542659536, -0.15414661287996956, 0.2272813073347133, 0.3393593159040016], "b": -0.5392879383507001}, {"weights": [-0.853418864636972, -0.3182982939549488, 0.06861329490453816, -0.07205255059305404, 0.36414340334701945, 0.13484943836176577, 0.5053341318321325, 0.31913678844783244, 0.1578937930297888, 0.1423870311085813, -0.4424300559868375, 0.3192074688925115, 0.13173254749132757, -0.15741200588721926, -0.27908501268158425, -0.47565216217726936, 0.9164075168744044, 0.6662121640932328, 0.8089023690913166, 0.6466146376271198, -0.2913967967058906, 0.7841761820004509, 0.3668148497313748, 0.33180062281636635, 0.380122142467461, 0.8567423450035165, -0.968326786517538, -0.9039031777841902, -0.7881315796926243, 0.5130440561265688, 0.5738928129204492, -0.7896883374655332, -0.1412565599549478, -0.6610676983873169, -0.6548124101534905, 0.019883401729333894, -0.7904423779237999, -0.5935263109971081, -0.028924583980766583, -0.766585067814346, -0.8272063871617721, -0.0026389363601206917], "b": 0.3131989873947172}, {"weights": [-0.9402746808793085, 0.5515169023872335, -0.06473785957502165, 0.1092200701971291, -0.4504624266465651, 0.8272177730448569, 0.09918425001128117, 0.9511575014106426, 0.13151624397633177, 0.16430915896924914, 0.51324363290206, 0.11483267453709822, 0.6928069389562161, 0.7141467915086162, 0.5882082976481973, 0.44892502532035006, -0.2905005522456212, -0.9581811347606548, -0.5353698329556156, 0.8547430502629816, 0.6645235254879345, 0.5519236671815897, -0.6432075992425794, 0.050697657604730884, 0.43890308770415953, -0.8804774234743074, -0.9404144168729682, -0.9681384110112721, -0.30275457224091107, -0.28838982990048745, -0.2383643515050502, 0.5061271993102239, 0.9993232242614642, -0.4042311242898311, -0.8855607475689284, -0.13118921276863338, -0.4022762075661883, 0.8117184938483697, -0.1540529599495919, 0.07513522022228059, 0.7443160389599253, -0.20694710337535538], "b": -0.4977032070970122}, {"weights": [-0.3685878230761932, -0.49206272511291504, 0.7317960886377506, 0.8120899412205675, 0.4494183809117238, -0.5515320387387894, 0.21951033132465447, -0.7425128169622939, -0.5010886816681617, -0.9492598947174635, -0.019442951821300847, 0.21038077343906614, 0.9381977906300454, -0.8805603143970342, -0.5861924667977758, -0.36022104711630454, -0.5187708797502539, 0.42769152316805514, -0.7439966948471146, 0.5164125848169936, -0.2522080987975044, -0.875147345055759, -0.24062346271294777, -0.32806614964407066, 0.14467833709305156, 0.1800273179828189, -0.07007628726592108, -0.8287908220081706, -0.5085822082947686, 0.5127009306549908, 0.9066138185348713, -0.06882436592280938, 0.7089475759887565, 0.7156017207952008, 0.12989708636713537, 0.7751688382679109, -0.2845072678435028, -0.03910187274803678, 0.21770685302332438, 0.013344897889458363, 0.4617142517294033, -0.42873504939054596], "b": -0.07385632561373723}, {"weights": [0.6282478775945122, -0.06469488248626276, 0.8408893550580161, -0.6652397379569934, 0.9488204112028533, -0.3594982747090467, 0.7516214054115737, 0.13739060272743608, -0.10464270451340218, 0.08649281076875126, 0.8526007777553757, 0.7530980489127788, -0.35261333110455917, 0.4704879358147649, 0.0002456435348110464, 0.8668745820441501, -0.1337408520078125, 0.4252469289524232, 0.32286820356453605, -0.8034270384993907, 0.9241862194084314, -0.6521269693534826, 0.34585727843387915, 0.38388476659482684, -0.7606716105811577, 0.3190786608137224, 0.4241954435332045, 0.034689648223031444, -0.8583241493988147, 0.8424180525492568, 0.5800192962636062, -0.45989762337549256, 0.5166842228325192, 0.8200227367074218, -0.3680708190793358, 0.25795428075502147, -0.2754447434957481, 0.4805899555892763, -0.8794774562858012, -0.8927749702728391, -0.6474642477657928, -0.9230236288391089], "b": 0.4683174161496171}, {"weights": [0.4448425466789847, -0.20364175933412554, 0.05597380341621094, 0.8763399461163079, -0.16340298534212883, 0.19169506227340216, 0.16132591655671735, 0.7981546844843819, 0.6100618968301079, -0.7736565631499164, -0.7019693147680666, 0.4245602664493966, 0.9039904250529467, 0.5790846343531952, 0.2923402935984918, 0.032439798940971265, 0.5776604830173893, -0.4855483019966269, 0.3510421873455052, -0.31109928750151505, 0.9333791684581707, 0.8937120370347524, 0.9465620467882632, -0.9544011206124416, 0.6159185208620415, 0.5366217286695312, 0.34017099706874676, -0.4386475579174667, -0.23600770136057947, -0.08176738264682837, 0.7797726017791955, 0.5022179140949499, -0.5642899463991364, 0.2652482552737867, 0.4505667318995934, 0.5480065723837204, 0.51947150162082, -0.4544972052310625, -0.02417614336234397, -0.5005906881571196, -0.09515459775161705, -0.4574245149898226], "b": -0.7711354835461919}, {"weights": [0.24133545792130162, 0.16389945194374622, -0.39746144963945973, -0.20371943467065057, 0.7430217387000708, 0.802786192824706, 0.6921522129737328, 0.33644129174389925, 0.010662023685279909, 0.8686196257997987, -0.12590418480471022, -0.4053039303183663, 0.969059193009921, -0.136381281616496, -0.36031539585901773, 0.045008147418388766, 0.26358148545763393, 0.7726054025538152, -0.979085820293345, 0.3647733316961601, 0.042528739396328286, -0.1401515764494412, -0.5411732629208366, -0.4037901554028607, -0.29317848338163177, 0.6796196582102865, -0.9393966455172327, 0.8733465846818484, 0.4745310644329819, -0.4059628846004182, -0.35795164480905917, 0.4388730159663845, 0.4021533321433717, -0.6875097149371587, 0.35916575416410934, 0.7860334792902013, -0.5416740374315647, -0.8893553950731818, -0.837591944137895, -0.7013391873040742, -0.34181442181688326, 0.49380594672964184], "b": 0.6953320033665571}, {"weights": [0.379157618115872, 0.08224178284455164, -0.05745112006791153, 0.8235662525357881, -0.7542622314198599, -0.10865133030396801, -0.40097275979828173, 0.7615461126694625, 0.029282455934596996, 0.3564354674206702, 0.4737022836000446, 0.5220738632300028, -0.8018087558491129, -0.2546309579828294, 0.7421341320008275, 0.3497311973068058, 0.6428132336378762, -0.3056770778733009, 0.9677650127902562, -0.9033703127979897, 0.3000272670233568, -0.4700703767992114, 0.4957723925493167, 0.649823086290805, -0.9307694141772416, 0.6855408186702991, 0.5681631477558262, 0.9061764730226578, -0.8720067619783052, 0.764329106033319, 0.11051127900237567, 0.9556971956442721, -0.2556855411338117, -0.375302261883679, -0.45094952434757407, 0.2974438687706549, -0.24144473865198246, 0.8361106329569132, 0.11779825637100405, 0.5413513988652123, -0.8137876355520015, 0.3661160993142827], "b": -0.4743651652527585}, {"weights": [0.5216396758440907, -0.2742303651824509, -0.768253974865351, 0.5538195173761693, 0.1237122668857451, 0.29262003944750403, 0.9670261962974644, -0.9590855324881269, -0.5912249527985334, -0.06055824046646863, -0.21926304938497143, 0.4961231150942129, -0.2942691440690828, 0.1999418340786201, -0.8837429698537675, -0.9828451142271455, -0.10217411678656729, 0.9693204143366396, 0.08430391599598064, -0.6250064031397367, 0.7695997047025016, -0.9218745645046129, -0.08145567818826382, 0.7866255258736641, -0.7265957304912805, -0.33784560837922917, -0.6294599140662973, -0.7151802112740784, -0.7972409654989556, -0.6821849339970392, -0.6597386563509022, -0.1924770430782976, 0.44909171850260643, -0.08947848054469265, -0.6870149381817705, -0.9841123228144171, 0.8508073870174107, -0.8943077124375127, -0.4199987889198056, -0.5386672935228707, -0.2693703410884063, -0.17896993126250127], "b": 0.11291381631162167}, {"weights": [-0.4008769331269697, -0.46741706895986734, 0.04350104366751806, -0.13664368695227536, 0.7233588033100764, -0.04318476777121494, 0.8829176919912962, 0.9417945451279941, 0.9045470049467648, -0.5755077868757832, 0.35584159589999076, -0.21988076561415548, 0.9916927848782333, 0.14977562143844247, -0.5106294383631604, 0.14192714955435237, -0.47004136671739616, -0.3159583546116387, 0.9072522054431269, -0.7286933766936547, 0.2960289517218173, -0.8088844762097842, -0.7385817667988923, 0.2208449280786564, 0.31366137808951033, -0.4418089834364656, 0.7386128290241449, 0.6387206599215907, 0.0534028250027736, -0.4869211989229456, -0.051690835119755585, -0.6806385594304991, 0.7278677932378641, -0.7948688578445036, -0.2218464012507464, 0.828405195790741, -0.8115380357959063, 0.13888869285361594, 0.8184665560636111, -0.9821222709960014, -0.5010029078049445, 0.5122877637429313], "b": 0.36351054677021644}, {"weights": [-0.10080696035728587, 0.03858675253463506, -0.6272052003621387, 0.9824969829584218, 0.7971624135038826, 0.04323758598354166, 0.697193590828207, 0.503194083859221, -0.7311577493520423, -0.009799251794290642, 0.658693214151046, 0.34299989365173, -0.15853078672377863, 0.18978888339029143, 0.3334187115435865, 0.16656949069319893, 0.9883157312535076, -0.16144278460729677, 0.13391388929947134, -0.6641732040203832, -0.14835521584835742, -0.01852926252851117, 0.9962152439555716, 0.21573998591693333, 0.18899319205606235, 0.05685653778156596, 0.09566110594132393, -0.2050696225141968, 0.4774684175529298, -0.8815898321734714, 0.41365328328843387, 0.7844881043291134, 0.054153557895519455, 0.7984174391375856, 0.740506075164785, 0.6090034529774813, -0.21577459670913535, -0.9041273698551018, -0.04207531026471201, -0.05081671093893236, -0.06008986989986531, 0.9530008044984748], "b": -0.5402552802623235}, {"weights": [-0.6616865446424374, -0.7512377125799106, -0.014016543126831316, -0.5900864751838621, 0.46986066405256577, 0.35731317879003743, -0.9538119766996596, -0.2514411394108149, 0.0831645534782055, 0.7276988052211013, -0.9830084827982315, -0.8534694805241909, -0.794476600802912, -0.016747911926269454, 0.6495754826114604, -0.4017817538597308, 0.2796639939303278, 0.245476355459183, -0.8267952340249585, -0.9131760258925594, 0.4696071840795406, 0.6311414494312055, 0.3255831049293114, -0.8915055687721389, -0.11446803190608512, -0.3908956917971449, 0.6288917486339582, 0.49071727107037866, 0.15363717702442092, -0.1782842968892655, -0.020046308366995058, -0.16550176774473813, -0.478806507009371, 0.1562417707869892, 0.3513152723329336, -0.7053749644297858, -0.3216370690005712, 0.0032051453266785934, -0.18927950496119506, 0.17765204610307195, -0.1770635210261322, -0.6031123007678163], "b": 0.9387156520019033}, {"weights": [0.29286553685114614, -0.6159729134243312, 0.8844239473875657, 0.2602151506232959, -0.9535539317072217, -0.550473199294103, -0.6288318225474123, 0.34122079957692963, -0.6523286994169124, 0.5170998948176369, -0.44863756273467925, -0.13044764311799817, -0.07549384285709104, 0.7765778419018474, 0.40523694531777577, 0.8090556240633673, -0.48004003484172064, -0.1550369523599393, 0.20663593406156466, -0.9746423521667449, -0.36036160567063513, -0.7652547994446626, 0.9250987073816361, 0.14078056480859402, 0.9067283728246205, -0.4493133908968061, -0.2347026036969717, -0.31994748666667316, 0.45423003294742603, -0.38499385634378247, 0.6238139245230858, 0.5392782100931046, -0.6125818928210112, -0.40067175957835643, 0.7521159423144339, -0.9512510117297495, -0.9837344513409811, -0.456139504712463, 0.31801669957165335, -0.911469997453699, 0.41666119139817837, 0.8456795238749872], "b": -0.2644515592141319}, {"weights": [0.7505884397113589, -0.2695818293146113, -0.6035267023216377, 0.6190579707646557, -0.9932807132790316, -0.35495970837148016, 0.48593880563503866, -0.23053792527019001, 0.7038133422399526, -0.5385276674823207, -0.05187202749953079, -0.8883753685703908, -0.5856604243516768, -0.07872442771289068, -0.6216713051518976, 0.9078634697576415, -0.9194827489202162, 0.09181590999112466, -0.3941793098977149, -0.5317965860569871, -0.9149777722117158, 0.6356709328153314, 0.09642263893036374, 0.9959785899294546, 0.6738502294251387, -0.04857716818721225, 0.538605629768008, 0.6103944026147472, 0.33220398692739916, 0.7148759908525002, -0.5211037745796276, -0.020135158780841822, -0.16465229115119184, -0.0858610085494611, 0.8257763227492068, 0.7526586163900824, -0.8394169735039518, 0.026461161224777152, -0.4283384934160841, 0.5399551341969504, -0.06996455794206025, -0.5205265672382178], "b": 0.00025575406188727}, {"weights": [-0.6626123460298119, -0.7918586493957429, -0.4025209946741981, 0.9930408153994184, 0.7454406569636696, 0.04689315792937565, 0.21012434928054824, 0.164821072613609, 0.582614369665714, 0.6548223172755838, 0.21109721449833074, 0.6005508835205131, -0.7444030713820409, 0.13710838243251278, 0.9980155895081106, -0.7736118848512512, 0.08281125072300699, -0.5464696296899987, -0.8788444751777147, -0.2052583832863728, -0.23509810831552325, 0.2896778263104496, -0.12785989180666868, -0.6827126744479788, -0.28801982079858957, 0.7177650795129815, -0.6275808498411437, 0.9046421998074727, -0.04057476720757247, -0.7648946270712489, 0.38399365274951447, -0.276104041345389, 0.9678227928138046, 0.9458453244957106, 0.8212610943638259, -0.7021174326081856, 0.16918783164063278, 0.11505903255817929, 0.6194477681863864, -0.4029989257047477, 0.2295168818283153, -0.6063143550298393], "b": -0.447645153409886}, {"weights": [0.5552047797692483, 0.9088865527768397, 0.5672657400515686, -0.02784218650371706, -0.7746370415484731, -0.26754974661154707, -0.9170827958570238, 0.7528168495643284, -0.7302120724393424, 0.8676467560734551, -0.07520570487672895, -0.9023485248377516, -0.11565325361414214, -0.1807100886303945, 0.6258125139162589, 0.92571815942179, -0.62070373118908, 0.4301336583743829, 0.6149226939012606, 0.23293332777538933, -0.20921001349920942, 0.9355612444981503, -0.8702300993807603, 0.10621805612713864, -0.7533368145892951, 0.3356176549194263, 0.13572454758701236, -0.09149966828683898, -0.30356880423928523, 0.5587896482716346, -0.5660560901880085, 0.8445525974826829, 0.5281016355618859, -0.5110380821304241, -0.1932656237524184, -0.030078374161024213, 0.8618484768226995, 0.34371560994889494, -0.7447245178686901, 0.4647803811654949, 0.034706916994676096, -0.8317700400821162], "b": -0.9685359100723601}, {"weights": [0.9139421804158556, 0.6668573306493635, -0.027050031487939163, 0.7776005258364644, 0.6684816668485589, -0.5250123140002771, -0.9638968357154976, -0.14949924083115662, -0.687270681456714, -0.3367078172385054, -0.16718547563380315, 0.306396196998147, -0.9934259695151246, 0.06422320903748124, 0.7806429440068403, 0.10073412802333648, 0.131242341362368, -0.41934253953828304, -0.8274116251974382, 0.9232801881245218, -0.6600114315081587, -0.5345953412331823, 0.7781002750414063, 0.20462803936252838, -0.956190484342057, -0.4479980895909865, -0.7929338523326463, -0.02765254220307556, 0.2633789452568962, -0.6761829769623273, 0.861117827913767, -0.10828663230029778, 0.5745874559676261, 0.093451243299977, 0.5404435476689311, 0.09551747947182565, -0.7053721547596454, 0.040693655674375995, -0.45482096784940973, -0.8477538575390968, -0.04685854267870582, 0.014772426991116916], "b": -0.5927958467571048}, {"weights": [0.015952910054814584, -0.3600193114903407, 0.4654057981685358, 0.381249873008759, 0.27935157498038765, -0.35168001508236424, -0.7053100863823538, -0.8411420506222298, 0.7312535428272045, 0.5493657016747837, -0.6906096222686782, 0.05284790988436017, 0.6338179516852593, 0.6022876811044504, 0.9974561829612931, 0.617371733703318, 0.13087057900072185, -0.33157693848135406, 0.6645091936849989, -0.9833445869818722, 0.6488023652628434, 0.7657272294039745, -0.5818186678099759, 0.3246674041733748, 0.7979880213356978, 0.9896374266508403, -0.40614026542451565, 0.8850702303361015, -0.033338226257715986, -0.1025196350347386, 0.16407604234696715, 0.031701915894042365, -0.8339898883460188, -0.6592170077225394, -0.3304399637093982, -0.7718735512597465, -0.7189016891193842, 0.7167698238682503, -0.41121536120412205, 0.2822073143208592, -0.27099023634855124, 0.42298403379836214], "b": 0.6508325454879034}, {"weights": [0.06585926722475022, -0.6675073401889018, -0.7383904918525834, 0.26170109740534864, -0.9915144920237065, -0.6731249808496391, 0.7855231634904778, 0.05755070155721076, 0.5865979901626366, -0.2927619881153922, 0.5407701907674696, -0.5238586216144274, -0.7772833638800722, 0.28419606672459063, -0.07959409275142204, -0.9322192789977914, -0.43370726252085556, 0.49342009206933835, -0.25160422126790105, 0.6085012403182846, 0.5372239254055962, 0.5904990919439754, 0.6484792928218959, -0.493266420073587, 0.49244404689115484, 0.13564438920770394, -0.613858757205084, -0.9688268288222643, 0.20725467197119696, -0.8198837995800441, -0.2492636332473872, -0.38399228083578096, -0.24826304356307394, 0.8935891807969032, 0.7897908035465973, -0.251485411299049, -0.9074907629640108, 0.5837015347964043, 0.08067153171444552, 0.6544806405185892, -0.6539260594500935, -0.8936713999482324], "b": -0.11947526379286355}, {"weights": [0.3120425290019926, 0.2093804746195702, -0.6721970594171163, -0.4085982024036552, -0.5434252550848739, -0.30104823932307356, 0.9357554463802185, -0.07784847325894795, 0.037097936594860714, 0.2872063715206068, -0.07847596647889143, 0.20360307739890127, -0.2801560648730832, -0.07285551881913221, 0.8882646678101673, 0.36643753829494163, 0.6743733754331127, -0.37550197361309956, -0.1699452760126854, 0.6985809610188705, 0.5072087146863615, -0.4771307050826481, -0.8659797550798349, 0.8764438010341771, 0.7524157284773905, 0.6273474596188862, -0.38972941810285944, 0.8944535121952424, 0.3127523832460595, 0.284169391385906, -0.7702245833344661, 0.571215545262663, -0.8974063435646396, 0.35726081240484375, 0.7746137200281469, -0.8889150080878958, -0.26532657205654586, -0.9303124755670615, 0.9787453469662422, 0.6605271270011657, 0.2895556396753878, -0.6605075958616775], "b": 0.3466231298311757}, {"weights": [-0.8432645439325877, 0.33620911790265784, -0.01587909650807129, -0.5923798468140873, -0.6513833059422065, 0.8379230143116339, 0.5970977454780455, -0.8155505839750683, 0.7946308287611397, 0.34466458512913856, -0.7884719400582156, -0.7346473111840599, -0.32576591403699107, 0.8071524945840451, 0.8071878745292111, -0.6589260374891699, 0.38308700950464525, 0.6934630823150858, -0.4651769875319294, -0.752396775678551, 0.6455238486586596, 0.10601877769838275, 0.3074768525715299, 0.3212412515967833, 0.6633054348341738, -0.47940658496541877, 0.44484002042939985, -0.6972585207490909, -0.7026062454018291, 0.462712755453065, 0.05405792028951395, -0.2669594717488655, -0.45627177897475635, -0.8324371441493745, 0.932978315858702, 0.37207785234126933, 0.25427409391296774, 0.9251003854168636, -0.06064150368311405, 0.3168422844605856, -0.003995187821751678, 0.5896150588177533], "b": -0.11338125324361026}], "output_neurons": [{"weights": [-0.2586261578614837, -0.2621906630792912, -0.7617389856016161, -0.7957088363744467, 0.5914820526697468, 0.7790825681392832, -0.21421339518393867, -0.4244803534550523, -0.8611911168774491, 0.5435685859759534, -0.3187192395150076, 0.4235609802829017, 0.736916787788547, -0.767784536037619, 0.9291189182291619, 0.3521620151906304, 0.9460932242400502, -0.5035261686700852, 0.6477131558652502, -0.14906932362325453, -0.3211480203388841, -0.7530975090252259, 0.2811499520709875, 0.048373372231440115, 0.8425247996371987, 0.6297630186723386, -0.5771338678566655, -0.5393971381726581, -0.32124581326503776, 0.13572505919177558, -0.021432998895506872, 0.5849937119523303, 0.7225958666618302, 0.47192718821699353, 0.6835532965833957], "b": -0.36282747585999786}, {"weights": [0.6582040503530624, 0.57362246926057, -0.5714036782385961, 0.8434988507610599, 0.5133986206916417, -0.355539944125447, -0.7758170972993159, -0.8974899037662927, -0.12283582235301016, 0.8674888476242912, 0.8059823153176109, -0.8638196672651401, -0.04940525863399925, -0.06373864326286172, -0.3735051704443728, 0.4696880878034171, -0.4247543896528525, -0.3252732884094671, 0.5086984911020107, -0.7047971943901685, -0.5272119956069297, 0.45000158386744693, -0.5983651945662083, 0.37096221194607315, 0.18614492654955694, 0.9233385413218103, -0.6453989140705887, -0.3174255306243292, -0.05380752510449227, 0.23604406421807567, 0.7253708564759129, 0.6621216022767988, 0.872516597443423, -0.1167079380044529, 0.5602405589756898], "b": -0.7500204618834412}, {"weights": [-0.9632491062470547, 0.7776387441553576, -0.44896539492083987, 0.43400687286290474, 0.20411284021133347, -0.6775282651005634, 0.07978554993714049, 0.0526730895642038, -0.6642313561748328, 0.5455095010410236, -0.8913479668407891, -0.1980509572739122, 0.06910602688086476, -0.04961947995347349, 0.07057143523079268, -0.059969157071910084, 0.4328510414720541, 0.5497359064389233, 0.17338430779060698, 0.14611299390302057, 0.9249868445515335, 0.633652661920455, 0.40037063167508946, -0.004531032220327802, -0.6240032925268606, 0.8675213738634753, -0.7438384280548247, -0.7456654177357509, 0.4763718294000423, 0.0795064306455755, -0.7126415329597029, 0.8570730030750677, -0.3531536369753907, 0.4164560841888101, -0.6018114474093053], "b": -0.4956881568494058}, {"weights": [-0.0961280060804699, -0.2222245833281693, -0.5664553452341048, 0.7507755095369226, 0.5987872807844166, -0.8803867100941976, -0.5769583085183281, -0.4410325414986651, -0.3026645538118826, 0.8959459386343844, 0.04926557045595281, -0.6223751115714882, -0.0400157237413854, 0.13079969080067988, -0.4907650894754596, -0.06031064777913775, 0.09362738817876548, -0.2427401967237992, 0.1169979772660601, 0.10770587183146207, 0.3487725820064378, -0.875834654188298, 0.6740822552697547, -0.035301275469376, -0.44835249377932507, -0.8131639325800255, -0.7807733725595458, 0.16485008763939524, 0.9691494808152579, 0.43583455830826057, 0.24586082535562026, 0.8193377854754675, -0.14651282950359446, 0.345184128485011, -0.6251838267486696], "b": 0.4880336517232764}, {"weights": [0.3568532150454089, 0.123791879529495, -0.8886054434708326, -0.1282187956864651, -0.2720032691204266, -0.5276602880781873, 0.44249327474150424, -0.03037026670396381, 0.7674600569622463, -0.6429638569982594, -0.5917297216102899, -0.8559024622589875, 0.15350960847182193, 0.5711154864684187, -0.3873006202815559, 0.9841194625943281, -0.7894342706175745, -0.07562261766890077, 0.3988640243060464, 0.7255334246553136, 0.6549601673696845, -0.5601532385497763, 0.7134051086993647, 0.4355001796829163, 0.29378649104815646, -0.6522463121982656, 0.9366207216041282, -0.7142865984121607, 0.16037176639783057, -0.27427104841583794, 0.3129047921782131, -0.050418311247283576, 0.23062805116616802, 0.022631253110161786, -0.8284738373101084], "b": -0.023843266176671207}, {"weights": [-0.6270493505537156, -0.032110948489198154, -0.05191672291614724, -0.9220322558043497, 0.6748580056318487, -0.9740208823456651, 0.990714036536148, -0.8253042373474269, 0.9595130497525555, 0.30813754956980577, 0.7423764815795608, -0.416942830306009, 0.7555295559856217, 0.4032144420715087, -0.18787813602582215, -0.026957550302044275, -0.4949641489008283, -0.9239516503802649, 0.08578567310868124, -0.9575452665395003, -0.22692344317754087, -0.24420375080828216, -0.41164874317309486, 0.6267288977043428, 0.8189482988805894, 0.25957605436916986, -0.7567149362794394, -0.22039189961176087, 0.08804761619559698, 0.3971401845664939, -0.5467621270231804, -0.4024130086911881, 0.6238185527855489, 0.2982327221119685, -0.09862173207220315], "b": -0.48941240682275855}, {"weights": [0.3067747640804719, 0.6352236958192312, 0.9863806819993666, -0.9728254605914997, -0.19487801779098946, -0.11200575044788419, 0.13156902014563032, -0.8358204501926354, -0.5579414120728892, 0.5207744449695733, -0.12777775340433095, -0.37769895162796274, 0.44754747373710546, -0.8105392593130007, 0.49056130546233256, -0.786160490417209, 0.4323943457073356, 0.041658435153303364, -0.25624505260942865, -0.7656539743055699, 0.02249046753604822, -0.7973254429242389, -0.7069119623007964, -0.008474574460733963, -0.05736502537611132, 0.21867824895930443, 0.5812070248696977, 0.7456930299677704, -0.7777929164122841, 0.3934829827761426, -0.6189788127549749, 0.6152559246589377, -0.49970462520339565, -0.2966094775720931, 0.28890121587771533], "b": -0.1932114821848181}]}