{"input_neurons": [{"weights": [-0.45987785092525835], "b": -0.0746710790499876}, {"weights": [0.3675437882453616], "b": -0.5999294822850789}, {"weights": [0.9952069494294382], "b": -0.31596735339227755}, {"weights": [-0.8973891361003441], "b": -0.7712302232054937}, {"weights": [-0.19725256751377618], "b": 0.13696244536341617}, {"weights": [0.7362795049555193], "b": 0.4534936043850766}, {"weights": [0.7011131066224547], "b": -0.40267571607429753}, {"weights": [-0.25456219226481247], "b": -0.7390848504014795}, {"weights": [0.9880458612936178], "b": -0.4821987749847776}, {"weights": [-0.8221077628018187], "b": 0.4024209590847203}, {"weights": [0.4506873187088254], "b": 0.9875257388372998}, {"weights": [0.9555473558011502], "b": 0.9472201891935583}, {"weights": [-0.28527914965876544], "b": 0.9976661153417572}, {"weights": [-0.05631526430550515], "b": -0.5426494772629396}, {"weights": [0.18955332347488651], "b": 0.26870411042704023}, {"weights": [-0.10846253384987214], "b": -0.5350512907560612}, {"weights": [-0.6825984045570954], "b": 0.6091268344727194}, {"weights": [0.9186041587023597], "b": 0.21010238952803895}, {"weights": [0.14713803850605323], "b": -0.14789396667972277}, {"weights": [0.2516400912791734], "b": 0.7183410520350499}, {"weights": [-0.675894713310691], "b": -0.030721639709724524}, {"weights": [-0.2275771279139096], "b": 0.9948832233009879}, {"weights": [-0.2800546931864927], "b": -0.3185465848106255}, {"weights": [-0.9455884831011316], "b": -0.8254335362234941}, {"weights": [-0.23736224589957367], "b": -0.26293628547599757}, {"weights": [-0.11134813118097653], "b": -0.0014065397724891682}, {"weights": [-0.12222062985066073], "b": 0.7933723471652361}, {"weights": [0.19095334046605839], "b": -0.8157200797649482}, {"weights": [-0.8551566775155333], "b": 0.008770560567994856}, {"weights": [0.1438123622235472], "b": 0.6301614372544218}, {"weights": [-0.39531275463932936], "b": 0.8625902745117884}, {"weights": [-0.5397608761428223], "b": -0.8599752356371402}, {"weights": [0.3069018569819564], "b": -0.0928734516225822}, {"weights": [0.13487590990232468], "b": -0.28665561553861707}, {"weights": [0.3281320750629977], "b": 0.3929559663915174}, {"weights": [-0.017187600050670993], "b": 0.7168511114333307}, {"weights": [-0.3295509674194703], "b": 0.33022770847401706}, {"weights": [0.11472852191198601], "b": -0.6091540182213793}, {"weights": [-0.5936170736372319], "b": -0.5506484128212408}, {"weights": [0.9019229132367832], "b": 0.22586679389698427}, {"weights": [0.6902308627065967], "b": -0.41934117871273746}, {"weights": [0.6810249753871334], "b": 0.018693001373949247}], "hidden_neurons": [{"weights": [0.6876936264179754, -0.5994023744073997, -0.37273432045828025, -0.7763350397988691, 0.6193777945737013, -0.4226161422700998, -0.7121586981559662, 0.487058153032637, 0.13499605205311926, -0.6971404895694082, -0.642926117728839, -0.9441189714613758, -0.30497096700284443, -0.2619543448544659, 0.8006666117724246, -0.6928887237768613, 0.7035662184988725, -0.4254300920114815, -0.005458717604122754, 0.17184097647006213, -0.8021201179541124, -0.42004260174142893, -0.030751736891181602, 0.5571130025418742, 0.03846228052340539, -0.7708348826547056, -0.8734806687411063, 0.8641037908621905, -0.29093714845290264, 0.9293877160060937, 0.5875730211027592, -0.4049407245322427, -0.6773518919769146, -0.466024700479154, 0.8761430625321913, -0.29286109024489004, -0.9040448353650852, 0.05152187557611554, 0.25196890993095455, -0.8504048219611147, -0.5039803371456506, -0.43185767628612015], "b": 0.07625296009231874}, {"weights": [0.2372614728826432, 0.70311701796875, -0.903420293779629, 0.007303090750526708, -0.31886949072373305, -0.5654896953112731, 0.710636715259386, 0.24662762069658228, -0.4847486376934049, 0.44388389485053237, -0.9496248666521432, 0.7498680556628305, -0.5913094151137441, 0.5540843669589097, -0.6232360396769869, 0.8812326107544559, -0.07313208772344693, -0.4018586089519318, 0.8600226572287413, 0.8529858767466136, -0.376759239228321, 0.13505538359786895, -0.001614544957548869, -0.8884505599742978, -0.033674887455822144, -0.676842103716166, 0.29394767365127805, 0.9761997077476285, 0.8118964733177279, 0.21106345594952725, 0.07238427850371632, -0.7654379805997984, -0.020574637051675948, -0.07086763557687581, 0.677093857433589, 0.8094576410185403, 0.2590871235144674, 0.07882945581717227, -0.8262614942008488, -0.001373899083968677, -0.9504665426671719, 0.35452109940254783], "b": 0.809240694115708}, {"weights": [0.7199714128055084, -0.3841675961208648, 0.6031858250563482, 0.6097226139492129, 0.23008404604366794, 0.06412142549548783, 0.3553148438523941, -0.9295460308586583, 0.4553375179274721, -0.503985773423367, -0.9724916812799409, -0.8143313181558607, -0.4830213583975409, 0.9299771752164876, 0.40804044614967827, -0.2754558438328065, -0.059456734971236935, 0.332785399009387, 0.3036405181351378, 0.07793901540046555, -0.32870392777650714, 0.9656914347628618, 0.2730731373001658, 0.7373264846938608, 0.9027270328100796, 0.41847647830916035, -0.9456049900294368, 0.5975440079880783, 0.9405600831961107, -0.9054998261653571, 0.407099029073956, -0.9278645804086685, 0.03600889103050542, -0.3220870292926079, -0.719287215593208, 0.4720345532697998, -0.9510224066041573, -0.12149803588001862, 0.6372978343899731, 0.9995270164430881, -0.6717303000971575, 0.34443909514423865], "b": -0.8082215634620595}, {"weights": [-0.28159909799326277, -0.46196320739255836, 0.024537747783139885, -0.8422216157599789, 0.4956526454959578, -0.23678887499315882, -0.6834994206374496, 0.3601442538859154, 0.4081018262289693, 0.1988216575902606, 0.0513904306973918, 0.7290101187531208, 0.992630060728747, 0.7170059870567425, -0.7233393765533462, 0.6699447148720852, 0.8575973570905524, 0.3536369595774411, -0.49617330627468803, -0.16478683602843813, -0.5251803578405323, -0.07363098731821882, 0.07726654098798513, -0.013284874182103446, -0.49191579478840275, 0.6031971846072448, 0.7500206059730992, 0.15361443491915816, -0.13629997589622223, -0.4956805723155828, -0.27681323838143834, 0.9434618887891679, 0.0734941062250336, 0.000952321641253917, 0.6515741181843369, -0.46462193531746854, -0.3306261680862117, 0.6498114188581532, -0.05892345319686809, 0.014596345553189227, -0.6534319568117721, 0.679427497793013], "b": -0.39785146357595735}, {"weights": [0.17382558356106514, 0.38324844078680553, -0.03891048022008903, 0.09656150291103005, -0.503802228716332, 0.617912955096749, -0.5839436542656888, -0.034840880881006564, -0.38750402967628017, 0.8943747074330664, 0.8864520202193364, -0.7616348712537493, -0.34552760373397207, -0.2825212243063997, -0.8621700620679791, 0.6905433621949517, -0.41837365572697793, 0.3471188049421998, -0.06152207613667504, 0.21259098482588712, 0.2177782104239745, -0.4571558123457595, -0.6806608182078631, -0.3868252684146385, -0.8325963747450398, 0.06817338201321266, 0.021373862683309097, -0.4002962404502084, -0.5377421807371314, 0.522374005765813, 0.2390350227291813, -0.8366152695603948, 0.9866025740707336, 0.4626813738322375, 0.09038286801953799, -0.04733935253145405, -0.6678385189361928, -0.2660444522502483, -0.9949619040616045, -0.5791562432021848, 0.3062636263656231, -0.38626418623554315], "b": -0.3666921238915257}, {"weights": [0.08648726794619788, -0.6599039992902149, 0.6203960591334945, -0.39060981939379547, -0.23496571480322914, 0.436948033927532, 0.9032194083334346, 0.8049843880187115, -0.4177272430356058, -0.6997685618783112, -0.9117696447673747, 0.677604006782804, 0.06723945029973732, 0.973434786180372, -0.44338014163547235, 0.3535304199800611, 0.746401099290275, 0.30643010399124604, 0.7337368604764505, 0.024833136772111297, 0.705683448133454, 0.6523556756041611, -0.5209689005914075, -0.3551123805161065, -0.6694853830836498, -0.364532554267065, 0.3087398507935586, -0.8764324224850226, -0.6072672966807602, 0.5779633654026908, 0.9342538083240892, 0.10850912690636583, 0.2177434761988455, 0.7660136003130988, -0.36165712011745166, -0.8327547956743873, 0.33836798560820625, -0.8546698920578784, -0.35819297008675144, 0.4342879855044761, -0.4413056568820337, 0.41261995394777506], "b": -0.8258455852916371}, {"weights": [0.9298184387304775, -0.2184265302229511, 0.8646141704038941, -0.4740971284450881, -0.8831552218278942, -0.6014139016540887, 0.6520969149467157, 0.48915675180302753, -0.8959930465380144, -0.7339768684304877, -0.9524222826145077, -0.35361861563262176, 0.6957112990679324, 0.6179912581306775, 0.18398412432940003, 0.3995317164633747, -0.24083051705568548, -0.3614550828200116, -0.39553066405785997, -0.1635117103571404, -0.8731605869321062, 0.5243594621797354, 0.3662351693558987, -0.14748667833605955, -0.5917029395607674, -0.36647119568464137, -0.9684004380316387, 0.6147056854703221, -0.8330223101730179, -0.5639541414843987, -0.31533415618171956, -0.55497086067044, -0.6051086802869259, 0.8443186891654182, 0.5805881677762745, 0.17581847625225988, -0.2430754844308054, 0.8418373920960613, -0.5340347005589257, -0.32639812358634734, 0.3974135107190726, 0.6252070053781409], "b": 0.19487748733692856}, {"weights": [0.44311764980808555, 0.5016417966618538, -0.46619830565489795, -0.4490414869833603, -0.9759352901122909, -0.5968895409783865, 0.8507144300013909, -0.7865477464730646, -0.45295353865224075, 0.9452545508954473, 0.45211720423722435, 0.2604068962624573, -0.07547917017004235, 0.5249352547582595, 0.6390343283515534, -0.1711685579480453, 0.9919921646455536, -0.42741846398011796, 0.3416922057417713, -0.36991628269450905, -0.46721023790817573, -0.5475520225381691, 0.6317923207635381, 0.46420837509501767, 0.2597531153726047, 0.4233082619793769, -0.5376692647164809, -0.8663089586919779, -0.4044745999339263, 0.6599754019614619, -0.8345354265269438, 0.44768356535250087, 0.21441406687339515, -0.7771843995790773, -0.4553162407951641, -0.8170295692641025, -0.33701548554693406, -0.846564330567739, -0.38601532725395993, 0.05205049498609626, -0.06265944579047389, -0.47955453597300846], "b": -0.45846239424510804}, {"weights": [0.7467025771451843, -0.29267425267554725, 0.7006068925076372, -0.99634119232068, 0.41613213580051256, 0.9940429446920427, 0.8624730689922933, -0.737678170230873, -0.6135614438397683, -0.6697944754872303, -0.6179685924097404, -0.07721747905741294, -0.964474515987511, -0.8153507506089572, -0.11246384208727322, -0.30726780442560475, -0.7282917822624717, 0.29597244331049266, 0.04135993948161221, 0.3234380146846352, -0.9845594433466911, -0.19904612562204504, -0.4097676814242701, 0.26845261263318276, -0.25818237563637214, -0.2999856086233992, -0.9262759424480407, 0.22003007853792744, 0.9778475066936665, 0.4790660034444243, 0.3806689670196759, 0.3247159900796346, -0.3548021569733355, 0.941262670755076, 0.25275466538801306, -0.13383852552066222, 0.0041008805208462284, 0.6847944208927124, 0.5642477195843931, 0.005844839868223595, -0.6200028190720159, 0.6900731590286355], "b": 0.04325030474595404}, {"weights": [-0.13180456898434945, -0.34834681633747855, -0.5224858969852637, 0.8354066200216315, -0.49716410933919786, 0.8776086654386392, -0.33863123097985115, -0.915794479602744, -0.8301830174159022, -0.14098567158877806, -0.5760480499191785, 0.0362492937272072, 0.8754784859287883, -0.6310785158138941, 0.6698395412923239, -0.858568453181928, -0.222808056835208, -0.8996146991935776, 0.08215224716376124, 0.5408785179826872, -0.9224327965497474, -0.09761576787375104, -0.2859012207770293, -0.29954908043846573, -0.8776170928827489, 0.38218819630615686, -0.3391449032752474, -0.4595094700381843, 0.9205586455354817, 0.7270421353854926, 0.0039676354840840755, -0.22939534677593865, -0.7309059365177164, 0.25752335461873943, -0.22169948130187733, -0.1646356794611339, -0.9822805156834862, 0.5176431135660091, -0.7866054301074878, 0.34217894740080146, -0.0818511745906847, -0.019754427559584675], "b": -0.8438157825654717}, {"weights": [-0.9692986438449112, -0.31593823063981885, -0.5274763196646823, -0.036216821318036496, 0.3745678856129213, 0.914287513746856, -0.19757442091141386, 0.836486294089305, 0.4880020312503537, -0.8087704620188103, 0.649951191049305, 0.39678568585271656, 0.2858837485635868, 0.845178665600961, -0.5099734807849661, -0.947968111402212, -0.934779403781749, 0.44233907776344017, 0.8001646359059629, -0.7859594843696942, 0.9713960658888432, 0.717461920061889, -0.5384576797045786, -0.8790590278282233, -0.8553450870836798, -0.9089374037885973, -0.3773089883678624, -0.8349959732854824, -0.8222641154800132, 0.8489309625902595, -0.9415367380624053, 0.21625906980317566, -0.35518077804039727, -0.7238849393172291, -0.401596959709003, -0.9283673829792427, -0.43964399763983697, 0.9239163784548072, 0.5457363607165076, -0.7338337312922798, 0.6278901651068425, -0.6770090683329331], "b": 0.07612727745440995}, {"weights": [0.04231988383147778, -0.4712416510928905, 0.49222193313940865, 0.6636278284060328, -0.005038803744413345, -0.5349827405176906, -0.10372314365169699, -0.5467697007890351, -0.04267997581149041, 0.3330979735953583, -0.16738399402819426, 0.21127551428550717, 0.337804799834859, -0.9628982761007028, 0.897714180692037, 0.9844966379903324, 0.7625012398749411, -0.7813955063345135, -0.8053642812352011, 0.2278749222636567, -0.3716039718222046, -0.3117436850516344, -0.2158649548768743, -0.04710560258326146, 0.09144980756962995, -0.09812838831949877, -0.7480837744143534, 0.9775714160574625, 0.963625497822014, -0.6539780638521764, -0.7194106163413028, -0.6845231611783602, -0.4507444119644577, -0.24368195117556968, 0.03099468291594909, 0.25468258914432496, -0.5953559516595655, 0.9382108316999047, 0.5977725593562813, 0.8878045596892841, 0.5677831733183143, -0.4732356847243786], "b": 0.3193202225342131}, {"weights": [0.5428451381275079, 0.323065609806771, 0.9965223262220553, 0.5847186244626137, -0.83257344358059, -0.7256939838410394, -0.542030331600871, -0.29539985561801374, -0.9549156896538302, 0.46114679871281794, 0.3066335762778156, 0.28635509149240823, 0.49071406206668766, 0.9917141978595594, -0.9181037291832379, 0.31988558724347804, -0.11897055237376963, 0.5452010590589202, -0.8593373865454013, 0.028621742654305393, -0.7401601350783489, -0.7662063196751452, 0.009674598526009603, 0.8004279904044158, 0.29043713073705457, 0.4755080055341503, -0.6259692467823874, -0.2663545406200716, 0.9930653697543959, -0.49916032278378397, -0.9783165832652589, -0.3603733481842186, -0.9954896354405083, -0.8088116047491347, -0.29209704960108884, -0.8333738598632894, -0.8573417977143956, -0.9660430465721301, 0.2776919339449879, 0.19911297578679288, 0.5699038238142948, 0.3548470953346152], "b": -0.10277390661392061}, {"weights": [0.40769193962725714, -0.12238956869484574, 0.052522945292225565, 0.6806438598469329, 0.4961928096703374, 0.7774954015689033, -0.7342021773251401, 0.5554503757285469, -0.03032791042016303, -0.6032732156374749, -0.21474663833543328, -0.3968305152530456, 0.3164531253612761, -0.1835367472259215, 0.007619864790721298, 0.3553177817454476, 0.0691302351708547, -0.2613380196644459, 0.4232728134661634, -0.21519046740090575, 0.7995234182304336, -0.9752296499026778, -0.42003228184431984, 0.26796004422834696, -0.11307154105784578, 0.5576882375231249, 0.6658042960128063, 0.18467159812595813, -0.05661744777181199, -0.141651323140088, -0.33032584493232586, 0.9346821783999237, 0.868299570784298, -0.4442175715967145, 0.5195553016792938, -0.5744149257721352, -0.3291265571638389, 0.173901846288405, -0.3785927791484214, 0.8490891070783892, -0.9201609412344596, -0.9487503047921066], "b": -0.8804339374723225}, {"weights": [0.702858331700599, 0.6711448680667773, 0.7949162352632557, -0.4062191919420046, 0.2894747738117194, -0.5093501661516717, -0.7278219572177844, -0.7239747613250953, -0.9828795730220952, 0.5265682863136429, 0.3371548805148612, -0.11070418259660686, 0.8963407829326613, 0.329246805863578, 0.3053747167847243, 0.10618884954469965, 0.19239357396576762, 0.5628965254662541, -0.48681819216999767, -0.6385549997877515, -0.3627625557323102, 0.25686083499648804, 0.12930881028821006, 0.7802082006747291, 0.3737632649023539, 0.961478816859574, -0.3023133566196774, -0.019544185254335877, 0.1840449025472033, 0.6819769368573794, 0.9431838393140439, -0.33667750505329774, 0.34653816125218495, -0.11325946574873913, -0.9939065846051809, -0.24828281004533448, -0.8936641983001556, -0.48894764851655137, 0.08943618178555957, 0.7324348994027343, -0.06614650299426805, -0.7237523687901448], "b": 0.7831614381710668}, {"weights": [0.5646165976146247, -0.20554468128839587, 0.5220400657362374, 0.20515314921800454, 0.8752223442193581, 0.14963248032734544, 0.2378271319396077, -0.11472998681181834, -0.000907716352178678, -0.19404530849172708, -0.6664622244720164, 0.035262361780600715, 0.1503271367204071, -0.5661436317722439, -0.20277750282316576, -0.5599298753307989, 0.7064831964285607, -0.9694264684972413, 0.6531574528431974, 0.32879804295243, -0.7132695422837463, -0.3387119364246518, -0.7859629678968034, 0.09049979328991009, 0.07813498448654044, -0.319773948584251, 0.6435545459629843, 0.8937079601750566, -0.8495211887593916, 0.45836307133161047, 0.8381817784319754, -0.14812391846322215, -0.42647687476286, -0.09075803883616218, 0.9783456107664175, -0.514447667936611, -0.45607167304487484, 0.7590686037634948, 0.1280781861924114, 0.769995144828223, -0.06999303737624785, 0.9980592991267581], "b": 0.196915727256594}, {"weights": [-0.08844389040494716, 0.6013033426968408, 0.6728535410082448, -0.35052741484593564, 0.7756008551108393, 0.2835543508719929, 0.5434995987927014, -0.22621471471404875, 0.3480356565810989, -0.23166513662025312, 0.019942104143325423, -0.31102829447782243, -0.3769974643853522, 0.4366876832424569, 0.6469385756729613, 0.6561692815902569, 0.45885787563975033, -0.544680598469709, -0.8441093699621709, 0.9189214145214726, 0.7094977014584338, 0.36562995455245995, 0.46932812486816267, -0.7577909708322539, 0.02758698179566177, 0.9782194555073453, 0.7835303199969388, -0.42493689555414194, -0.3702114111509085, 0.4227381611707819, -0.9802877629170561, 0.687457868730607, 0.8425522223417143, -0.19866082626043124, 0.19519479726596933, 0.8828450532901229, -0.47465173462655197, 0.5171862481119542, -0.5009574621830555, 0.8160545138567441, 0.8364324777299692, 0.15148450533077606], "b": 0.012229975502880963}, {"weights": [-0.057603006516417254, 0.8616450920304095, 0.6063589459725287, 0.9763290797468687, 0.5332448285888916, 0.12119704946638943, 0.92547127015422, 0.03769346529814377, -0.5305719271166764, 0.5238539549436008, 0.5816527365331468, -0.40061308098473014, 0.5009968364311197, -0.9456741513936198, -0.6269630166500806, -0.18064640189607073, 0.21674848350142817, -0.8666937768062015, -0.817976386295822, 0.2373298789660856, 0.6545471926492603, 0.350240072935063, 0.7347434133675674, 0.1307670581496867, 0.3102941713310816, -0.08911498299362197, -0.6353506876177804, -0.7546085995461982, -0.792047828506238, 0.8645191126591512, -0.41145655151065097, 0.8051627305868558, -0.9478938225328, -0.3299606834268829, -0.35450631050318604, -0.9428811939047435, -0.8686745361231092, 0.4869086425804896, 0.39021661794145457, -0.22615922506697306, 0.10468555143016878, -0.9150866463886749], "b": 0.5534900324894365}, {"weights": [-0.6520137505958803, -0.7378116807344417, 0.10243297429148113, -0.6094895777543121, -0.1108631604651984, 0.44588966068147484, 0.9009752807486591, -0.7813194842858313, -0.43620873016200123, -0.33524101111963023, -0.3389871991295945, 0.34967412275533927, 0.21530656174386453, -0.4304941158128379, -0.7608694699641685, -0.14754461618503178, -0.8358512145244841, 0.5739326029467979, -0.29985323895519156, 0.21616610305124606, -0.9429581541560952, 0.9213056329216447, -0.21130029757001823, 0.24323240237114918, 0.2299506236808102, -0.050984406700567364, 0.9535946768041286, -0.2053466516870861, -0.9021104848922039, 0.6097344767906012, 0.6423662342711494, 0.4005822567229307, -0.7513056722396076, 0.6201004121645264, 0.0933258525796623, 0.7676478287323323, -0.5489154597634391, 0.7224049540290944, 0.0048981959651424045, 0.5095490747971301, -0.8744322805763554, 0.5333701238015975], "b": 0.7573318156299478}, {"weights": [0.1678609517490004, -0.9775726225024388, 0.08299497035457115, 0.40295306668926933, 0.9084749056136145, 0.1727560195451976, -0.09808173182916669, 0.24047804268000017, 0.2702168338009907, -0.3251469720075748, -0.6463379710337211, 0.4468421207758846, -0.4900672463508624, -0.5636816160507636, -0.2876746821870495, -0.6919932866288747, -0.7324008487705034, 0.6609744169371581, 0.1971348803463293, 0.09976251936660296, 0.7614635389038393, 0.6423994797622643, 0.9508737273192664, -0.6945186460864392, -0.6450605820813609, 0.21138123123228514, 0.8393844365339449, -0.1994062677290318, 0.6650560354668522, 0.06066085182141978, -0.6240594605900303, 0.17075925970200134, -0.34619901384803775, 0.7362318133845105, 0.1584167736305584, -0.585185684925551, -0.5591801908573142, -0.01414198963652713, 0.18718677668540185, 0.6309401034332607, 0.44233612397496724, -0.3122706544949492], "b": -0.7542792563610725}, {"weights": [0.013016606591934154, 0.004116088824917652, 0.9495861339074618, 0.07356180058543549, -0.2375991002366149, 0.8386771369187409, 0.6146638573178513, 0.4317106803663968, 0.7115028789808926, -0.08292262265489403, -0.758612510472934, -0.44420185204445706, 0.7933261417129684, 0.4614777117445028, 0.9755785121436913, 0.8883588320568552, -0.2501412140424957, -0.8782899407928528, -0.7395396003181849, -0.8163030410434415, 0.12758193539595353, -0.9404904737631954, -0.520441412353847, 0.570732011558625, -0.49424910007484657, 0.10134813566994527, -0.6564442477107642, 0.9039059847320252, 0.32784918443924593, -0.4704561130263687, -0.9152111709036765, 0.050406390649981425, -0.9846977080413366, 0.3338697449738799, 0.10587244652621752, 0.6400945452859621, -0.16271481563393198, 0.00016833410972605378, 0.11175018693490602, 0.49390435877842864, 0.664821078426165, 0.616574903485601], "b": -0.6697697409489831}, {"weights": [0.9384717338790964, -0.8943458360599412, 0.1382822029290538, -0.5597360209219993, 0.41172030377242486, -0.2607324192368854, 0.039464564775460786, -0.41481188920983003, -0.07221859060094249, 0.8210700544706508, -0.024298814101521904, -0.8665488579447036, -0.42277551291107396, -0.7881807311043754, 0.5704850042983081, -0.4343345082669734, -0.08789204244258952, -0.5069469796408754, -0.2961713405712665, 0.2826685443594166, -0.18749249121792833, -0.7510756349467633, -0.21730158792821364, 0.23445435518709679, 0.15840450049389476, 0.4372410962777744, 0.7811887080009661, 0.546998173978626, 0.08879242395970488, -0.6949401891845917, 0.5251256574388701, 0.9267230773217598, -0.8471607217946813, -0.5245471293035724, -0.8015460704990587, -0.265186939145041, -0.8741515113965814, 0.7940304019748212, 0.5376075686450841, 0.8695442600820289, 0.3179064618951406, 0.587290326615167], "b": -0.48172513247053095}, {"weights": [0.634878214352719, 0.2557928249212431, 0.6760291587929008, 0.672738815353086, -0.08197791776133223, -0.42627957149644913, -0.4303871518032183, -0.2979823006550286, 0.6180105915574818, 0.016505406982862292, 0.1482224996177559, 0.9655694170987277, 0.4514927806869613, -0.6241159285211804, 0.8448448446737642, -0.8922441908880445, -0.05619899677210616, -0.6660791247998465, -0.7275159286063171, -0.5723286943837933, 0.6307227144820231, -0.12268849688463868, 0.9798437185304205, 0.7806425178935705, -0.48981795988303034, -0.5653289898434268, -0.9905852983876422, 0.4054427385295625, -0.31223457025811374, 0.36469874109332223, 0.9096878907702284, 0.8406834512615522, 0.8550443343923713, 0.7023989184185011, -0.6112776408356451, 0.47625852782516276, 0.6353337017681833, 0.16320980873505797, 0.577799521467941, 0.8702375491188286, 0.3680113260346545, 0.4426518550448373], "b": 0.09555343491481638}, {"weights": [-0.5079649590420812, 0.7505855813936255, 0.11589960238217123, -0.6799445233236825, 0.05595171533465493, 0.18662363753283628, -0.5639460235609703, 0.392982665242396, -0.4234537940073564, 0.7069794889617116, -0.6869562316747015, -0.3074420996938798, -0.27398271461559043, 0.8839584472101873, 0.1148683603554661, 0.6724430007251594, -0.10923963389763025, 0.6625683343783837, 0.9484965095893134, 0.08044610195265856, 0.8889857388348608, -0.886111787454297, 0.425772556410692, -0.22944122602138428, -0.15762372197210373, -0.31292881663815475, 0.5382695071557677, -0.0548491357033456, -0.37338512106167343, -0.8163426107068561, 0.34782702158527745, 0.6868224303644679, 0.8428237810526109, -0.7929113817007802, -0.4712614335186227, 0.22501317400291976, -0.33146742363308346, -0.8383630932067161, -0.2422702507227641, -0.5195400856963155, -0.8104854347272512, 0.5250858170098274], "b": -0.13286071862372317}, {"weights": [0.6921127566459424, -0.9698548734423476, -0.14091789662674414, 0.557288606610935, 0.7236543514841889, 0.5538938358721144, 0.48448156216161586, -0.47437218993120966, -0.16981040854628793, 0.16546403680626032, 0.36807501521348485, 0.8069790356663262, -0.3746793352829596, -0.4939116567663344, 0.343643294593317, -0.667010429575573, -0.6177301907107662, -0.6808897327407837, -0.5810139973381161, -0.22550128085937882, 0.24913045971771464, 0.4625831495475563, 0.7042372447255894, 0.012579951305396797, 0.4479683891950017, -0.11185895204463425, -0.7294910153043204, -0.46634203763470317, -0.16983082643778058, -0.031720436487316706, 0.46151539164448674, 0.3200491670654144, 0.13294254143016238, 0.8891317040815496, 0.12717018177698347, -0.7169732550331205, -0.18455788677109264, 0.42760599519459785, -0.15524546885711699, -0.02131730341418958, -0.19949963168434182, 0.9513942925714567], "b": -0.647424307930758}, {"weights": [0.5512013566518281, -0.9623984412609179, -0.31831706067618937, 0.47638485606651537, -0.2574846469873415, -0.7093975908273065, 0.09928713714899251, -0.36104399542050425, 0.9790002964094617, 0.08735017207143447, 0.500432180554836, -0.9303848567427426, 0.2107142548996439, 0.9919117530684234, -0.9669483837902246, -0.2749662978732128, 0.656830081258305, 0.28024947723939597, 0.810875494098503, -0.1916870808090978, 0.9200940571898037, 0.9558317045632834, -0.5878053585694962, -0.17171843552786892, 0.20235848269562062, -0.5846696759002907, 0.9397856440429262, -0.9531085473840526, -0.18238654276068034, 0.14316879931224902, 0.535234292830874, 0.3244605347300422, 0.05996022880983132, -0.4416814941613416, 0.6754293893327925, -0.6549093427744337, 0.175261197477677, 0.0793946269582666, -0.873651901414471, -0.3482320332481714, 0.9065396701469619, -0.970356346020367], "b": -0.5828654077610838}, {"weights": [0.5774688072074929, -0.8650552118221022, -0.15854019271471542, -0.7411469831607846, 0.7585731215482061, -0.99006777848148, -0.6357220840662898, 0.2616531935202291, -0.43376062869552157, 0.6572794464435194, -0.040938531166154535, 0.005658289891550483, 0.1605212792327788, -0.4861873948859661, 0.5011025026581304, 0.813948738387613, 0.33116233736237244, -0.50642490609709, -0.932501210914991, -0.04329051858704891, -0.9237033209691463, 0.9417662665201378, -0.7826432645615298, -0.910536985775475, -0.9704469508089213, -0.2953983710023349, -0.3580210616710622, 0.25685194237507725, -0.9306571389532843, 0.9595987612803467, -0.1606549129763719, 0.39555604124758115, -0.07315179594542798, 0.7173679045839112, 0.2698785017474936, 0.642271757723609, 0.19320372384549778, -0.167896722370519, 0.32252035285603253, 0.8930295342489976, 0.8570942053353499, -0.8062039500907048], "b": -0.4682448336350631}, {"weights": [0.3624035777191348, 0.9190086407792628, -0.611735334214772, -0.8068466348857657, -0.5510551242797173, 0.07266020550430685, -0.5807583178554045, 0.7900073040181808, -0.6450597741811035, -0.416994057754394, 0.1284942106601603, -0.7354924551332898, -0.5892434380268807, -0.3722722296278833, -0.5032241577152621, -0.4482827821810733, 0.1855120039911784, 0.7743348192991168, -0.17099450081078205, 0.8666448711088013, -0.36831183440413406, 0.48615543660398797, 0.6797121750766992, 0.631053159292396, 0.49768428422199507, 0.9016361258779624, -0.18318405072844524, 0.6281495944586379, 0.6047797165286108, -0.35614077859374427, 0.5473292403661671, -0.025948775735290308, 0.7879181902443286, -0.20644965148939054, 0.11571660022325325, 0.8410495474988631, -0.4264778375968994, 0.8901120843498898, 0.22974855152023532, 0.7237569906561812, 0.9299001527335269, 0.33685544147312196], "b": -0.45357565978801806}, {"weights": [0.8648030145350003, 0.4876858074748809, 0.40963333881317676, 0.5616641375870879, -0.6349948795435791, -0.4484808487657217, -0.01746128553639137, -0.08313927983532476, -0.0318725445566419, 0.8798448406515533, 0.4541532104134709, -0.1970346981087323, 0.43202541134973815, 0.08750413932863377, 0.9150192743507573, -0.5279446367168006, -0.8488889778602771, -0.24349887547756488, -0.3168873363888707, 0.32239808257528324, 0.7604890204901007, 0.27254752317373954, 0.654484413586877, -0.2937469371050556, -0.3757131507051674, -0.034483260964327966, -0.3534679405222956, -0.8899523478910256, 0.08636314775260745, -0.8561498646311247, 0.6136473003875567, 0.5143200264638017, 0.9019976422524856, -0.44178075578652054, -0.7470500769276225, -0.934219195104091, -0.7783490251964131, 0.07126809234441955, -0.5520781096064411, 0.22532525842668227, 0.7072567550796445, -0.2152612352833363], "b": 0.21644557523185282}, {"weights": [-0.30975610307299517, -0.8107030958494266, -0.44188123829892656, -0.6276216696677686, 0.8853836355635192, -0.6119230235831419, 0.038813684175485585, -0.08601430503745133, 0.4731769112273274, -0.4082187599043565, 0.9388908623729253, -0.01027334048527706, -0.013711841198020824, -0.43995260801178415, 0.6890649814039025, 0.7288282975592884, 0.1896224933257964, 0.14385836086621362, 0.5007140704510826, 0.474738133634071, -0.5393564238250208, -0.46835166962141495, -0.8693274667464033, -0.5000541562251828, 0.028400892273323874, -0.6786769312016023, 0.818034147951852, 0.6772248146789, 0.7701842626860251, -0.8312360360826498, 0.773240475162746, 0.41889024869506253, 0.7465761599240308, -0.1566155426563436, 0.9985998690262152, -0.0849645118569331, -0.2508881615541816, -0.47414989719420064, 0.6054316486753979, -0.22513352860979308, 0.22531553030554963, 0.0762904622289986], "b": 0.7629097896677306}, {"weights": [0.7491313148108623, 0.6892019368201148, 0.810922655335657, -0.7371228889599979, 0.6658315844356033, -0.818429751616552, -0.5539290258071032, 0.08182473937305135, 0.11057974994634612, 0.05830882176576635, -0.566564881139024, -0.8029581123697527, 0.06289153495832878, -0.9520639317887103, 0.05876465067434222, 0.3873800510222618, -0.6779728700274472, 0.6264439608582433, 0.9078586533088968, 0.7704060901616534, -0.7093024190361144, -0.24218853269350915, -0.8544036204051539, 0.4669195107429873, -0.4275361313822046, -0.5860674283785896, -0.45982509150491757, 0.7654972482323741, -0.5389032950611479, 0.0033405288768275643, 0.7981345186216129, 0.6510774450163439, -0.43490850894409916, 0.56345526136956, -0.10099126215391396, -0.03177882343758576, -0.3234992762832434, 0.07683428276630377, -0.4732765577526552, -0.0402738832282028, -0.831615606178052, 0.19850806524849607], "b": 0.05887754347952634}, {"weights": [-0.8574161941415581, 0.7428792044459538, -0.008090582612175545, 0.3119802578266979, -0.2895519084700948, 0.37504187345435946, 0.19362133325694963, -0.8530421688094234, 0.9618422335106853, 0.5129117669641827, 0.5416982595881494, 0.05717570024427587, -0.6934117118669822, -0.6018661665329754, 0.06428309836645352, -0.14374241832465962, 0.14818887346634635, 0.044548665686484634, -0.9959202840087293, 0.7494018641632274, -0.7454811887116339, -0.18030523849467883, -0.7697209096012154, -0.8163097347755199, -0.7097128815832645, -0.8813605429517113, 0.5590498248430162, 0.40638759379560185, -0.6946514299234567, 0.6962459054929873, -0.34091481217662745, -0.2800113043225312, 0.15162690462100792, 0.9166008569406547, 0.9745693841517638, 0.12785410401876685, -0.6575612135200135, 0.7783971243776666, -0.8310368741434861, 0.16841775717765262, -0.9887446139641289, -0.44808674328082954], "b": 0.2517940717335112}, {"weights": [0.035903991922497935, 0.5318557394859891, 0.21224490626059733, -0.8042468816944837, 0.4921028533833691, 0.01120608843031512, -0.9809316132678638, -0.9460179516602996, -0.3096102402099077, 0.918844868045491, -0.3776829967012372, 0.5193196200556904, 0.6462444238405873, -0.7631045576958486, 0.6157095320626229, -0.06028182256363879, 0.5501970652571484, -0.5196506609395621, 0.08467919601686358, 0.30955363447094597, 0.5713762667702411, 0.7331265561176066, 0.5540004084764576, -0.005826663753400796, 0.500090485546544, 0.8669749712851913, -0.2112225762739055, -0.04089489360049314, 0.26740671033464647, -0.2290714894823156, 0.9040296603571312, -0.06865187716267407, -0.3294890394367267, -0.003306783347646114, 0.3706632079412997, 0.6142577881776226, -0.5656900282091284, -0.9352414312726862, 0.6489099398283249, -0.7725493539188055, 0.4957623229167236, 0.19732697998622872], "b": -0.2623886721433635}, {"weights": [-0.0009965145018977495, -0.877658318748018, 0.5239855108727269, 0.3614173737865125, -0.8013888405285923, 0.1929482362381647, -0.3299360496427677, 0.9620986392768867, 0.4162238216570413, 0.2200890214659026, 0.09962734995021583, -0.056274105230227134, -0.08932258191719633, 0.3648954753583402, 0.6957568809300043, -0.7313002629019745, -0.538420296583757, 0.0012477082203783407, -0.17372365961086866, 0.11058237008402827, -0.032429948851596, -0.39125930952308763, 0.40954891513686875, -0.46907802019590483, 0.5973178517805466, -0.780867194724578, 0.65084490814454, 0.34132149325104444, 0.28389273698947104, -0.4775313378288013, -0.3156503532677344, -0.7560712629755202, -0.6829100533433481, -0.5838910778026529, 0.5628431854720257, 0.45015179265266947, -0.6926331575703675, 0.4837759068766032, 0.7137756668890392, 0.6206747647149642, -0.7242202400404163, 0.2162752581328331], "b": -0.7259583181558014}, {"weights": [0.007971401619197183, 0.9505217009110141, -0.7729000846137111, -0.9957190562338725, -0.6079281953919182, 0.2556023249551673, 0.8037701036801732, -0.8094676167083941, 0.7595837172874849, 0.07146700499087122, -0.5258939220567924, -0.5195807434475488, 0.449447259023559, -0.0007692258814828712, -0.09298354033521838, -0.21866790826076032, 0.5568860104897799, -0.809046190823727, -0.07230741016915676, 0.8546119712429134, -0.7302716288053734, 0.8382880655305684, 0.7107143718826545, 0.064985795333665, -0.2080309749290694, 0.8662475640810416, -0.1833264659263254, 0.7807819830465275, 0.3117016668591128, -0.5138504057036299, 0.4543993003395026, 0.4068706760425955, 0.21441490832030063, 0.017802946802539354, 0.2517228258195665, -0.40399122261393705, -0.2540704343827067, 0.4323623531173102, -0.7018309278674504, -0.7326807779153346, -0.008322332373589703, -0.5475416615207251], "b": -0.8518790442957951}], "output_neurons": [{"weights": [0.6798669114172926, -0.9571684359494246, -0.436594445363401, 0.5222581547885135, 0.6193105947788349, 0.1266538355511171, 0.46995746432106245, -0.46550445460334156, -0.4368866538559901, 0.008192754460728091, -0.44652417277078316, -0.12315397620222801, 0.19951975520322773, 0.41018805579307105, 0.6691789949246909, 0.9514164962368128, -0.7567152672463939, 0.8005162577809839, -0.4950270811547717, -0.8029259425186366, -0.4579569985603924, -0.9921570235219834, 0.04161291995473726, 0.03527148589615492, -0.8973984556289238, 0.5821608610261202, -0.03558713983361672, -0.6726811088747973, 0.4551685565567063, -0.3792941182177567, 0.24174493248995343, -0.5653153786405385, 0.5586622694139123, -0.6826120802325104, -0.5519682051000416], "b": -0.7919592350891054}, {"weights": [-0.8344846898475666, 0.706936492125791, 0.2664198582156281, -0.8725004173310653, 0.4589037486361289, -0.39822343002432237, -0.9546965327371588, 0.0010677958830709322, -0.9656876100629763, -0.881964702910953, 0.6657295900783715, 0.29788529966232913, -0.627659344511212, -0.28794579292057043, 0.0177436314032291, 0.41723612801358745, -0.4904636930593904, 0.4130140900734778, -0.6570177817210501, 0.35150251368825636, 0.39202405622346514, 0.15409404279079575, 0.9832730442124145, 0.9149587677755702, -0.5232181371461435, -0.6203680099898847, 0.35513651612237984, 0.2418173436479245, 0.5954779982220619, 0.4278991251019213, -0.04784633804642513, 0.896444199763599, -0.18847162390479477, 0.2883793798366281, -0.9131315172288528], "b": 0.9592027851493106}, {"weights": [0.2088494933343079, -0.29663067560437995, 0.1744590634091956, 0.28261731515078203, 0.3199020660911378, -0.32602696016732424, -0.5741813723575608, 0.04003686309984378, 0.20989137236736677, -0.1792850838120148, -0.4377486636224588, -0.054020291031913414, -0.7390658559862149, 0.39437435179617264, 0.16148858366922147, 0.9402832477938903, 0.065514169519034, -0.6297576766818798, -0.3999383804379255, -0.80054554045545, 0.014370907340372607, 0.4708534962849267, 0.777043065833791, -0.39968323129334804, 0.6786435771713446, -0.2387562775407801, 0.7285500752324741, 0.6871858007799896, 0.8379011113143937, -0.5416187519736342, -0.38429655871507684, -0.7734941546264118, -0.11377141732207563, -0.9633432002752844, 0.07560552879494864], "b": -0.10859966902201323}, {"weights": [0.9115412639985476, -0.043718093577497674, 0.29105699908598637, 0.35224585942598186, -0.01906836846737936, 0.4589743684417529, -0.6956412511397092, -0.3411441859527782, -0.9819753588681326, 0.08547431012271556, 0.003230114226059566, 0.33219970623506945, -0.06113981928120693, 0.0856006661775186, 0.817172142134833, -0.7684584105635919, -0.5310303574410111, -0.017083634785942214, 0.3448900130109709, 0.184844233235119, 0.3137136516813257, 0.3443368794212476, 0.8066403522390122, 0.5230924212024808, 0.2855185619085958, 0.12578971681236628, 0.7212875989364678, -0.46376660702294004, -0.30782122215389895, -0.6296701430757607, -0.7544337697902639, 0.5509472285904953, 0.49228222598242644, 0.829599267429902, 0.09089138203315317], "b": 0.10875685233392174}, {"weights": [0.2322046995956213, -0.6939748449756367, -0.23557291951199777, -0.4853779204609219, 0.8662579540605753, -0.8781072813523811, 0.37352453278086895, -0.4565201749171488, -0.9079159895281594, 0.9752835795669037, -0.7661796254627822, -0.9731987283363446, -0.39486454684249495, 0.8200127421774241, -0.8042357922671846, -0.9890981393724247, -0.08397053284509326, -0.04483431840051555, 0.3321988345680431, 0.25011082565104426, 0.48389741859043167, -0.8656914053683442, -0.0841940107650847, 0.2715042962832135, -0.8583293960663889, -0.24118748159282255, -0.6801790234313092, -0.16827474959632793, -0.23740256271927995, -0.6021830209479588, -0.9883556166334666, -0.2496656144346039, -0.21738864788783308, -0.16006012052192808, 0.6003186020787863], "b": -0.7964074771153067}, {"weights": [0.005928860897486787, 0.993489590993311, -0.1411943378984104, 0.6829827369038555, -0.6528504581460046, 0.5519003500032127, 0.37317433616082796, -0.027161728515313177, 0.3912611425681638, -0.49912266652109616, -0.0931241396541107, -0.40675880724844604, -0.6180728925873695, -0.001510368865889955, 0.10469474473866813, 0.291254905548761, 0.24373275121845994, -0.4632884014010188, 0.10507027830846849, 0.9800087293823943, 0.7815636199895493, 0.15221788274521586, -0.37068640953049004, -0.1414544252744625, -0.8155404352471196, -0.7857280458806217, 0.5132390979677282, 0.16431388111900747, 0.7704193168747107, 0.16575687258115313, 0.8019837729257935, 0.4996371889299924, 0.22688852247989577, -0.507614085441888, 0.30904091968990577], "b": 0.265011041543304}, {"weights": [0.13228952043933617, -0.5212146731688623, -0.5126306548027337, 0.04622841850812587, 0.08239633130497426, -0.9911433435801698, -0.679942785990284, -0.5953581529058498, 0.25269050309297114, 0.633039146941466, 0.16882538158040283, -0.6574856117033423, -0.3377646765593698, -0.5197947143531423, 0.43882279982668426, -0.30420944687981, 0.1456909051567843, -0.9281095923392346, -0.7717237104026453, -0.20851151240483778, 0.24691392699503512, -0.7103380146691678, 0.19792530592602442, 0.6703350624155777, -0.58964452773223, 0.2951871149734846, 0.19494534026775434, -0.5787690087780122, 0.8265745531918933, -0.32794159645165544, 0.16858391687796925, -0.19593677655290986, -0.10944407179122351, -0.7132247268975851, 0.5867621994881815], "b": -0.09687437481758021}]}