{"input_neurons": [{"weights": [-0.9049683245845141], "b": 0.8070487410009934}, {"weights": [0.7853040503832232], "b": 0.8523676067329997}, {"weights": [-0.7427810763766458], "b": 0.05648754228604291}, {"weights": [-0.2629860415727321], "b": -0.8355938717840523}, {"weights": [-0.05506946016388903], "b": 0.2550215433663481}, {"weights": [0.977947044343606], "b": 0.917365358667998}, {"weights": [-0.3682907250215808], "b": 0.891945341388344}, {"weights": [0.31904538980929376], "b": -0.030670900714856453}, {"weights": [0.13782225950541305], "b": -0.11611688060131797}, {"weights": [-0.7298890887915872], "b": 0.49844999814127644}, {"weights": [0.5311817643568435], "b": -0.6230646095379853}, {"weights": [-0.15648376736967307], "b": 0.4323506508445296}, {"weights": [0.9983126805919584], "b": 0.0920458981760921}, {"weights": [-0.8635768394241614], "b": 0.3940592960648961}, {"weights": [0.5574371812152108], "b": 0.4693774553452008}, {"weights": [-0.044327841872996654], "b": -0.48196401923837384}, {"weights": [0.9682629850330184], "b": 0.004884902837225535}, {"weights": [-0.09782161057072081], "b": -0.44660554660167295}, {"weights": [0.07781485334095795], "b": -0.8508479264594628}, {"weights": [-0.6119972621566232], "b": 0.09011081951760724}, {"weights": [-0.22704270892780665], "b": 0.778851344328938}, {"weights": [0.1207757350648413], "b": 0.39153066830030103}, {"weights": [-0.6064083616228184], "b": -0.4473221431460981}, {"weights": [0.4596151995990847], "b": -0.8836160436173583}, {"weights": [0.04415591473849356], "b": 0.1850814758523649}, {"weights": [-0.5358863247417045], "b": -0.6720297491824079}, {"weights": [-0.6960032504968787], "b": -0.2806275201814261}, {"weights": [-0.08114408082601732], "b": 0.22496702253716228}, {"weights": [-0.6358759529683913], "b": 0.4128677455052827}, {"weights": [-0.9802011679790947], "b": -0.09410112135524806}, {"weights": [0.45350487976582543], "b": -0.6397193989981056}, {"weights": [-0.7195219452512505], "b": 0.2472577910266165}, {"weights": [-0.3166776291530702], "b": -0.0062017076786182734}, {"weights": [-0.5826799584206968], "b": -0.9826379591583263}, {"weights": [0.39987804746608524], "b": -0.968515812633955}, {"weights": [0.21998293117052414], "b": -0.6233678994430676}, {"weights": [-0.4535451008696407], "b": -0.38020855335095227}, {"weights": [-0.789784319443789], "b": 0.3928374461041866}, {"weights": [0.8804052983970971], "b": 0.10038178474717241}, {"weights": [0.15315252983119154], "b": -0.27392611024924785}, {"weights": [0.00943123168744009], "b": 0.21882138046304567}, {"weights": [0.9782261757234256], "b": 0.9217578259297001}], "hidden_neurons": [{"weights": [-0.2632740995943481, 0.1357298440074044, -0.12733565306938788, 0.060718930415499806, 0.5633927291739884, -0.2521707396980504, 0.5168585030407868, 0.46562255588945245, 0.8028938071680491, -0.09099289275159084, 0.5597824361792785, -0.0994172298924838, 0.2710827698015381, -0.13985217471187195, 0.686401430268379, -0.12948438561542241, 0.9955012943952644, -0.671684902973386, 0.488180203750634, 0.030805298410571558, -0.8897885656632396, -0.9752277842245218, 0.12029098694393325, 0.09723836968123512, 0.7584197780050075, 0.07232558420605106, 0.7331733247209398, -0.7265618802896925, -0.37275402416707704, 0.6262541410463256, -0.0314195304958651, 0.4987723120247578, 0.3253268656901944, -0.4565274656742695, 0.5547421003999224, 0.3696748637084364, 0.824892592742624, -0.5252164786875655, -0.6955078981703104, 0.29132244080700676, 0.7886150077395608, -0.9498228694869291], "b": -0.34047574528745694}, {"weights": [-0.6623438121450218, -0.45203898769765427, 0.4286034473563829, 0.9792139886060374, -0.3015331407655264, 0.33042788588655836, 0.31300275777605324, 0.393133134027263, 0.7378438204394469, 0.681139678581034, -0.15670113910306283, -0.6340423621295941, -0.016875021628196984, 0.6578411976943481, 0.03405520036294196, -0.6024812815643616, 0.7604284621320798, -0.49066715072840017, -0.9836963514146411, -0.5855637844148383, -0.468389934516362, -0.5499590477469496, -0.9089696142045203, 0.8148085223725943, 0.19408192340403851, -0.4792692573822752, -0.5075038193728076, -0.7877107403408701, -0.3704773617426351, 0.07809298988885316, 0.7735635151113467, 0.9417240854054962, -0.3653273367772192, -0.8944946622311867, -0.8386014902014518, 0.41281612819326186, -0.3721927080946168, -0.7771539399160554, 0.06093931536381869, 0.1586117022099507, 0.6467180515836797, 0.7416298417145988], "b": 0.08005215167990976}, {"weights": [-0.21669391532954818, -0.8460659326720783, 0.35792435372370734, 0.36207968006929114, 0.6909329638318578, -0.6580553383640957, 0.9802772914206364, -0.8936135753511398, -0.472173367964819, -0.5497072473537468, -0.388873907044029, -0.6340808277836243, -0.1663614762018073, 0.1331523306507203, 0.0006717866617509394, 0.02240143106765724, 0.6052466056103263, -0.0063578024803399025, -0.962346863670726, -0.7406679951604891, 0.6198800442758761, 0.6460685381436087, -0.15726501863010722, -0.8662946084905889, -0.7125937098495636, -0.5976928178773202, -0.5639362846798723, -0.5586308224391658, 0.33928875669660763, -0.25518978134106884, -0.3756676289773404, 0.31371157278812833, -0.0013018194477611988, 0.9673123238323924, -0.8799872463777705, -0.46413409961237906, 0.647922116221197, -0.640682220886861, 0.5235207491203755, -0.6667441451600522, 0.6373156071627935, 0.2474511051989028], "b": 0.21881369444068222}, {"weights": [0.9451526440729967, -0.02005823460232059, -0.31022370861693793, -0.0747023810777998, 0.0966230827717427, 0.6606625127017054, 0.6828858640207436, -0.5498973771862696, -0.36032426401725526, 0.6006256012870321, -0.11263272164352389, 0.591007799630062, 0.5350367072572206, -0.5216398527220885, -0.7781557749263035, -0.425662916764892, -0.31963081556983974, 0.39821375922206914, -0.2934259245441766, -0.048549599864868176, -0.010968070989105794, 0.3479880401686959, -0.8246994701795891, 0.8619984833068473, 0.5778899306060603, 0.05856277152376732, -0.16940009952970558, -0.2649083960766361, -0.34566929793732926, -0.5238561183509698, 0.4264105841182151, 0.8402809777550089, -0.6392529772661144, 0.87610357825933, -0.9551438565081103, 0.6666532495942328, 0.8682575496596379, 0.7394259343420073, -0.7081305538025304, 0.08813919796772574, -0.37107682813752985, 0.8714053803015738], "b": -0.48317719680069926}, {"weights": [-0.36424826322740445, -0.3409436272037223, -0.5077763877685111, -0.5747847619101232, -0.4271992444583659, 0.32850823296685827, 0.6436515055105172, -0.679082667592424, 0.4434699642940787, -0.6275195507569846, 0.133618816856784, 0.4635227191897273, 0.6583420898764276, 0.2392409798940891, 0.7464426009935294, 0.36838056510843065, 0.807170421643062, -0.9822626457134347, -0.2284896985383571, -0.9807534151757482, 0.4547706679007051, 0.3507142355405979, 0.13781344561204234, -0.2645959674952605, -0.9381275656493113, -0.56098514574455, -0.6808199735377907, 0.33644094206914743, -0.11867288453818503, 0.835910802283292, -0.5989085471658138, 0.7080860922963172, -0.9591480332437792, -0.825712984598846, 0.1902063815311601, -0.6160560103555035, -0.6410684813059364, 0.6283071219163081, -0.8914964259757818, -0.04576109492830427, -0.05155241938536981, -0.6141439082667066], "b": -0.03221385675158084}, {"weights": [0.19500730366974994, 0.7442742123008779, -0.4803135334051223, 0.7079896026276975, 0.9089125192718828, 0.5148954573238615, 0.06200258477148912, -0.8470276358404862, 0.5325744066984508, 0.2117077619807668, 0.5361032068645792, -0.7158686388175561, 0.8836486522966873, 0.7712493450798046, -0.08104833991763138, -0.2588807669058637, 0.8855723540179987, -0.8730638039460967, -0.5720844571184025, -0.4263685998636355, -0.37490155718182616, -0.846681882544597, 0.7034943778708891, -0.17712630171224752, 0.5112991756187111, -0.8125087944502776, -0.709041135631183, 0.8057385090602605, -0.37731190252537417, -0.9498366929325719, -0.9616207925121807, 0.5250628187046771, -0.6467429559120494, 0.4035023719429247, 0.20788372587859794, -0.813296124473678, 0.6509739769330445, -0.8862922244462752, 0.05903339763244886, 0.19240719162673892, -0.7467240020430799, 0.13887511552043885], "b": -0.3692442185948015}, {"weights": [-0.7096261855835466, -0.0006004781397381809, -0.0774547621239261, -0.3951120650689248, -0.3971275066484121, -0.7986031598929528, -0.28263309853591423, 0.7839379256162782, -0.058344051103628614, 0.9503461393964028, -0.6224710527579544, -0.8739395509196579, -0.13852361879060648, -0.34337991603972484, 0.04268945132266988, -0.3016092477707182, 0.4008165695750139, -0.06258084449313928, 0.9246638783289076, 0.14374113172595115, 0.4407128506641129, -0.5916925006679616, 0.26567741520759336, 0.1151461879394009, -0.5985826639637182, -0.6902140334193041, 0.4822277614162829, -0.8846745605190236, 0.7119063650973088, -0.4172656061097839, -0.5641616552163449, 0.4845189799175007, 0.02247519122462016, 0.7144721053083258, -0.17013732416173566, -0.7738181362944101, -0.1289493134248758, 0.13752112029579133, -0.8575149478820363, 0.7283910477958926, 0.12998162540807834, -0.6098149896498526], "b": 0.26918713192080723}, {"weights": [-0.4527472541247648, -0.6311320010712436, -0.6360367131738687, 0.27966525813104237, -0.9179275305149304, -0.16688304105577667, -0.643260269483501, 0.5414693609829855, -0.7030278278177924, -0.8088845185794384, -0.35828989018178525, -0.542513366461574, -0.9146662014568769, 0.7105377229758938, 0.23055063827967737, -0.6677002974271102, -0.5974174543494177, 0.6240189819858681, -0.7031685319502841, -0.6413724068955433, 0.6177987277604116, -0.2618008995161427, 0.5796198986036789, -0.3157796306681073, 0.03348900586497372, -0.9964557053675469, -0.36759746999782106, 0.11036627014886946, 0.7428094809414092, 0.8349062227734856, 0.6688062344520991, -0.7039502807979117, 0.519216320107297, 0.1937315982891048, 0.7851742989140018, -0.7664927514839721, 0.9799016830778746, 0.45200690015545075, -0.7051353608871054, -0.2814423312045673, 0.6413004927646435, -0.25080109819149854], "b": 0.7853024628974601}, {"weights": [-0.7772218584164612, 0.49784110745304355, 0.09638447617522639, -0.8551567074713979, -0.4936928624137129, -0.5342253077791825, -0.24108262689851845, 0.5748971560940277, -0.9493625627810309, 0.43215512011983015, -0.8832622292075976, 0.7552875234957623, -0.4233326564288693, 0.7034872709900355, -0.5744848246431866, 0.69180348526762, -0.1285093018732062, 0.08539799477677068, -0.027151274989259067, 0.3039766146741538, 0.9660581673483861, 0.7141436125041372, -0.18858745676863142, -0.4438633348851828, -0.3552035903925488, -0.72981426470294, 0.9989721373214147, 0.3790411735757466, 0.40551531326187096, -0.20493862271847418, 0.26328679424584056, 0.4685541559624593, -0.7596344370665418, 0.9520999537838188, -0.1339734778408317, 0.043053323691181644, 0.7213668010815846, -0.6955143194399187, -0.05076218553365641, 0.4416832059978808, 0.7045148182508705, 0.5957586716340266], "b": -0.45488911313890124}, {"weights": [-0.10629971611224476, -0.7061693676845262, -0.13608726170438468, 0.11313601438983878, -0.24166228415770274, 0.2651993930920189, 0.9799074885338794, -0.6853801960055852, -0.8231998492502091, -0.7211213754433825, 0.10752387938462893, 0.37192231465082726, 0.002427670649752578, -0.8742491055852009, -0.607967375078027, 0.5425463538484308, 0.1660974471027452, -0.9453428715952519, 0.660405605014792, -0.8989849212265524, -0.8754053225058769, 0.5602202968027952, 0.12417878360458157, -0.7791693888389808, -0.10608788670645652, 0.8250283020096001, 0.1760672393437792, 0.22564899075769884, 0.3343949856898838, 0.8657636688195114, -0.045134562714872706, 0.06264906930191994, 0.9326275766128904, 0.5574228653397277, -0.21218778236688607, -0.8286544679739953, 0.19332333982786398, 0.15343795581194075, 0.12290215567233975, 0.21263959951042644, 0.11958646925887373, -0.12804368682962752], "b": 0.6122386731695533}, {"weights": [0.3929720868234383, -0.25875806990228156, 0.7241921265525342, 0.9876823813727305, 0.20606546330165743, -0.3804832870441748, 0.7305587555583819, 0.6487468421277591, -0.03471372371310455, 0.5530941980101844, 0.9109337253438181, 0.451332629709408, 0.6281839828400742, -0.12814707509823964, -0.217544537099555, 0.39820841702365706, -0.007866354996592495, -0.17323358882946027, -0.3383526233108627, 0.7557826561484315, 0.5704491338642044, 0.61880426337633, 0.4355605898499042, -0.8935217751195119, 0.20525088597197527, -0.41138074938742, 0.8531385836510204, 0.4399668702053794, 0.04875896046432904, -0.38459953783653567, 0.479472175650826, -0.9321927985748082, -0.5588742376398164, 0.7472921653581543, 0.5009520971480312, -0.600146469190018, 0.4088986829820671, 0.7024317926900345, 0.8675608786171023, 0.7298236082814538, 0.20580425654873435, 0.8551820250118076], "b": 0.28107818905020565}, {"weights": [0.4890941192205447, -0.43654673725541815, -0.389470541433123, 0.36889484011120377, 0.2176396902347244, -0.5265158355967472, 0.8475636235416371, 0.5220026770690631, 0.5954915042963804, -0.2307155043458209, 0.27218252223594597, -0.48572407621086966, -0.7484467437936841, 0.3322392628260764, -0.29960539903774475, -0.5173827681812895, -0.25362605296802365, -0.5782895016538627, -0.43369037462012905, -0.011837176923580772, 0.02223669434650355, -0.8225922809178452, 0.3436141258660057, -0.9612792251964044, -0.7059228283759016, -0.4108186724649958, -0.9348787074820297, -0.685566802067578, 0.46957326421301593, -0.9836392798092393, 0.28718393218037175, 0.9792217496366478, 0.2983680717386741, -0.23196837179854457, -0.6571186790581789, 0.64343826934787, 0.5245478930958622, -0.9524991741941218, 0.4361226916689618, -0.2988171882711681, -0.6541378682584611, -0.8773730200122336], "b": 0.12363529575070187}, {"weights": [-0.5096549069690084, -0.3792083041435641, 0.06199706403622551, 0.8616344181169673, -0.6863130825314241, 0.5133041455939977, 0.14721895558695763, -0.7270673338108795, 0.2919020567162445, -0.26282849422394006, -0.3465988212030773, 0.17653411044927791, -0.7714400907462085, 0.6520566065545437, -0.2415753480063001, 0.960615791815163, 0.8210000364209133, -0.7674099547135649, -0.026422259283136906, -0.21368167304344254, -0.5251117926175988, 0.24364053090773585, -0.18411185687161402, -0.8145966255794839, 0.03136773342081334, 0.3381806289568574, 0.6544644359513763, -0.4400039294603504, 0.49312793887747075, -0.28835604573765594, 0.19567000272705481, -0.15646276839695705, -0.7424894696849857, 0.911720167242317, 0.876769658467494, 0.8120578986084224, 0.18642656597849094, -0.27846138932840026, -0.41023316390509357, 0.6792362567573813, -0.925590155570365, 0.01026269058754603], "b": -0.4782005486071952}, {"weights": [0.16353359510743148, 0.027516495746991332, -0.7124997135567761, -0.20823751402559854, 0.38035078176001136, -0.7298550100921299, 0.34460016394423687, -0.5943009298578217, -0.20556783414867486, -0.11585435294097612, 0.3969655232137135, -0.8115949273502483, -0.223290192358909, -0.34861093294038703, 0.3703197869408015, 0.46481922752717586, 0.0750085659940154, 0.11117193735308262, -0.5890839681558357, -0.023568094322797162, -0.6158502643035382, 0.9831885087295298, -0.1651023193977541, 0.5259000759632391, -0.4808960689491619, -0.5533549633110459, 0.22413152468261432, -0.25389688804418875, -0.43340520753351974, -0.8441660210526643, -0.6670908271001197, -0.762408914009737, -0.9072808392300729, 0.548479677372874, -0.27378643747647446, -0.9704859476731342, 0.011312088038744283, -0.5751841686107164, 0.2641596369813992, -0.10355341646882144, 0.9486666326404174, -0.5746113590973856], "b": 0.5650356836684098}, {"weights": [0.8002499092542643, 0.7169020453322861, -0.678248078803039, 0.07851338730689217, -0.8871041048708885, 0.05954362386415979, 0.8833676707509106, -0.19052649774845243, 0.4421647522658967, -0.8091150008245973, 0.04980061433373972, 0.0040924381537110754, -0.11954157945706667, 0.980325681307507, -0.6440068724317873, 0.6082008308436477, 0.4854470815476346, -0.8644030005343126, -0.5194434017723728, -0.8170362404288889, -0.38056501876973914, -0.8184023136707146, 0.8244605283397262, 0.9166561726735931, 0.25822891917003776, 0.10205017603654531, 0.9346889259959474, -0.18748211113647328, 0.04466253874261916, -0.8669422291873341, 0.5999206702187956, 0.4107687947705656, 0.42061159229536993, 0.3316801345938769, -0.6923087342973735, -0.31241151631585473, -0.20063105944494142, 0.6854059494258986, 0.9805615974479567, 0.8288112624143587, -0.9984724993187688, -0.010806330036433387], "b": -0.31086958362666883}, {"weights": [-0.6064850617893629, -0.3020646970553502, 0.17495206250110984, 0.32039821413295844, 0.7087768121010722, 0.8506039434791237, 0.571873187053878, 0.006045894629022497, 0.13547753963687503, 0.983121446585421, 0.31264209821806155, 0.8200113177589268, -0.12907484766988309, -0.36291503948439896, -0.30166199657805737, -0.7056311700334814, 0.5712256227682213, -0.5600564032478925, -0.13417460686089222, -0.5610122634120538, 0.6442991859536404, 0.6473695385441527, 0.3912315149986276, 0.18668367834837185, 0.738402193052565, 0.4716144562762492, -0.8769436151415178, -0.37392059750200257, -0.10593576208543798, 0.6625121084555325, -0.11162115353479884, 0.4191199169937936, -0.20689426473431238, 0.49450314230599535, 0.8957341156861898, -0.5435195341538837, 0.7156373701637586, 0.899296231608945, 0.35209762668434763, 0.5108960221800989, 0.15244144102764445, 0.7850306505058557], "b": -0.20411480639414425}, {"weights": [-0.5171725625999228, 0.41963540177944303, -0.9700983996223149, -0.3989296509691085, 0.375544801130981, 0.6570221401698795, -0.5967717219605699, -0.9266361800985972, 0.7016634227514191, -0.12760305190853272, 0.660221358461138, -0.43734251057854934, -0.44997662928187143, -0.7337497918022424, 0.11946318845206871, 0.4044404491948883, -0.5935250665799643, -0.6119933262816482, 0.23391146374821714, 0.791894045375954, -0.497560052828246, -0.7077894352699623, 0.1402942594229517, 0.5827774387818334, 0.7893284745691784, 0.8876680697819046, 0.6218583429056512, -0.3717159014679565, 0.9916414789616701, -0.7654597811644819, -0.19634053743976043, -0.7304430976925171, -0.335797123606981, 0.8398060153263445, -0.2333787553120097, -0.35876260816078065, -0.7369512789718313, -0.013369952350618552, -0.5997429294749135, -0.5285217203786037, 0.6275744537962598, -0.11650733212405906], "b": 0.34624457172057066}, {"weights": [0.8324233585872509, 0.4854038717236788, -0.7898581562689833, 0.7370247425797984, 0.8870247510916514, 0.44560545975933685, -0.3076723539099959, -0.08997788185731004, 0.07243001775610125, -0.9390227411419338, -0.13350022352059754, 0.1386704876158531, -0.023991240721106477, 0.8831753667339719, -0.6253466596369577, 0.06310587806950374, 0.7443377342215127, 0.2551630959188653, 0.10851677115371827, 0.3162692778556868, -0.5714650701174806, -0.7052748217872238, 0.42052235081482703, 0.8419421124175301, 0.30703931039050425, 0.5028419123880774, 0.13260164800107344, -0.15356046578433524, 0.2482042865540668, -0.9048850540340285, 0.08839523652846193, 0.8427852225101491, 0.7917594225272104, -0.040714243315990606, -0.7241782348061574, 0.34778258373063475, 0.9909888062229872, 0.49326350972081645, -0.8186835254528448, 0.7164469832775999, 0.18753298620345737, -0.8704880772065908], "b": -0.1409643238584981}, {"weights": [0.1816703211345041, 0.8583788464863116, 0.0574239736023241, 0.17457785961482242, 0.14686937066954187, -0.08813788197873063, 0.7872567997308262, 0.36348850100256724, -0.17131384789970738, 0.6760232052124819, -0.9026000722811578, 0.3354316179959911, 0.08090519555613485, -0.36008692433409517, 0.06147528433067073, -0.11262905775263587, 0.3216622309347239, -0.5851207182497355, 0.7106834592480631, 0.00584755573688267, 0.46761380637561656, -0.10041299436003892, -0.5927087417630015, -0.1887207178066408, 0.5526605998648089, -0.6186896412740106, 0.37279117051577537, 0.584843890612649, -0.8263550999168805, -0.0900751470357406, 0.4261247094976288, -0.7677540426069427, 0.1542295737877879, -0.47533205143567137, -0.8319803083444388, -0.7792347781895261, -0.1652538665338601, 0.8481917053224177, 0.7097787131761184, 0.35147246174107005, -0.45545061646371, -0.8751772180037818], "b": 0.10883179469457516}, {"weights": [-0.14211098333610783, 0.8799044261504103, -0.20520183995827734, -0.22962265995096787, 0.1886930460258316, 0.37367701933775743, 0.38964749457332837, -0.34684504390661774, 0.5111334972173787, -0.8804629375065027, 0.7129360270408933, 0.09819403100116353, -0.6533494217842175, 0.8355677565317536, -0.8377950155965932, -0.6540873838281702, 0.6952807205426972, -0.46343449529515257, 0.453965291465682, 0.04794653217066425, 0.29067501924574657, 0.18341653697088756, 0.6816188353039154, -0.9330984020938695, 0.1490219228048757, -0.8468725374192783, -0.20875761565219642, -0.17989116978569797, 0.46807301672969737, 0.17646102696938692, -0.4541939402707522, -0.7322819094758262, 0.8680069760938791, -0.4327977258273932, 0.38309986559002573, -0.2794841371061101, 0.8454233405464444, 0.3857790621868056, -0.4052874475544237, -0.4252425617006701, -0.9759124154793388, 0.06184139195321148], "b": 0.7856921800610319}, {"weights": [0.04742692997839093, 0.4841964776819301, 0.8328168682119561, 0.08881352817793498, -0.2846320849727999, -0.08474024455998319, -0.09206127618710624, -0.69560992856798, -0.06812607382847591, 0.7566525327926361, 0.5350464200982055, 0.15132898200170342, -0.8834362184114748, 0.66996521916178, -0.8088306743221425, -0.13747111550661306, 0.09746209178671239, -0.4454461484610972, 0.7297347281261319, -0.7530870519127388, 0.6365952526767815, 0.6127178216763005, -0.9997093619183797, -0.20540839812036737, 0.39292076702201206, 0.678916014207454, 0.3253942898478843, -0.6406310206995407, 0.8187175388804975, 0.9572055383971991, 0.707209525820661, -0.13465955139789698, -0.28300728227833716, 0.622847877231097, 0.4363187810477891, 0.43304839793683114, -0.8701411398415526, 0.07819966439162185, -0.10732772292541126, -0.8951097257177076, -0.932587797373144, 0.048580691628888006], "b": 0.4450254269448912}, {"weights": [0.448619415311287, -0.9336956135250503, -0.41714696348337355, -0.9707468530952972, -0.2154978102013847, 0.5809086247911375, -0.4167875807566981, -0.2884399886588107, -0.5971115248968757, -0.1453951383115224, -0.4360850404536134, -0.011348530775492804, 0.9201969663289322, -0.2909980954625493, 0.6730202423673051, -0.5971419866216807, -0.7149172348047761, -0.8545116615696438, -0.59184424150752, -0.7558967739598386, -0.9325528019226652, -0.17041195036064227, -0.9106894491213644, 0.05578172500151202, 0.28581334015093773, -0.2537237825514518, -0.0029370716194296875, -0.6366142213150612, 0.07684546724399821, 0.16880230991220002, -0.949977673509601, 0.99318669625034, -0.5623290726139938, 0.6329149126599165, 0.004412999908511406, -0.32869160002620235, 0.502917460753951, 0.9618877981818554, -0.3060723801025158, 0.3608253337039471, 0.1417746905217525, -0.27032558489810943], "b": -0.6202081780528386}, {"weights": [-0.12293572047038293, 0.9890847251513613, -0.6430365705063628, 0.11574597608348203, -0.5387909431909899, 0.9062569486038283, 0.6372164037241994, -0.6239533532066779, -0.031341757525937375, 0.4173806013650103, 0.3972402945378428, -0.07481214112458234, 0.8232115390776591, -0.6472952136306105, 0.5976285762744071, 0.7685012934004956, 0.9485118503145886, -0.4983420107687011, 0.016826137814034414, -0.6347201282075636, -0.32387573978772877, -0.5618072733371571, -0.9358326606792111, 0.875546547602845, -0.05751543078224275, 0.9220279126721038, -0.23439012267949333, -0.3714677579873782, -0.09781308857229787, -0.4143794233862237, 0.2637587206732559, 0.18995714308581668, 0.14765428975018535, -0.14539950047439354, -0.32357155143014826, 0.08963829793382327, -0.01113155327673332, -0.3296765993721027, 0.05810799197369998, 0.7462340390847388, 0.6229097801533157, -0.8881677200458284], "b": 0.8821747331063676}, {"weights": [0.14389419861539454, -0.6845112361118211, 0.7231040161515296, -0.41477442825303856, -0.07781202329269821, 0.004574147759711877, -0.5521384961929872, -0.6001041995281831, -0.8043085050418095, -0.739767197358965, 0.09894222923351736, -0.5556293548181344, -0.8774567308554249, 0.9251767537013311, -0.6174867659028165, -0.07222297578049508, 0.9208495730844162, -0.7489257936407447, -0.4467835664865645, 0.8567165092899951, -0.9073357752005666, 0.626680150372614, -0.7958742895068314, 0.4997667592801496, -0.019784105286938747, -0.4021787328621127, 0.4327208804057998, -0.7959072681522057, 0.1141185374190572, 0.5996747397871027, -0.4799777669068084, 0.437303095719056, 0.3175075178169482, -0.2802929539694161, 0.07975274514570296, -0.31073132762007427, -0.2840965202928938, -0.05313222740507251, -0.5303683372383381, -0.015882014003575362, -0.7535273008923422, -0.30059663045507645], "b": -0.06824830193308462}, {"weights": [0.3860335363902718, 0.8064665292110358, -0.5852981183952095, -0.47577609380913977, -0.9544353278790196, -0.06625641705830465, 0.35780658119537745, 0.9718247041646388, 0.29084904558138613, -0.5967789742581253, 0.6861199349252589, -0.5553218518232823, 0.2272379722459188, 0.03734915020296525, 0.7025796079315065, -0.2307548698788151, 0.859436679997122, -0.39981361871897825, -0.1743709359023502, 0.24084201882280087, 0.8668046343064706, 0.5335132054872107, -0.42064462409146297, -0.29594457080205205, 0.7749842122053572, 0.8454052181773728, -0.7362227856581314, 0.24155472226686747, 0.06805108815774852, 0.354820251132657, 0.4852807491199371, -0.7587741801635253, -0.2439132079414652, -0.21401945155659075, -0.924252728950814, -0.8625455543114924, -0.10517058895321041, -0.3770166049225383, -0.3767642504875175, 0.8329728061718003, -0.4121807248943743, 0.7655661441603743], "b": 0.9475249738150644}, {"weights": [-0.46494110871139527, -0.9258761364546066, -0.6289457821789557, 0.11973823788130922, 0.6117029513102183, 0.2546606184108642, 0.527825983859392, -0.3288315365070318, -0.47377982336127267, -0.5116977889302907, -0.9701163424444985, 0.41572699026433946, -0.04948693184335973, 0.36074619797292473, 0.9658918220232333, 0.6516563684132717, 0.9443746894611142, 0.659321338043966, -0.6334400622030429, 0.033633160801775475, -0.21236710680322557, -0.05321863453345177, 0.6984998614404938, 0.10684421111305453, -0.8728044508968562, -0.6299915916353886, -0.9632965305072165, -0.40357336738806393, 0.525561398039557, -0.41577732610819806, 0.427935456943747, 0.41584960037757157, -0.2071873816083707, 0.0758506993364132, -0.369217769085741, 0.3333350396914152, 0.23256431685828227, 0.6061689802971055, -0.715603895260859, 0.864215139689392, -0.5777353960696348, 0.8873462292537289], "b": -0.18452600661158125}, {"weights": [-0.43840015096815743, 0.9069799133353422, 0.9426028519981942, -0.8825456197601762, 0.7989214229360808, -0.8737980445943332, -0.2774003989239089, -0.7542229732753842, -0.7252777286936942, -0.469530241815298, -0.3220225196195592, 0.3863495036779594, -0.5117227965724551, 0.9152715886683995, -0.24291239350377491, 0.12972416302960998, 0.03877303376313579, 0.04994147937286786, -0.006854545310299942, -0.3706923965138733, -0.10660433471797903, -0.0012554782142712995, -0.8255044131479832, 0.9600357364169274, 0.42080024018455053, 0.9027276819433028, 0.12167252546728102, -0.4629656589948523, -0.8270634708975906, -0.22031333874791903, -0.9048668443560373, 0.02389678410536078, 0.7782063948535418, -0.29081836399197636, 0.9513954461307612, 0.9316043028312071, -0.6969920597215691, 0.5512438149598844, 0.6022058827671277, -0.43286413775502464, 0.8400381972357136, 0.018662256000068655], "b": -0.2553074842652532}, {"weights": [0.0906805692892032, -0.07348587961057707, 0.6505254070982338, 0.42497989606812947, -0.6546181479472215, -0.14015612085122586, -0.35273933463743745, -0.283255890422063, -0.5931009313357531, 0.630575921415568, 0.9761766142915611, -0.21242433835206853, 0.9296556550974009, -0.4639102086939426, -0.3728240972774266, 0.32992715277849816, -0.721736899426906, -0.8315869250981016, -0.5665741406789564, 0.697807039272065, 0.6138717100885578, 0.19493990391151272, 0.1599343479943145, -0.6434128862437478, -0.9534431169071225, -0.6059808662964778, 0.5464056897939642, 0.5633612889870825, -0.1210155284471961, -0.8492222101622573, 0.7084007424138177, -0.3100111102777561, -0.21948700600599103, 0.2553746250406099, -0.4163637828757285, 0.7719588841387308, -0.07885610221259243, -0.7243236426579587, -0.6166002358555644, 0.6427200053861819, 0.3503216527457027, -0.16502736574030652], "b": 0.053431109225706486}, {"weights": [0.8714575230550761, 0.3910114673435592, -0.2385443332330759, -0.8239973128788785, -0.40369450438354404, -0.18013131949824457, -0.841525916688153, 0.12684209690661996, -0.07706414889012003, -0.05183614184112262, 0.8560863484764685, 0.5010425428564405, -0.6830098871936059, 0.9672177331145018, 0.0891876242601648, -0.526552576178293, 0.5859834057290341, 0.2096036988544978, 0.3235019976659925, -0.7876167849787403, 0.1473711114811127, -0.9216876771376963, 0.8701219910073008, -0.241884945227532, 0.37859209655757686, -0.6031774112690584, -0.2652234505732243, 0.5582615751443658, -0.12260529387924479, 0.7603755381360413, 0.10697177746657571, -0.5938891615960546, -0.9429579305566951, 0.02051383043926802, -0.9402683880278264, 0.7472021465543128, -0.8719071140115118, 0.9084561272953, -0.18819189907640954, 0.6823855720820207, -0.9115523645132309, -0.33626643372582987], "b": -0.170609529588869}, {"weights": [0.3969334945694889, -0.5905506263681817, 0.8834789270470431, -0.7571706549780828, 0.14796161488973225, -0.3621950093078201, 0.47032572005053397, -0.5698950540299015, -0.5770761879394695, 0.8747051510999815, -0.429757887694006, 0.3565919076281632, 0.22387293719086743, 0.28795596849539074, -0.773777476438773, 0.9944507600772092, -0.3581531526610182, -0.3389846187988048, -0.15586391644434916, 0.7950631845735305, 0.7005562780668773, -0.04047899801576116, 0.23278713460317757, 0.44050421428165554, 0.35156566337009965, -0.7599811019344294, 0.670223077547804, -0.5930171567089184, -0.24414866410167035, -0.2853953236986493, 0.06889008070611746, 0.7436474839217904, 0.6413237409206436, -0.3291370964137956, 0.6984711325236224, 0.6978247962987012, -0.15275633856509607, 0.5915322585814169, -0.002679982022312233, 0.24503469448481963, 0.9218229171083181, -0.13837906353869078], "b": -0.9044250105337979}, {"weights": [-0.11867484113017768, -0.7864845191688905, 0.6992970970616614, -0.7445334739677765, 0.12111535545964669, -0.8659868077086683, -0.7516526680816027, -0.1029235123093104, -0.47286595767837225, 0.7045423676630138, 0.182749804587782, -0.950846304687341, -0.4606322868672903, -0.4099709798993669, 0.35712591424996143, -0.46295521945159646, -0.6351010234759904, -0.43955695531905636, -0.6319224244678148, 0.7219344176574136, -0.8227905347527771, 0.6969001668748331, -0.9201706650550086, 0.7938508104769839, 0.8616914395708921, -0.865104892505494, 0.10691258048853092, 0.6036867210660062, 0.939855562279369, 0.8452645608862037, 0.32185050444856844, 0.9160174068130753, 0.6985636396579609, 0.19589397052863888, 0.06533697618831913, 0.8952857867654787, 0.6888700148117237, 0.538896303549643, 0.7597922523351182, -0.14755646574887593, 0.6946834377306215, 0.45536937887827267], "b": -0.010530797440682305}, {"weights": [0.6500335058814488, -0.22473444812266652, 0.7044405757570533, 0.11289577421928332, -0.5784218510072443, 0.7109542238184712, 0.33218310281168795, -0.021535153104713878, 0.1295114528334831, -0.30340117031167657, 0.19473064827729947, 0.8780120851431146, -0.9245929097780554, -0.0419072981078199, -0.4695765518234971, -0.9693664655786918, 0.3225930630188749, -0.5415071226200818, -0.8048712335151971, 0.017467823559315532, 0.7431745542423631, -0.5143700560392572, -0.8044354015205375, 0.08446701122813804, 0.9260881936125436, 0.8704866380253282, 0.7297719538824992, -0.5123706056573223, -0.4585153061456857, 0.700146461306582, 0.24016625331321495, -0.30174497694784863, -0.3644041072250377, 0.08214926353505492, 0.9780919145673574, 0.7715917113575887, -0.7172220824921365, 0.03643811487195214, -0.8052743227786765, 0.3569199698568488, -0.6308233024641272, -0.8402455444244685], "b": 0.11682325519333325}, {"weights": [-0.5136156109020322, -0.9521382732470636, -0.5246212330776363, 0.5417636407369277, 0.5192415073083974, 0.9333139553928271, -0.9627607103835369, -0.8964915105809985, 0.6592097284267671, 0.6505673582116038, -0.621301483054721, 0.5008791469319025, 0.910832541050625, 0.046355863858659196, 0.0694751978007977, -0.28768055053327535, 0.540254430633297, -0.2109407887548247, 0.9776167325787379, 0.838747363419758, 0.8580423504749688, 0.9866033856909373, 0.5862965271663665, -0.34461484706284207, 0.28314392196923266, 0.7022405584947162, -0.3015750478471628, -0.43753663993051806, 0.7214860506730858, 0.11260623403323122, -0.027967678400833806, 0.9271475705836667, 0.11637355011630812, 0.038254108227702366, 0.3857202268550519, 0.12327629781594229, 0.22621774161889396, 0.5192895246719778, 0.15144279515114634, 0.6321640523735716, -0.03942438421520689, -0.42770965768409885], "b": -0.8919011189164421}, {"weights": [-0.1746740371879698, -0.13139470159995548, 0.5454141231385754, 0.2919865630137217, 0.7472438171938627, -0.8316092354781572, -0.5322663229610234, -0.7153488713467775, -0.7792251278280931, -0.43581460992484367, 0.36357852600541785, -0.7229557580651433, -0.08333756756309385, 0.4850815161654034, 0.047346660520001915, -0.9711474073183932, 0.2192998466000442, -0.03768284431748392, 0.18999136852782295, 0.2925116437231037, 0.3445877716010617, 0.8112724983867532, -0.0349751119962014, -0.5882530041703187, 0.44434270366108386, 0.2841743014813749, -0.8995724658439694, 0.25259918300314577, -0.9690848140454793, 0.4606821776550287, -0.6483970376534292, -0.7377162423600363, -0.06836689999992696, -0.9468161263618526, -0.6073470296113561, -0.9347190362965527, 0.30893280256365396, 0.2579677691761908, 0.3195893354321466, 0.24761915054048034, -0.4667824307397841, -0.05194351362536476], "b": 0.3318801633592978}, {"weights": [-0.14421140465619264, 0.8039335411638604, -0.40457623178561253, -0.42588995447241706, 0.2959524095387267, 0.0327977664809731, -0.6346479679688664, 0.06999039438907251, 0.8468205774777113, 0.06475264432515093, 0.2475889566494789, -0.6765917794872272, 0.15196007688051405, 0.3848197069797272, -0.7411542485740714, -0.8596876477620239, 0.7995918264864919, 0.4014922379379493, 0.5557914630963261, 0.22159112678350712, -0.23862763766800832, 0.14590664551873567, -0.39334267081653373, 0.2241711497652119, -0.24622351521322083, -0.05072417221296899, 0.5417598379144768, 0.610968910782137, 0.916928632278222, -0.7686917300753375, -0.3398030522534654, 0.047316155774463686, -0.8983816745726345, -0.6251469511750587, -0.800390658918064, 0.30649353945941327, 0.6253815204753757, -0.5482008636521172, 0.5334535281391413, -0.483766853892619, 0.24236716601574826, 0.16707431939100492], "b": -0.1987633554120387}], "output_neurons": [{"weights": [0.38062713557844274, -0.4762086343748142, 0.7321609588733862, -0.7682169742772109, -0.0232996832090151, 0.4244826276584752, -0.9776219892399516, -0.5996072113855575, -0.3602294879246979, 0.8523056573695131, 0.9593410462157068, -0.22063246298826278, 0.13232952290666278, -0.39540461714330233, 0.2577464542800032, 0.6366384836375594, -0.6664193974412209, -0.5353608762485402, 0.862428470823922, -0.9788507458697133, -0.2438725366185137, 0.23044571601751085, 0.17299380218137084, -0.30793487970189193, -0.24120693656067194, 0.620690799688512, 0.40638065891646447, -0.7938759538389886, 0.56902068502524, -0.6663902332200387, 0.8176174262958606, -0.17470827222559593, -0.5555703301214017, -0.6233535281855023, -0.9269290458563397], "b": 0.3292033619811101}, {"weights": [0.6132381508805487, -0.6223568455061259, -0.4886018097404279, 0.46052840683070495, 0.159836735915581, 0.956549989157345, 0.9379839946058754, 0.39179960241762446, 0.46500311094027436, 0.7249517490464175, -0.9199315635885479, -0.6064228033799837, -0.3495065520862015, -0.6181873111438618, 0.05205857050052787, 0.9656825922415759, 0.14478442188075102, -0.9382611398059295, 0.4923129169681275, -0.9425960013700574, -0.15800086458043072, 0.2074180995223378, -0.4808145651334861, -0.9886338533036616, -0.5158685083771342, 0.42656757756371655, 0.15668035067013597, 0.5617400345589354, -0.44972981944500634, 0.60116242492837, -0.40488785825345586, 0.5126945575336033, -0.8404559397235807, 0.6294740681908884, -0.32378183617040235], "b": -0.8038293432940693}, {"weights": [0.7667983609562092, -0.698355841612988, 0.4500443649243535, 0.3019251057957941, -0.4298201886908046, 0.7196424652272477, 0.04294004650144778, -0.15323069965429825, -0.3199001859608892, -0.618536208147479, 0.3788771489786795, 0.39937566900399224, -0.885786459554319, -0.6482448266226688, 0.2470749969630579, 0.10214940633431646, 0.04696663824989167, 0.08992010132470929, 0.7586965599971414, -0.23269035240984848, -0.12420635972596661, 0.5571297613650135, 0.7541848160792521, 0.8983816568784497, 0.43750693529143736, -0.918479455240822, 0.09085071482586327, 0.16138146551203403, -0.8874514693741049, -0.048600142030156945, 0.28507504924944294, -0.6255913478293695, -0.4076180703178651, 0.44092676775300443, -0.9156782008054076], "b": 0.5973543146519229}, {"weights": [0.997763742069161, -0.524365245947116, 0.5419651706934483, -0.8303741136751246, -0.5485530526561393, 0.5283761328010337, -0.014373009504770717, -0.06955040597012707, -0.8820205978492486, -0.09250771821131853, -0.13738295299674674, -0.9897188041222598, 0.17493619402078564, -0.2733615571307857, -0.5323110609231239, 0.657677196086156, 0.5089824008085915, -0.2113218622492128, 0.2073826151520295, -0.4476993186584808, -0.6396086294382193, -0.7065858072431084, -0.8494360006618191, -0.27511534755219036, 0.6976257254687745, 0.6318840982538796, 0.7194622536012911, 0.10008564643492379, -0.3501480173216942, -0.14368511476676105, 0.545521125690906, -0.09664727880142188, -0.5692980357199973, -0.34773709998614755, 0.19163982747644281], "b": 0.017311157696595192}, {"weights": [0.49305631434042474, 0.8820662223794986, 0.9139269115199622, 0.01969361723208385, 0.6396493847767768, -0.7797787953785915, -0.2694525310360616, -0.4122364745713003, -0.8364986400422461, -0.06478065352055262, -0.8746697300819046, -0.8623513595967625, 0.5402820446176628, 0.8281323899079414, -0.940176476475477, -0.41109063442745697, 0.6870649272238867, 0.34499933743593614, -0.14527293701465016, -0.5746428577457208, -0.606685019371002, 0.6712814509718381, -0.6436487034683149, 0.01403268661624213, 0.9423515840785166, 0.3120535477430664, 0.558127321216491, 0.3420147359966199, -0.8400029721466966, 0.4876235225264849, -0.34700426837707976, -0.822548840090318, 0.509469854875712, -0.6900430306132552, 0.3110173389222852], "b": 0.42800007115045235}, {"weights": [0.7769278938318591, -0.888834036076489, -0.25865383834582034, 0.7778717670684361, -0.701256309143006, -0.9969496605279533, -0.5736880242349205, -0.3678960492775527, 0.17408287939285105, 0.6567033039084782, -0.32745621109780765, 0.1356327918713447, 0.051134831773163025, -0.19547194557910186, -0.20114472563022856, 0.04337957119843483, -0.05841272936343178, 0.403666705114329, 0.36172846689524984, 0.4516016500809805, 0.7365914226257928, -0.925998543408671, 0.10078615653406597, -0.6301354924304201, 0.23133563570619042, -0.9847056087809065, -0.16835546769766085, 0.44268486231393167, 0.6066519430165915, 0.41453548209569435, 0.4836535100090593, -0.7012998155587169, -0.059124233106014, 0.1454675395253413, -0.9079433900995859], "b": -0.26298155547739754}, {"weights": [-0.8340901999939403, 0.37528935098439464, 0.8347850033080684, -0.5456037047681219, 0.731405543337107, -0.1664690548686918, -0.9976225122387175, 0.9330585260192641, 0.7531601936687569, 0.19141675268372826, -0.4200686323842837, 0.4532893329960086, 0.15211841312147123, 0.38705498299170116, 0.2112758834162456, -0.7785565736817897, -0.3169714722690158, -0.7341335083918543, 0.13049469827362548, 0.03684917354120398, -0.038481156471006805, 0.8582420209068011, -0.860829414530291, -0.5977265672493688, -0.903491398141099, 0.176409441521163, -0.40790894831828384, -0.49675848977609016, -0.12213007821346178, 0.19729939786488493, -0.4303138597043068, 0.993244006548154, -0.37427888036470347, -0.6954671364277663, 0.9342998816811912], "b": 0.3530803545607166}]}