{"input_neurons": [{"weights": [0.8769509337981052], "b": 0.2007338139219832}, {"weights": [0.880402407393371], "b": -0.309476353898545}, {"weights": [-0.6743119026845399], "b": -0.8816514064328513}, {"weights": [0.4057465947162979], "b": -0.23744003306554218}, {"weights": [-0.6074583202707415], "b": -0.9166211664936241}, {"weights": [0.12256150605870308], "b": -0.968105175264691}, {"weights": [-0.2372089429068185], "b": -0.4537491200529067}, {"weights": [-0.5304782116680065], "b": 0.09883810374244462}, {"weights": [-0.057910308817817446], "b": 0.9758635248473546}, {"weights": [-0.6533071050250059], "b": -0.6535913007546239}, {"weights": [-0.3610260876046252], "b": -0.17156858108454487}, {"weights": [-0.7249424799717732], "b": -0.27934450559953583}, {"weights": [0.2890330882496317], "b": -0.08931402950248168}, {"weights": [0.46622384613015244], "b": 0.6648357074882589}, {"weights": [0.11674861799251945], "b": -0.6651399630819517}, {"weights": [0.11934316782629706], "b": 0.025885275015766762}, {"weights": [0.6150590169170163], "b": 0.9085785745080943}, {"weights": [-0.2843915174408447], "b": 0.5201861326426229}, {"weights": [-0.6570261983013304], "b": 0.4026657244683889}, {"weights": [0.9000764182192154], "b": -0.713839023991738}, {"weights": [0.6981463888021029], "b": -0.0555129676580719}, {"weights": [-0.05418387193596996], "b": 0.4704692305649678}, {"weights": [-0.9667589484041987], "b": 0.7128998108451778}, {"weights": [0.28323828734968637], "b": -0.6358299569797548}, {"weights": [-0.7416274487253598], "b": -0.06862695345819292}, {"weights": [-0.8682803816170461], "b": -0.6948608187060723}, {"weights": [-0.6661019138151916], "b": 0.1518253598382575}, {"weights": [0.31631397740960376], "b": -0.2224822524768797}, {"weights": [-0.7949496389356199], "b": -0.6454223178612308}, {"weights": [-0.7963531045950494], "b": 0.23961346319476728}, {"weights": [0.9346561873619408], "b": 0.7312464488461594}, {"weights": [0.31433472838114596], "b": -0.43255712330710683}, {"weights": [-0.9220554886601087], "b": -0.2358472285833706}, {"weights": [-0.9152897731250431], "b": -0.8030585632127549}, {"weights": [-0.2665615870702094], "b": -0.773123078426526}, {"weights": [0.08500216803529415], "b": -0.40225056111478064}, {"weights": [-0.9619240651865779], "b": -0.5841200923559464}, {"weights": [0.688366259962536], "b": -0.4808754582366659}, {"weights": [-0.7380234770396363], "b": -0.5695243182627319}, {"weights": [-0.8831190469366041], "b": -0.5557623026173619}, {"weights": [-0.9741575885993463], "b": -0.3615828825212215}, {"weights": [-0.2532506267841499], "b": -0.1807657018444384}], "hidden_neurons": [{"weights": [-0.33458831539667333, -0.8324996760851711, 0.34725224039273583, 0.08758247595133395, -0.2990387226232918, 0.3503262879382423, -0.7665626190595702, 0.9543435016762767, -0.1144139993553055, 0.26494082584693235, -0.022740634400580717, 0.7636678827946055, -0.30373206534396413, 0.6061147972658951, 0.480779449307555, -0.99208200956891, 0.5269619427546124, -0.5302364221573657, 0.9189128266198734, 0.9059853139634326, 0.5864633796118011, -0.28729074446744685, 0.9217014685351115, 0.06284385260267222, 0.5800729328402803, -0.6224281504996498, -0.009429562840049366, -0.5296435125647163, -0.3975206830356983, -0.03811012188698992, 0.9105130655742386, -0.09691389374307158, -0.06619687463202495, 0.7351314774904765, 0.6040279915453703, 0.18111529917532465, 0.305637232703857, -0.4545446170724081, 0.3611619673207156, -0.9565386556804032, -0.11901860279776, 0.603744033214197], "b": -0.44714646075711784}, {"weights": [0.6151279610637261, -0.17275443429764503, -0.35794592743722875, -0.656847223599835, -0.30634505960162217, -0.13792345794361194, 0.9645324841279832, -0.5617572751853701, 0.9764343356882974, 0.3652772568042757, -0.39293137267981115, 0.5398102425474074, 0.8430011369539636, 0.05690960787450461, 0.26883467320531484, -0.46944271984336083, 0.3590397813879467, -0.29781827477996714, 0.17040442488765684, 0.4446834390272134, -0.2560859677667575, 0.33338353717178104, -0.5195135057422062, -0.7771324822635186, -0.014528885836005312, 0.6494386943462993, -0.7004615041254192, 0.6225343427557053, 0.2405983616930072, -0.15858450400050406, -0.7463317345825367, 0.06371131356600768, 0.16034646835362176, 0.7694321061067033, 0.7532142254593777, 0.8925405415154131, -0.1258779850286611, -0.278994362751662, 0.09732198239709322, 0.13334695403137564, 0.09041830029120934, -0.30679148422970637], "b": -0.15239581384515266}, {"weights": [0.9213239822810324, 0.037592148028182226, 0.05274726728490453, 0.07493013309800167, -0.07538579115732968, -0.16330495179797544, -0.42289238873035506, -0.6879069219886405, 0.5174416872775525, 0.9560182821005072, 0.14455032874923335, 0.4806976082438117, 0.6494300353807674, 0.5154167877773217, -0.4263265032681962, 0.4805737585318375, 0.7262607809091077, -0.20879104128780246, -0.37343930086966104, -0.055959647305224625, 0.5048351204719708, -0.0030413101231461237, 0.44855913323511487, 0.22227078933848765, 0.4277800440355517, 0.8587871577855035, 0.665418182452229, -0.8346794194792573, -0.7916601195666995, 0.4338574361715357, 0.6520108348969678, 0.03013152251879836, -0.4330185099799968, -1.829615636950166e-05, -0.2793926799361006, -0.8772408914800391, -0.4812927438803931, -0.44173740102067494, -0.7797802374508074, -0.7784764008748879, -0.3689948208376108, -0.9659676526179413], "b": -0.23160574812825785}, {"weights": [-0.327270438803553, -0.2906091419730843, -0.3799661800804395, 0.8058909659643831, -0.6283055645797213, -0.5286090586905416, -0.7778851354232952, 0.2679261090513452, -0.01763191342372039, 0.9842947632786674, -0.4639644554665645, -0.9786977828128014, -0.8153562022997214, -0.4728282727518851, 0.3190256931792226, 0.9160029432925445, 0.53279712995035, -0.5609102805396249, 0.5577681776604047, -0.15901075207157556, -0.989031217287901, 0.8221073615393308, -0.2401084283019259, -0.1917373720062363, 0.02857257761845, -0.022750801343827565, -0.054087057639540026, -0.7583704898241814, 0.3556937666482809, -0.22761512733466605, 0.15287889193117565, -0.873170645611141, -0.5632666750762587, -0.9187545460908104, -0.7905790705688212, -0.4722023472495067, 0.8586577873378771, 0.8054811553448824, 0.39795565783384146, -0.3047345059332771, 0.7552338673106487, -0.8927844634628659], "b": 0.5357958854661162}, {"weights": [-0.47305442848585244, 0.8687673288995004, 0.9727082919695496, 0.31487059936813644, 0.7364982296239906, -0.8092305909190598, -0.2881130429717478, 0.24119648821986361, 0.9173995899901624, 0.18259163863669503, 0.2799299908206965, 0.4442000436648694, 0.6797404117261447, 0.31174282148088683, -0.7024089686053261, 0.028050048571982344, 0.498944187723648, -0.42230854363215187, -0.4508349829029492, -0.7478597732032155, -0.6829361763491062, 0.9494034341348474, -0.7881421562025948, 0.8891585566269511, 0.42424085367733144, -0.7909481461104018, 0.8481545758178419, -0.08175360375962004, 0.19570364908253013, -0.9895369397350966, 0.27874216709192323, 0.8767113590096032, -0.501389385078644, -0.5921710072415429, 0.5081556982537621, 0.14578248235697844, -0.5283771297369451, 0.9095475893890312, 0.013029302360410222, -0.29042247745509253, -0.1707362894892308, 0.14020367905442055], "b": 0.8342662946819908}, {"weights": [0.31683754687035637, -0.8815835333553674, -0.23383873191692084, -0.8989084426090326, -0.551858253623003, -0.36484680641972256, 0.9036054582875712, -0.26029025041627696, -0.17540251435080823, 0.5444609651191266, -0.09831729046765458, 0.8911822283339963, -0.4120512630523374, -0.2673895422268797, -0.5497168129219094, -0.09415920972034986, 0.36872982941773924, 0.6512579563539049, -0.6023138099073841, -0.6547953611996304, 0.07487891366887744, -0.782304414527297, 0.1392540807751681, -0.15211895883884896, 0.39463906858011777, -0.5456377982258531, -0.5658751043593999, 0.2759191539980208, 0.6009002483645216, 0.8797743040711314, 0.6623048994945675, 0.6962412361026622, 0.8181312358333965, -0.7760961786674512, -0.06793557874627809, 0.07816920680336814, -0.6559467423564107, 0.8651626794932117, -0.29996447558102934, -0.827974093421775, 0.434683982211145, 0.6280511908103572], "b": 0.30948210034475054}, {"weights": [0.2239127677003936, 0.22064636844890906, -0.5163183836770489, -0.5438674172326976, 0.3301050492944828, -0.17900661520621264, 0.7997308858357977, 0.9662626766876243, 0.15280683863270972, -0.42691485270471574, 0.9149854578132752, 0.38096641996987035, 0.13089025585492875, 0.7697198244311882, -0.7757369151523477, 0.7545800432203182, 0.45935268911411375, -0.8894605598573635, 0.04305850897841945, -0.6434076200729268, -0.49124302126468655, 0.5352378065562495, 0.10728523808204105, -0.6803545083764644, -0.6690023660218316, 0.9088567528247724, 0.3224366762797344, -0.6653005062958073, 0.3198627546557775, -0.9539715941626181, -0.21299079236929552, -0.34243699220111345, 0.1482792413068832, 0.5790848958573815, 0.7671731641085142, -0.8521104339664125, -0.6936641619805735, 0.9382169943175256, 0.09751304906148794, 0.6521607627681218, 0.4637260034566335, 0.5650714895524518], "b": -0.18850441116806183}, {"weights": [0.4514595236534409, -0.16933390824873884, 0.8817596451795242, 0.2898934878519932, -0.5463367702597213, -0.5840303241158371, 0.08022961409998586, 0.8652912844357894, -0.4810467215509622, -0.092469124251231, 0.3543279938223005, -0.046383817439231034, 0.520454984386651, -0.5645264137584858, 0.16685723241649986, -0.5122037402211612, -0.2884757414385499, 0.3383918082013193, -0.16193221806636182, 0.8930149224614632, 0.3848432281053864, 0.09255620991106706, -0.18610588361457525, 0.1791902850189404, 0.2920909380726404, 0.8774311812978322, 0.5076768456374028, -0.6573150109481616, 0.9636938368996657, -0.8948476458090611, -0.18705384402808645, -0.18327438322859768, -0.6518053738038627, 0.2520904900187635, -0.8209604251226186, 0.41541517391329896, -0.12373132684922372, -0.6711407756743191, 0.02269636655156737, -0.22597714659250068, 0.4400817463640463, -0.032674404041045824], "b": -0.26530873123616483}, {"weights": [-0.3408378939465688, 0.9298091505052384, -0.801675173666353, 0.021643834607253387, -0.12124690994590881, 0.083167798561949, -0.9361153918497225, 0.8147204261176637, -0.4609654331337516, -0.40856992005462245, 0.5236247726825587, -0.17566340593454144, -0.9452293829788647, -0.35411260140842193, 0.8068710231568548, -0.6437154191588894, -0.4390949987030808, 0.2628742217931339, -0.26298480673351077, -0.24697419179845603, 0.6415682977011803, -0.17889326721801346, -0.26791430386601744, 0.944715298567707, -0.2766076188958715, 0.2455474483138762, -0.696368458895056, 0.516946464047231, 0.933106930448041, -0.6108268759035311, 0.6506318150027599, 0.7274814956684146, 0.9666028238814748, 0.27820383431618567, -0.7335847178608945, -0.8926300728832721, -0.303092750279673, 0.19025641502655022, 0.2314507001544468, -0.4691052125720512, 0.48185152207296067, -0.6009162334783418], "b": 0.8112841727714615}, {"weights": [0.4721741763916478, -0.5627363761197799, 0.10266566986113435, -0.49196915153681653, -0.8200854084014504, -0.01760772685383527, -0.525149934400271, 0.8000540192850909, 0.03657362093503669, 0.09740526275033567, -0.6289592795575503, 0.11082815756425357, -0.6249674592282606, -0.22443432574298972, 0.7175814540210432, -0.6314159180567667, -0.5847916131488442, 0.01429247454314253, 0.6400576198198342, -0.061460135105239955, 0.6240801329458872, -0.34284192749198517, -0.5233273831539444, -0.9443564672023426, 0.3259308556623568, -0.5886598300209076, -0.6920048446930214, 0.5988549055018746, -0.8392671034338144, -0.3014337133612419, -0.4410335528216853, 0.5442255646468561, 0.6571266836092657, 0.900181877127628, -0.7001433024618586, -0.04703174979550684, -0.46830212010507877, 0.8960846855083646, -0.04051135146976392, -0.0012455799628383613, 0.9239050051889668, -0.5214641382966936], "b": -0.7981117844534702}, {"weights": [-0.5272677343107091, -0.9112016377901064, -0.03321083438044803, -0.4991525848255589, 0.4682999732502402, -0.11079398090718517, 0.08656872977945618, 0.7518284280073189, -0.0024264037610732814, 0.5983446566120962, 0.4331125635457087, 0.515858669258531, -0.6949833506442378, -0.04789669148591402, -0.7270073259419239, -0.006565258543356212, -0.8087071364525773, 0.45001653550360277, 0.3029254493501192, 0.33746762556552756, 0.7927100005725087, -0.9242309296541713, 0.7026880548523482, -0.5849147189129253, -0.6708232477413769, -0.8431532809683226, 0.6923166951642701, 0.9101758815433394, -0.6490164548960276, 0.6453000352427389, -0.8288380133042166, 0.8692867042586483, -0.2856713652484828, -0.5875710273295205, 0.09137067552167033, -0.04168816980610224, 0.2302780843118184, -0.45204133952812753, -0.8267748319359576, -0.7444655534095737, -0.61942933078538, -0.4214674440301054], "b": -0.39612645216084474}, {"weights": [-0.5490581814663968, -0.06227946941397122, 0.9375772207033168, -0.5945468244890535, 0.8078415259842304, -0.4808084550458218, 0.36993458560985903, 0.8032000374484949, 0.4965648228259858, 0.2676622310736434, 0.9670694475091797, 0.12712094308625166, -0.9833577583282314, -0.10524819816525133, 0.020635863427269197, 0.7559904389668719, -0.19578163308305752, -0.359401528006533, 0.23734492744909397, 0.15652863326077826, 0.017188493675528438, -0.35260486436459293, -0.1937804031276107, 0.3729018131167605, -0.5547290633663506, -0.10740040697814712, 0.29148473813308096, 0.7660431915371138, -0.9969690022803479, -0.28190858724457035, -0.5629746222983081, 0.4741772204038157, 0.867109159390427, 0.5847556329658854, 0.44263272732179826, 0.7648939410900808, 0.7641230062422057, -0.9510115770260219, -0.44852490428343295, -0.9903464861860092, 0.4949082251818797, 0.6466968601391647], "b": -0.5955048671811276}, {"weights": [-0.6401843571407893, -0.7010386470845906, -0.9095960329910042, 0.10384066340089881, -0.6523058884299813, -0.8868244886016499, 0.6221208198241801, 0.1595421186127466, 0.17608047647358283, -0.7497490540168874, -0.6110844442866232, 0.13079542465091043, -0.15429336377725478, -0.5778448457043055, 0.977385004022342, -0.20110695555210767, 0.7331759791568713, 0.6171352911125783, -0.49857730606921336, 0.2793222700287943, 0.03807609047469773, 0.5040567737720285, -0.6457034056102184, -0.4885395710652862, -0.04636026796531678, 0.6123203063151976, 0.12425274730563207, -0.4735286438827433, 0.753292657064889, -0.7671528302280999, -0.5627064576233791, 0.20193494888474062, 0.40063798695467656, 0.7934433672479653, 0.23542306348798037, 0.2946010720058956, -0.9795750366846037, -0.409782180810111, -0.4785810652591107, 0.6937119548147399, 0.7168835030028844, 0.09932307213988945], "b": -0.08447292832361364}, {"weights": [0.5154560248138758, 0.37793772992871677, 0.9328184459437903, 0.6262897109974097, 0.7811963464382521, -0.9085362460168926, 0.6647387141584542, -0.4361722473145955, 0.8354813821979912, -0.021635745376148208, 0.7489222613254802, -0.6103090627751886, 0.3944151477667768, 0.42002399877364316, 0.21139244519481637, 0.04997011467343393, 0.1161183499971119, 0.07634276876402968, 0.7245194938672874, 0.9545583585194872, 0.21148342071782866, -0.9270798451990814, -0.21269739666185372, -0.6420427135258495, -0.41988783137193364, -0.08254160238805541, -0.16944940479000503, 0.15280898891978278, -0.10102502008853631, 0.031296886550394865, -0.23597916796966523, 0.7420237819450197, 0.8865285091132125, 0.8662410801974096, 0.7227718380577732, -0.3033957011463422, -0.4570680549608208, -0.12777360535252047, 0.816653747591435, 0.8325117497998831, 0.17793771438485195, 0.9820935618551332], "b": 0.9345828272678849}, {"weights": [-0.3647492046389218, -0.4057906663397437, -0.7336033275272276, 0.5143906117242945, -0.4717607783468807, -0.5235311579324167, -0.846658195120237, 0.12568560280359842, -0.20830293044997394, 0.2669942036390267, -0.668231331176222, 0.30306271142200125, -0.2007824614789946, -0.8538532783413146, -0.7659819351266979, -0.49402896270096464, 0.20651170274470254, -0.25812311405313015, -0.6141264110213791, -0.10338230832776962, -0.6885476971315565, 0.12073374097894729, -0.38842743219759557, -0.1591816294049675, 0.07592387602868444, -0.25287812196356696, -0.9400416981105422, -0.222000241351058, -0.755917825504874, 0.18914433070950887, 0.7592124409409853, -0.6393747372324305, -0.5486328124392374, -0.9669030939153869, -0.15602533215496184, 0.8692765912816154, 0.09238857175782389, 0.05918064680564594, -0.2659948280373796, -0.6856835459483499, -0.18699045109493273, 0.005737450476875239], "b": -0.4878659294112293}, {"weights": [-0.7774049780146477, 0.8870101566792219, -0.24761555558690773, 0.18847040319074604, 0.5104470231523506, -0.4627802291951626, -0.7353108461286544, 0.15265623680780882, 0.81657351211489, 0.3244343688493294, 0.3197518498984171, 0.35048143493260464, 0.4724860108482347, 0.8178336146055747, -0.34905707449332457, 0.9331344992509079, -0.30086083479480985, 0.30321039409313677, 0.21965226369563062, -0.9548981256563134, -0.7265620318977766, 0.986401811660218, 0.3503169598385223, -0.8159439520293092, 0.5716954982840896, 0.24787866771430744, 0.9484812065539696, 0.25353265310967954, 0.4358800361878188, 0.8354384617995172, 0.4049727583943563, 0.1984526465969325, 0.5215080282180362, -0.09117578613457056, 0.05927261725490385, 0.602390262457692, -0.9460219510013916, 0.05123708626114043, -0.5401005696830372, -0.05890618000907777, -0.8177704319357999, -0.8667300080049118], "b": -0.4185814070935221}, {"weights": [-0.713487677976818, -0.5634585523147213, 0.0870846610787297, 0.73559412026862, 0.5080484867119817, 0.18455434498051027, -0.07410863683324576, 0.012999870641456246, -0.10701137692986307, -0.14395417236406494, 0.9415819729977786, 0.4076232097143493, 0.04388578689942557, -0.709264486067583, -0.49536285015119086, -0.766587446307742, -0.7895172318369215, 0.20988256481877743, -0.3688697819552762, -0.1511283265969583, -0.49440862830064747, -0.4132841664239202, -0.38208548893528005, -0.05647789351872934, 0.03265051170691868, 0.7501854673316806, -0.9498971135742136, 0.6453712311641104, -0.29572920610169673, 0.04120914477800275, 0.6408850121170055, 0.05584395475853765, -0.641212537001731, 0.04000177715928066, -0.9154039466515194, 0.1437507247685086, -0.37841416290389485, 0.7745587963233975, 0.7440432977664899, -0.02843011355669023, 0.9882961444651359, -0.5086553131459828], "b": -0.049051849698438676}, {"weights": [0.01878179032692251, -0.5605195335410653, -0.02732974918374831, -0.07790929002907743, -0.8323307271559646, -0.8549478062391118, 0.950669223857876, -0.5649819764476893, 0.7115560003262853, 0.47804744577519465, 0.34933091883613865, -0.9671586796771252, -0.6584097244074689, -0.976835659115386, 0.617643134196918, 0.612821893271374, -0.1221338392981346, 0.12792250909893976, 0.006342260207380823, 0.19544561076895217, 0.7001760999295106, -0.43185387606777037, 0.08644967414017968, -0.41658980489218345, 0.8535215698027152, -0.32573745119307507, 0.6097523076238838, 0.4931671402118485, 0.14827412119956263, 0.7774807364656724, 0.011751714022925519, 0.052246543141709845, -0.7204412419803681, 0.7539049166152121, -0.9517846314720433, 0.40805152220693786, 0.25082816613783687, -0.24693792116676327, -0.6481169522974601, -0.8363403718741926, -0.712231293309552, -0.125209657497781], "b": -0.3609039337971913}, {"weights": [-0.8883577692958624, -0.2801877040701459, -0.17697611302914118, 0.5243903319984595, 0.5224338210155892, 0.9989619664916103, 0.17728894818167884, 0.8204175725097551, 0.5653802252416971, 0.8876063138329975, -0.5183382718552638, -0.393163434536391, -0.6946909768963179, 0.41775056398255717, -0.9658965012272314, -0.1581262099008458, 0.420359398366414, -0.8477437393203924, -0.6435947076313107, -0.5070070723827305, 0.2605928209081583, -0.7643179690334463, -0.6550381797219689, -0.9195559496733161, -0.01920283242251375, -0.27548761777586184, 0.7539233855091672, 0.1332559909869293, -0.07589335503233707, -0.7948314957448952, 0.4478258450456245, -0.3606813097044954, -0.9663446154543276, 0.9683955104902833, -0.7627539259273624, 0.561643754959519, -0.6829803654377764, 0.8617447720189808, 0.5066677014654335, 0.6700065144503458, 0.12265149246266738, -0.9152321531654883], "b": -0.37187510225879805}, {"weights": [0.27815497132116995, -0.08831947828807785, 0.8699740693246605, 0.7212011354510723, -0.03518317309182395, 0.3425725575558305, 0.7088117373924407, -0.6054424100498532, -0.7024002409060324, 0.48184984480989157, 0.533987671541303, -0.8309560950784687, 0.6871635538778997, 0.9130591081788455, 0.030214505190109264, -0.8989319694412561, -0.09645000285913552, 0.06750259560050886, 0.457461303476947, 0.09629386308162236, -0.5947121678599392, 0.6079027419405993, 0.9355463828781017, -0.3046011573636396, -0.5011923278648356, -0.417786503486149, -0.5055470952415462, 0.8750347490611616, 0.5850927626381239, 0.8115858266045324, 0.948424649243433, -0.148287464513583, 0.5593416516850629, 0.864129091935621, 0.8148183892033143, -0.15573251707026436, -0.6449308243048306, 0.5299326437734784, -0.7962091687760864, -0.2762956510159318, -0.4017971654249026, -0.25399639253295847], "b": 0.4504388672344153}, {"weights": [0.5550115592972831, -0.9467812673104397, 0.5070875235304888, 0.6134435941038776, -0.7193947271666981, 0.7137824055209356, 0.01736169914504182, -0.25746412560766485, 0.5723584625406541, 0.8392058506415851, 0.44258663298379064, -0.2542536280115204, -0.5918748521478625, 0.8308616206944424, -0.9653797935644908, 0.014670282196020956, -0.15133075161331977, 0.33986223347007805, -0.4689023953298719, 0.19715972804892012, -0.0924934653483227, -0.39238940910722264, 0.7840624102925211, 0.023293390376632805, -0.012010822229203688, 0.3504062927751983, 0.583366175307303, 0.7570265895394666, 0.7939756075171136, -0.6951054368760541, 0.9329823392757113, 0.553642020665438, 0.9830347764919776, 0.10299603263343893, 0.35151285904906904, 0.5584945230598324, 0.6574572597212112, 0.5545774936048005, 0.5980198301056352, -0.7624918153796019, -0.8093169140803045, 0.4958413319621804], "b": 0.7145979961744902}, {"weights": [0.6227470769374914, -0.9650792150142828, -0.2969932445778529, 0.34827330034414516, -0.3972423176089144, -0.5177334891408487, 0.08629040470188598, 0.8323642855859732, -0.20655787990964436, 0.3926069475880858, 0.10489222403547016, 0.8647305489672492, -0.5657444316626168, 0.2305815554767865, -0.07998206767426175, 0.11868876400322215, 0.2913784572820546, -0.028962556328559153, 0.22608056064245652, 0.11045341136756326, -0.17186067322823795, -0.3452013234944109, 0.5419562884435842, 0.24850471746594938, -0.2373583402797821, 0.8386168790094126, 0.5232799551818317, 0.9992810920921331, -0.22370159312119542, -0.9581791743957675, -0.7760973455076015, -0.9235915533066894, 0.25514944587107546, 0.2121109356612645, 0.37279097181902876, -0.5894821707385776, 0.9636166655377965, -0.7563999625597493, -0.7387016321275417, 0.11341503234741501, -0.30798349034833006, -0.45118703293727913], "b": 0.2559078766808558}, {"weights": [-0.7678647178314735, 0.3190706599774287, -0.3296520417897084, 0.38356101283287125, 0.7306056892636543, 0.5817910362861551, -0.30535614111493126, 0.8701486162545997, -0.2513881375725049, 0.039499253002130974, 0.6685710853978011, 0.12643242658181597, 0.05937927194876447, -0.7834062795225856, 0.8043580949714952, -0.7257233510095384, -0.7728882674968995, 0.5142969071569174, -0.2958810221125554, -0.4247140907423139, -0.005423679972672568, -0.4810285889353616, 0.49003178050611296, -0.22353024856622983, 0.1337017764950954, 0.32135825586403755, 0.9574661958778456, -0.6498802273858819, 0.5682728713081424, -0.6647418068117428, -0.012483545047108802, -0.4457622875476466, 0.9718602024510885, -0.7173764264927824, 0.34823489975079114, 0.2532029238189384, -0.9924153794992066, 0.08179767823366735, 0.40510195574251684, -0.7246126235167658, 0.1537693693374509, 0.16357695611467316], "b": 0.3539670532711572}, {"weights": [0.7844009649489474, 0.26332429294987136, -0.1861956529619495, -0.498578723417038, -0.9787351034686782, -0.9572302049450874, -0.2605659588159597, -0.029090913473203583, 0.9847266522592504, 0.73539698807689, 0.9355426078226599, 0.6267893059408609, -0.8629289882911084, -0.8582869943579094, -0.36891902937052645, 0.08393784468464727, 0.6359115397180461, -0.17484604770743872, -0.04147227729673708, 0.976463778354373, -0.5657418075115019, 0.10872286700615064, 0.9613370450677783, -0.18803989577243918, 0.8658015233002778, 0.753450645996862, -0.12786843284829486, -0.16365587460885833, -0.0504558667147188, -0.5891452689898682, -0.6781295711070432, 0.5964010904687742, 0.37515343202764906, 0.15796924572398852, -0.4538199038849611, 0.5523247941602938, -0.5586989244191103, 0.476789201484757, 0.42210065669752717, 0.032301130273803214, -0.2795356178857653, 0.20046124320210112], "b": -0.012345624408544476}, {"weights": [0.07038875968046732, -0.8648923296765452, 0.9199294338917277, -0.9648081754191529, -0.049937996328576206, -0.10161784472573143, -0.8893192499655151, -0.9199806678878732, 0.3764810945253618, 0.38387831194952815, -0.8923719094523772, 0.9560683095245504, -0.975285417022169, 0.8495911327689571, 0.6095387929696146, 0.3500270757941517, 0.9713531228829866, 0.6172193425346728, 0.9461218125084097, -0.6965353620689216, -0.0024179133329704783, -0.27092988301313725, -0.21805083907027378, -0.6285368093502295, -0.6330787056458993, 0.3954393180395297, -0.9762683576945199, -0.3989888413696341, 0.12313388947257331, -0.7949988352152502, -0.6905534981445394, 0.5536308194749175, -0.5697194143581541, -0.5040181664690473, -0.8655651084534255, -0.6929467572767272, -0.21060997568138662, -0.8087620505633082, -0.27827041460426405, -0.9452305521724966, 0.7173580233823138, -0.960104227486543], "b": 0.28388107979475796}, {"weights": [-0.8044644374365368, -0.5931321637147204, -0.2708366871938639, -0.9956042511629688, -0.9926300916759125, 0.08071646734739368, 0.7526417104009071, 0.5925626635349099, -0.12816541107848245, -0.48973728114925263, -0.7419686692847403, -0.6966311254661661, -0.7528998222521053, 0.8936841888481681, 0.7643387883363428, 0.8420475617221876, -0.4052106785867251, 0.47496999612332025, 0.013280069528846195, -0.4717703238770985, -0.8995862783913635, -0.5073892971134586, 0.8446336967564243, 0.4789670907242334, -0.38998016270588987, 0.3299850404110738, -0.3266164773827387, 0.28340723077393726, -0.9014123221682271, -0.07830330970896515, -0.38990002789233524, 0.39321087249960773, -0.0690741823771106, -0.7808825490196816, -0.3885907814302547, -0.7016226365143945, 0.610606828335889, -0.7469689905445354, -0.5876882771477945, 0.9153239888856881, -0.01975120377088091, -0.3865083163274903], "b": -0.7471562544989854}, {"weights": [0.3705967068340068, 0.5991146158956513, 0.21213204995258783, -0.5620709785698577, 0.1754132628005005, -0.9831409400168298, -0.6344080055878494, 0.8754091114696441, -0.16151232063258436, -0.9802973807242559, 0.3078258276666481, 0.552708416580362, -0.009498551911706343, 0.3809998628839646, 0.3916730243809561, 0.988379952680887, -0.4713487702027517, 0.7024585858102588, -0.3584752013879977, -0.5992058476941793, -0.4413142099082661, 0.2993487303350666, -0.13499049058798307, -0.8783400419310787, 0.7933617118778182, 0.8745037209495616, 0.4441193898066409, -0.5913485716460982, -0.5201289903765682, -0.8130485982506963, 0.5048459013891295, -0.27812314654263304, -0.6129097940467854, -0.1456199812445682, 0.20500545781888335, -0.11773395319730229, 0.7293251532246283, -0.6921972874151257, 0.25045487247708764, -0.9542768333750178, 0.39068430418905264, -0.7149904221722265], "b": 0.8669459862879823}, {"weights": [0.19921312346257225, -0.4245653470454187, -0.21875848720674695, 0.7157736262044896, 0.2786989710378114, 0.23829656193882576, -0.10025235155203793, -0.597240432565701, 0.5684973969633014, -0.25598434498463973, 0.34892794707699215, -0.9457542461844881, 0.8812903794244611, -0.3415346107305466, -0.20790545314494469, 0.556659150810956, -0.7348307439629462, -0.12265510470817609, -0.8587958391020565, 0.882270199712911, -0.3401747225763794, -0.3340355949755569, 0.8853509393022845, -0.3836356327356225, -0.3410260051982099, -0.2312011048963487, -0.019102541082363533, -0.45348168483938034, -0.839584118295803, -0.726564722578039, -0.4466104152810302, 0.6928432502848811, -0.7673563523362963, 0.8086417449269621, 0.8240079372461999, -0.5201865722064507, 0.31361954619519095, 0.3774313595764629, 0.4743327695256583, -0.7533594607959182, 0.6247137037028785, -0.6982503327075353], "b": 0.04183095382894697}, {"weights": [0.11837048328063937, -0.2332920927053439, 0.3123871963825684, 0.40773715127529675, -0.7848658716349077, 0.2555842053642139, 0.038053138901341876, -0.756675511277856, 0.17818145556012177, -0.3499142365364969, -0.6151330565353299, -0.8971757838909971, -0.97627866803891, 0.5692166190845473, 0.9588732100997641, 0.7226890167015321, 0.8850602709010853, 0.5679192721269919, 0.05090928343415957, 0.6535725025769177, 0.40929918765873063, 0.405086416180074, -0.3292528962066723, 0.5262809345232506, -0.4158779393992531, 0.2186626428170424, 0.08649175599223624, 0.7798247615734015, 0.532435793316538, -0.25004261307668463, 0.7389862460645451, 0.14556627836806024, -0.49951485875179746, -0.18299773390407092, 0.7554539308531272, -0.456688186445662, -0.07353093971246127, -0.3257162793732682, -0.7311860288462024, -0.287625257843505, 0.9868477663889821, 0.10169114303586646], "b": 0.8691068871887988}, {"weights": [-0.7359575204231878, -0.46669965780776, -0.9985336943360772, 0.16239668180714917, 0.6148376827143562, -0.9493591867643303, 0.9850653318936584, -0.1741454198432859, -0.23057134698927406, -0.24426456620173687, 0.04626928594785351, -0.01802352501303517, 0.6843988428177856, 0.9201634211246785, 0.7504207410659176, 0.19783357113296085, 0.15451942199522062, -0.2309602726630322, -0.9878186650604366, -0.7306878612518268, -0.9307035044753784, 0.9329873759689695, -0.1513988503017618, 0.5014889094961994, -0.413664890507911, -0.09626321439105379, 0.44564107699035405, 0.6360569646276253, -0.4126764242122918, -0.4079159277645059, 0.18984485210323143, 0.207659264897871, 0.9581490180577177, 0.7081155650183784, 0.15741004647869583, -0.8183258194740679, -0.30729163147241345, 0.7287574810512474, -0.9460337439343858, 0.5906002448396201, 0.22902861178368816, -0.310387226909983], "b": -0.624797350628784}, {"weights": [-0.6650555279585031, -0.16688744954167078, 0.5908926206706613, -0.4824081439512389, 0.6909696419582199, 0.4174517460525704, 0.5012659207390262, 0.3578067755534544, 0.6380144730497417, -0.09193540714552006, -0.6218644248169709, 0.37873739392308314, 0.15453359165629865, -0.6654834966247012, -0.16802449218673043, 0.8287150939480195, 0.7772337079893499, -0.33723772725924195, -0.7339400320225156, 0.5438077149155587, 0.005162327406859735, -0.6575737893324876, 0.028852548669573652, 0.8277503929559744, -0.0013683609637484828, 0.7078152425488651, -0.5171091383746844, -0.01672632116077999, 0.5802702976652228, 0.635815982299202, 0.5512620550346634, 0.6468767440278422, 0.10546663957890501, 0.07581916036048253, 0.41712109674665854, -0.02114505184823834, 0.44656348951212865, 0.8392602388749122, -0.41807303641484084, 0.4144429801070655, -0.7291390639016171, 0.9509551045903257], "b": -0.3051482769553826}, {"weights": [-0.37784114781154465, 0.40092579313320287, -0.07296777505117746, 0.6947214049447354, 0.997010042391292, 0.7129809400719604, -0.4832994397459174, 0.9010103732828532, 0.7000401102849596, 0.20415400992800814, 0.8067084629061727, -0.4953357523414468, 0.4760761510240479, 0.99803543084509, 0.15931546241385974, -0.16810103526555964, -0.9466069693615713, 0.07855018520044221, -0.8112464460710618, -0.4593449077164937, -0.9495372446453663, -0.7540620787693579, 0.41516929686373416, -0.11582419372238784, 0.9921063052380577, -0.6321725694292308, -0.42023668962991856, 0.38650629277834203, 0.19864434055663538, -0.6750079322241089, 0.7314417524650048, -0.8516456118548195, 0.2353689682463882, -0.4182097397670381, 0.4584430751885997, 0.7609885978871254, 0.9638887261000282, -0.26548060307764154, -0.7082585286821195, -0.4695143969706457, 0.42976056063920676, -0.31901948892060084], "b": 0.19933162790229564}, {"weights": [0.36128033547617266, -0.8688042666339366, 0.9570805907841831, 0.9881241367174467, 0.3698266927510889, 0.738323905150079, 0.8346147483598092, 0.31881149601195036, 0.6629951706619128, -0.6231568493074122, -0.04161509406695685, 0.4665759508347964, -0.16238574894893154, 0.05925981561928628, 0.6260844649171584, -0.07743910244789154, -0.9588869879703774, 0.565374097508214, 0.9678460156694029, -0.09251088643772576, -0.10461716406015253, 0.6311252632195192, -0.5280431705738864, 0.23320379215817044, 0.9857317204844658, -0.33062701466335653, -0.6004992772140822, 0.01147584004102864, 0.005771588684379214, 0.6876278028481653, 0.8465603495871419, -0.3857171044930836, -0.8182131019600882, -0.13237514146686613, 0.9413714254053027, -0.7797028292589254, 0.6896586273589702, -0.8297152516613568, -0.7536433015608244, 0.6566944095614613, 0.2564529234989197, 0.6292331636852488], "b": -0.9288781505301207}, {"weights": [0.013232546725790773, -0.41141138100579955, -0.44172828616458704, -0.21293887745500673, 0.7425571965354307, -0.7369284627897197, -0.8414698510410388, 0.5826550766186727, 0.22264957374897643, -0.6870767777877229, 0.3458747777572544, 0.6658581486576851, -0.45596545756869866, 0.11667521787929225, -0.8960001647675506, -0.7966544607618484, 0.5247932463011007, -0.30839180467497496, -0.20986136025555435, 0.7424439129632583, -0.9041096488183333, -0.13584252067670932, -0.24811503793676803, -0.3074571433421307, 0.8284347677575621, -0.8583448961448845, 0.4487266168743018, 0.3346143415827427, 0.28172013068708135, -0.3088694870782829, -0.8329222213608334, 0.3743213623040027, 0.8513276623713621, -0.6889405404146036, -0.8966902285541531, 0.18685655702795878, 0.6006043915451253, 0.8548073433845931, -0.5912208062808972, -0.060131713607758375, 0.4342186395571217, 0.03042724755922266], "b": -0.19474130754320274}, {"weights": [0.805786517144651, 0.6228503437916346, 0.7056988761847938, 0.6623230919945389, 0.6315409013264166, -0.328318904705998, 0.7759996187926581, 0.11028737340430084, -0.7298071825476762, 0.9091077871450275, -0.4495348936572634, 0.771066368165261, 0.7755760114536223, 0.2630288411793267, -0.546775634544789, -0.5419150236106858, -0.4817444785703038, -0.4815335507027567, -0.6789218318908454, -0.07098742380894008, 0.2029850987624946, 0.8238008985289316, -0.39630659391510226, -0.4794073598078157, -0.9001243308485558, -0.2538638376806479, 0.31157798387097446, -0.4455405634509444, 0.47977859729838457, 0.09021604450705967, -0.560965143587586, 0.8622364355876764, 0.6412586966433045, 0.30914948042819845, -0.3970094550157326, -0.9016851608282577, 0.7211539528495192, 0.9015451589029615, 0.6010480151011812, -0.4910896968717977, -0.4542347254482073, -0.27379843004009086], "b": 0.5477923955081141}], "output_neurons": [{"weights": [0.6453928029640448, -0.8079686362979364, -0.6990979051169446, 0.06357010280086928, -0.8606753966100862, 0.8101953230374463, -0.1984326200202733, -0.5035848003481922, 0.14942973735342524, 0.5868977749010633, 0.13000742504192275, -0.5687310905928316, -0.36488498767588107, 0.1775140553804162, -0.4748979240186917, 0.5341188663781513, 0.9393511215006767, -0.9898314344622254, -0.46652841187909, 0.07136447934980295, 0.14961176359665673, -0.2799302676536164, -0.07547800038422126, -0.5647498131089705, -0.7200824673085564, -0.9414179158034299, 0.13650969616340491, -0.01307826586205274, -0.20483305086442516, 0.7220757416492798, 0.6529615612838624, 0.45030894312228575, -0.24270763935920026, 0.6025237379355695, -0.6360777609611665], "b": 0.8316875304249769}, {"weights": [0.1351098930747363, 0.07916139557958624, -0.4071873827437682, 0.03440631077124534, 0.5418546819982706, -0.8153028784138865, 0.9503376968911572, -0.06919749326888436, -0.5627819264915779, -0.2441211229276734, -0.909511792625435, -0.05045684746073076, -0.1629923941934488, -0.5882106936033413, -0.8876612860722803, 0.6751484701521386, 0.7393179510960766, -0.14137906875977313, -0.5915450072321833, 0.7186198792500724, 0.36990241745180175, 0.7547116232876061, -0.5854377539976217, -0.22051369940146137, -0.3028163968971884, -0.8652344207635025, 0.41717336521631787, -0.8657004510923041, -0.6168750201903963, -0.8991435194891542, -0.4742897536531663, 0.5657511214431092, -0.43779753891004636, -0.34536360702504876, 0.45984415437359716], "b": 0.13150013464026755}, {"weights": [0.17357764876846016, -0.34525001176306946, -0.08510326826641434, 0.03935658380936813, -0.7256509817972125, -0.004789968453109417, -0.9628610656615695, 0.3856050714546202, 0.7293658298070194, -0.3240860151053315, 0.3922918267774671, 0.29693164751465084, 0.3503885593995466, 0.8478680458464427, -0.4773405245121314, -0.7036360130637749, -0.628782021177295, -0.12523486090135805, -0.9728909831856329, -0.45765676914049247, 0.373137357910589, 0.6827553597820459, 0.11043896408938636, 0.21785750978659446, 0.6296074959977591, 0.04542576300104728, 0.7789785303430037, -0.7874031826002903, 0.7621668849966112, -0.038099112895157106, 0.9388278092147384, -0.009152264674004984, -0.39769943668840946, -0.22276858657986676, 0.9478439106167726], "b": -0.04257840485188735}, {"weights": [0.6416287527479734, -0.3819103443796088, -0.1607508491482843, -0.062210646460167274, -0.8217025412547525, 0.8875553663149736, 0.9601347582180628, 0.7876194184106395, -0.3998193042782969, 0.9972656762308492, -0.09089081184072834, 0.10508931764551943, 0.2164844514797888, -0.8769968935321839, 0.7261003884583515, -0.49767074779507814, -0.7056287476718619, -0.5278667352169593, -0.9239797656572188, -0.3613385718646336, -0.3747483408084431, 0.8979980599826449, 0.12052354686757982, -0.23927478365601762, -0.2328269436441277, 0.5635632586743484, 0.9285511702576299, 0.5219477915495587, -0.09574064915700786, 0.46993458707676017, 0.9198100050946791, -0.7468042658003085, 0.8696039974179899, -0.03631253466918993, 0.15041339371287155], "b": 0.6990486751722647}, {"weights": [-0.6360413454885807, 0.8494956517574321, 0.4015436926831659, 0.492658899103837, 0.7722147844742135, -0.19277537563182046, 0.955572909996615, -0.15850482084387707, 0.5201569520836753, 0.8014547734490653, -0.5020022187569184, 0.9331340947548081, 0.05247810013722365, -0.2412469695426791, -0.52135464140129, -0.9607207109095153, 0.8196546252313488, 0.1357946823187608, -0.9339967907682103, 0.8150007454802606, -0.6525549101123307, -0.8495393059970566, 0.4709279607618908, -0.5661156210278699, -0.16669837196474058, 0.8460287994424689, 0.5723882209237945, 0.2850846833115397, -0.07440372863753075, 0.11906909969500878, -0.36389050105978393, -0.518758195062504, -0.06300297701550184, -0.9891680826674674, -0.3316649766089297], "b": -0.8865019243486563}, {"weights": [-0.4369469554938339, 0.0745459714287513, -0.43238667167927014, 0.9360256973660761, -0.43221981145019783, 0.11121364084687513, -0.3036816793529622, 0.5352580041543102, -0.04968277819048805, 0.3314151346779597, -0.9557670897043995, 0.6703926100580306, 0.46734975170504334, 0.41637228993683184, 0.2677308328976278, 0.8028304092468102, 0.8132941797255309, 0.6373514862652505, 0.3662180187843278, -0.292896718060736, -0.510147894580455, -0.3704720993672497, -0.5084041385057256, -0.6162011597790904, 0.6721895451955666, -0.0950247871265344, 0.05100920369305961, 0.18209008346433642, 0.3923366572755649, -0.8036259938585406, -0.06921125231539893, 0.7968858626245885, 0.759829787256411, -0.6734998166945605, 0.8173221225319995], "b": -0.702848454147762}, {"weights": [-0.48873312754425857, -0.21533177783459334, -0.8904117902795396, 0.22601850998786177, 0.39432342590128266, -0.23578005809558022, -0.21625576013187997, 0.49406421352361196, 0.556345687387303, 0.004528608715465454, 0.7406390747412377, 0.9016193254755651, -0.16784822985183112, 0.5113741874337718, -0.3084718677608391, -0.8073034519137303, -0.6074488138130509, -0.8881192907255566, -0.47539313286285934, 0.04202055771411195, -0.09806614367261846, 0.399780412795256, 0.5733725077174026, 0.5607360842017004, 0.4206445112330961, -0.9287758073654477, -0.8694139621878372, 0.747348175392621, -0.9428941516103531, -0.667615721394649, -0.894572324950162, 0.28720126006197444, 0.46996501592285655, -0.4321264385742327, -0.9221305281578853], "b": 0.5142215191638146}]}