{"input_neurons": [{"weights": [0.4547017043611983], "b": 0.7979900681576357}, {"weights": [0.763225876795754], "b": 0.9117001520596297}, {"weights": [0.6763136082845838], "b": 0.548862461325534}, {"weights": [0.6421601775381394], "b": -0.5055353657541792}, {"weights": [-0.7064142005077942], "b": -0.8896689315716377}, {"weights": [-0.5134611757054595], "b": -0.04225209611281988}, {"weights": [0.26799087959007073], "b": -0.3710219635337777}, {"weights": [0.0861251529818261], "b": 0.02336289143040582}, {"weights": [-0.7088392160530452], "b": 0.2471593495014197}, {"weights": [-0.006391894477894011], "b": -0.9583288438382196}, {"weights": [-0.3507696058687657], "b": 0.9567565987602948}, {"weights": [-0.012975174655638355], "b": -0.594045975491442}, {"weights": [0.015427505064927294], "b": 0.1605494083383152}, {"weights": [-0.4671968977334966], "b": -0.7847035579595816}, {"weights": [-0.493373692715686], "b": -0.8874354145831129}, {"weights": [-0.4865333990141869], "b": 0.10655042352659883}, {"weights": [0.766527097576021], "b": 0.22933953709239607}, {"weights": [0.7481774984593219], "b": 0.008959732543530441}, {"weights": [-0.03902260569592997], "b": 0.70905114093749}, {"weights": [-0.1244262375418752], "b": -0.5600498342483793}, {"weights": [0.43068191881510054], "b": 0.6337549862933212}, {"weights": [0.4486917202020049], "b": 0.4383999285976399}, {"weights": [0.20622931118041743], "b": -0.40424156367545505}, {"weights": [0.2638089880442007], "b": -0.7252000695421068}, {"weights": [0.2601493479138024], "b": 0.4135118680894274}, {"weights": [-0.2365168281645582], "b": -0.3711088934738651}, {"weights": [-0.10147837623929079], "b": 0.2009203915081268}, {"weights": [0.98443929366608], "b": -0.5318190141862951}, {"weights": [0.2433245094233183], "b": 0.7862738979435289}, {"weights": [0.5000976144382581], "b": 0.33598727601255285}, {"weights": [-0.2926956405665122], "b": -0.07851875236981587}, {"weights": [-0.2780495781766439], "b": 0.6886767864550982}, {"weights": [0.22453456287673124], "b": 0.5743030687789477}, {"weights": [-0.7995111070112753], "b": 0.3493465035243397}, {"weights": [0.9469215979298231], "b": -0.19358211482976362}, {"weights": [-0.6344187219376018], "b": -0.17700959488025436}, {"weights": [0.01809424300725837], "b": -0.025000195162927952}, {"weights": [0.2710861482976423], "b": -0.5906896696067783}, {"weights": [-0.27389811776646966], "b": -0.7002320449914174}, {"weights": [-0.6983255710395515], "b": -0.8465756476942727}, {"weights": [-0.33629555943622913], "b": -0.13813643534455644}, {"weights": [-0.5603219348035859], "b": 0.8849430765670248}], "hidden_neurons": [{"weights": [0.40971865969486343, -0.29698358772061795, 0.8517823986703588, 0.2633421655905308, -0.7688331087379952, 0.871650438027197, 0.3290785339155018, -0.4816625726038657, 0.3132848984342558, 0.31521983017388555, 0.7129489613472226, -0.7239758016153615, -0.6947854253950372, -0.7807859568760747, -0.6412847820328689, -0.07013474037372647, 0.7212539776396669, 0.48266416601606066, -0.8162939392621469, 0.6900851484732273, -0.6315768628026892, 0.19015276086506705, -0.7033744427886552, -0.8865828681223549, 0.7366980127638696, -0.24301298796498427, 0.2879080338183666, 0.7422510510125817, 0.2896369232934053, -0.9535729123569738, 0.8949221092885318, -0.9582845745256758, -0.7676452203237676, 0.8734553005057146, -0.29001058489603837, 0.4331259755802028, 0.9247512664446083, 0.9568340103578814, 0.1428547253904855, 0.6832910354663815, -0.684186176295408, 0.6522047167348792], "b": 0.43610919704224926}, {"weights": [0.13665967844710014, -0.2360932385345469, 0.6845014204246889, 0.7886185565115633, -0.7566328791950325, 0.4174365556349764, 0.2788727742116506, -0.4829795857263999, -0.10825764119555115, -0.7163897247349817, 0.659696278268572, 0.36407574917339125, 0.010344462180286174, 0.05860139707427514, -0.087649747684998, 0.23460011855539076, -0.9519172076387483, -0.42844547972862657, -0.9445073101155004, 0.6859897329669793, -0.9024369731280473, 0.21103557830486674, 0.5964561401941728, -0.07275431724406167, -0.6977390803478603, 0.7554494895629906, -0.3858214837907714, 0.6588388750317535, -0.18692956735107336, 0.49272826787446, 0.2230211599228218, -0.14403313663484862, 0.19336662988440056, -0.6708833326883548, -0.7416896783608706, 0.9835803430004537, 0.18821044373436657, 0.2578499724994052, -0.1951199651760689, -0.6640556454354283, 0.3443127695189456, 0.8737667600307559], "b": 0.4941671327489543}, {"weights": [-0.3167891478303244, -0.980294504273554, 0.8678980419830356, 0.24503432392077862, -0.5001210731269996, -0.8783266068058593, -0.8833637480994898, -0.25708438967801994, -0.2800909343553275, -0.8630058610108697, 0.5497254707905821, 0.6376846409494736, -0.3129507157501923, -0.05268127820332413, -0.4383947293417316, -0.09375288394604131, 0.42937572488175, -0.4301631857848367, -0.36250397990331096, 0.819709802592492, 0.9882604935276782, -0.4175006119499398, 0.06862608594859076, 0.6342062836113294, 0.8690175042680481, 0.6066432853690131, -0.11078772844627038, 0.5985418133897566, 0.37231304743090754, -0.8851138217848922, 0.5864135237413697, 0.26135625844638866, 0.23754829063059546, 0.42856907186746973, -0.9105452320683027, -0.06785588237075268, -0.0014150138420929714, 0.24265966380865955, 0.020937914287191273, 0.2003673977809688, 0.8557674887661684, -0.6532151012295273], "b": -0.45146571651655854}, {"weights": [0.42568262003657575, -0.5537137551497571, 0.4082545931289374, 0.6276270940111399, 0.30239257745716785, 0.14234291492428053, 0.4900557628518114, -0.22223119812664183, 0.3903942264863287, 0.21315103249745326, 0.09041463747111189, -0.650818038391475, 0.016770036684176093, 0.07672753149031775, -0.2715882489181356, -0.5305094034657007, 0.3318239239525351, 0.7252930753893467, 0.8482363220176505, 0.13500657388019244, -0.03176064534092471, -0.11295223354735451, 0.933045598188037, 0.33557939374773316, -0.49816726168692216, 0.4518933255821118, 0.47033044679661673, -0.5400816396400505, -0.31870607646743854, -0.10161586058121697, 0.36204883008346345, -0.9646877791314459, 0.7412077839408662, 0.050950862111614814, -0.9248362034557327, 0.8718522971470599, -0.9227007313632962, 0.6937007655463749, -0.6445213735872077, 0.538429639029159, 0.31699265091248807, -0.651884627263035], "b": -0.30789809149682457}, {"weights": [0.2639451002055637, -0.37019360777314114, 0.09694661613854993, -0.8456465757087834, -0.2315621748513501, -0.40117212726610907, -0.6417664919454782, 0.18895029174817535, 0.1758746952961987, 0.6340555691696279, 0.4499951909292981, 0.5477497334855272, 0.4174828275985798, 0.1645016766139249, 0.3355671115786252, -0.39656557788562363, 0.6985538630115395, 0.7149700867497073, -0.07427433255579552, 0.4151155564855247, 0.3793093155012497, 0.9399331905801944, -0.6446706322048303, 0.18648670490425845, -0.6791070986059622, 0.6464524644135543, 0.009058043212481826, 0.370249894381961, -0.19057522383012948, 0.08162758260785874, 0.7852092946025255, 0.3459253785717855, 0.06672622522634475, -0.06671828677134384, 0.8396334128219085, -0.7148443006374499, 0.7869722043677898, 0.6533828390568694, 0.27235678773188576, 0.15590169799674092, 0.09335585986167594, -0.7990575201645587], "b": -0.6678951201298999}, {"weights": [0.1972208321161657, 0.9531772386861384, 0.3295477263166564, 0.8448873829374015, 0.8957769359291783, 0.1628375343890225, 0.09298838879089799, 0.8223866241739317, 0.5088968329682213, -0.09786507909381537, -0.19758838166199788, 0.731744324516441, 0.5348178809195105, -0.7391201925784037, 0.3791486925608194, 0.9962989438552856, 0.7889204080385321, 0.4753860043016871, -0.5953921984452344, 0.2655974585377765, 0.3579384378145356, 0.978256717568518, -0.6582774266795404, 0.21059210752593116, 0.1496657689961165, -0.22418075925641134, -0.7079019978354291, -0.9448543115988897, 0.9054540367288524, 0.5576438116662179, -0.6918650558554529, 0.03441613737569327, -0.6155118918129554, 0.598108436442158, -0.1544342241718546, -0.9235136087128866, 0.1511892728183204, -0.01990553670423334, 0.5613028886929938, -0.3292740908390672, 0.7877317868778668, 0.8519870007065484], "b": -0.44348312574606386}, {"weights": [0.46207791021551103, 0.5676237546644602, -0.6504668310205071, -0.7554631491422792, 0.4549151392261892, -0.004484788815569463, -0.23925128784363525, 0.02681067807163795, -0.9994266809302352, -0.48043850552020184, -0.5499140351892866, 0.573687749315013, 0.6768351904573793, -0.15469580719117104, 0.3113366389679253, -0.7384956381906993, 0.33259420830024133, 0.17199711643683968, -0.055189742521011276, 0.6739111370936239, -0.5333752321444223, -0.6982718429123367, -0.7566203512013963, -0.32365211735111243, 0.373366550346512, -0.13278202685994756, 0.4108466720657833, 0.709173632895389, -0.22945195185393108, 0.07039390817211699, -0.25731448879743013, -0.7427759535859328, 0.5531134143633398, 0.5176681278530784, 0.964815475167532, 0.309594120830726, 0.3742610987740924, 0.878729485582463, 0.6201496650603904, 0.3001863669328457, -0.7123893641717196, 0.8192220637360648], "b": -0.8944286325882222}, {"weights": [0.4039910528344517, -0.6978329215914432, 0.9237711324230706, 0.25958567988028625, -0.5319876681289515, 0.7096490952871632, -0.9811424193606013, 0.45303890528359214, -0.0454358672663393, 0.41075134298008287, 0.33532225411209304, -0.48026865867291146, 0.00437770659571024, 0.1614453394984836, 0.36239634582300617, -0.9091895170125832, -0.6417379701013137, -0.6434360242787489, 0.08102988050471094, 0.10637357984843288, 0.24854603772112127, 0.05155180436539952, -0.1659652410627992, -0.9588557500481678, -0.596988187516269, 0.9747477460317886, -0.7685928142275833, 0.38851771293613724, 0.6277657637327181, 0.9565133885682215, 0.37561549684384077, -0.8478632848669818, -0.7741064518784477, 0.6395501210929659, 0.2856087155750098, 0.7733675529965169, -0.4547791019913574, 0.049842344456112686, 0.5065114598791889, 0.9674379301507323, 0.6867208229004913, -0.23872629373390697], "b": 0.8189286167315333}, {"weights": [0.05677960562123108, 0.6623978527126999, 0.6002368739502402, -0.65624169286095, 0.541025630661687, -0.9180701552018407, 0.44805195625331296, -0.8967252546058522, 0.3098748299737404, -0.4441081263932971, -0.22438729996604945, 0.7633995775858591, 0.8563710621950538, 0.7573347303203419, 0.5376496530452024, 0.615596370323364, -0.8672057536020854, -0.984259210125978, -0.6838044353406931, -0.8293973739380176, -0.924024519156444, -0.7778556865087414, 0.7811433855651839, 0.17105297813438192, -0.17147240583271883, 0.6170060256519614, 0.3653105381679038, 0.660663426255298, -0.9357664755015258, 0.9223003574382651, 0.023369111949164578, 0.5299425606049455, -0.7608346980234224, 0.30756352303586665, -0.04398620036926437, 0.5421114781243135, -0.00779181473695667, -0.9016537088132341, -0.48064374454554004, 0.5589359813968637, -0.0803748448520174, 0.08220073774703507], "b": -0.7999631815937847}, {"weights": [-0.29367387448511595, -0.06636611911886381, 0.4981426345192135, -0.624549758505629, 0.612950780718406, 0.4586408935649955, 0.21455880137597316, 0.5811071159825492, 0.18627526397384964, -0.6559523374506158, -0.24396932261622672, 0.5415762670707924, -0.5683602948373963, 0.25600509102257485, 0.5778930615237947, 0.7089778415937669, 0.14081128285199873, 0.37587740990562657, 0.715262417602675, -0.9536809676564333, 0.5185868506911466, 0.9487137853773591, -0.6948806216129428, -0.8656800707542887, -0.19566689324425535, 0.1085936392971818, -0.8635828199565037, -0.4562466802032128, 0.4348981808397716, 0.7419250689631611, 0.16657054602355914, 0.23407594899339967, -0.9261252342220709, 0.10222461641740543, 0.0423529443308035, -0.765828683110024, 0.3958988226413884, -0.9549464578704294, -0.7209471236933918, -0.08925866941806859, 0.19747519136478942, 0.8381879707750237], "b": -0.8384199422900205}, {"weights": [0.7422625764588464, -0.8364396606853717, 0.6543640126594421, 0.9996051514156048, -0.2723090816829332, -0.04332285602851749, 0.21121689444841296, 0.2679032389416012, 0.14769411288533063, -0.7432115957231651, -0.2598585997866012, -0.327515744516812, -0.2951613138206146, 0.815211467327656, 0.18570198770470658, 0.7743530827512757, 0.7840380553779593, 0.7114548672062977, -0.3578087235432097, 0.06487917678102018, -0.5722177405588149, -0.6741377079520925, -0.9542612983332128, -0.2039778158569605, -0.8908745200674955, 0.887963348654484, -0.4846131228735504, -0.46769278299175676, -0.9272145559391565, -0.9488431018922332, -0.665944811216127, -0.354325825752432, 0.07550251622624171, 0.7006556645497635, 0.33881467678105737, 0.05971922556903686, 0.5102435264944796, -0.46257713296930514, -0.8098174957982887, 0.579423807088117, -0.21711363540538064, -0.27287760248520043], "b": 0.11420711357005287}, {"weights": [-0.29272145866347765, -0.5162075964119142, -0.0614332422765651, -0.8648683393811707, -0.4758542111390671, -0.2744624304460688, 0.6439337514475503, 0.3790041821605761, -0.8200535730990524, 0.6091076582656494, -0.7999506323712253, -0.6173988802931956, -0.48928560865799264, 0.447173555568227, -0.10893121310719689, 0.28791184629351485, -0.5941236350319941, -0.2417696509493359, -0.9591906287799317, -0.33548065160430407, 0.4151786479073063, -0.13731523071143203, -0.430821238673776, 0.06808562623939585, -0.6596835461156665, 0.684128761838859, -0.9386649202158055, -0.07915448292997862, 0.5151600566979422, 0.5482930235176287, 0.946074335986375, 0.18912193880017503, -0.4084118892250759, -0.014515986219481913, 0.22948782079513874, -0.13218792969802373, -0.8737664403655709, -0.0586554798440837, -0.9661631530652706, 0.8110272376595336, -0.7650746133841213, 0.4194033439459044], "b": -0.7629472269777839}, {"weights": [-0.7269372998917514, 0.5603862845448939, 0.8695785805961289, 0.30048464560403443, -0.7397125078627702, -0.6492098769360521, -0.2517628063543045, 0.368656864815778, 0.16687469621027828, 0.11565973075408875, -0.22839755069654388, 0.5298893737789165, -0.9559227130310055, 0.023310006313575826, 0.10467724225148345, -0.09495407759492824, -0.18056254719461395, 0.3761615218131278, 0.051273518868534484, 0.8758277759604882, -0.70388218379641, -0.5170918879330333, -0.23807773636752527, -0.9033002252223148, -0.5763858693943347, 0.6019425277773263, -0.3822014004934966, 0.6053875606341268, -0.9291065977080597, 0.6500475920218665, -0.5308182406892332, -0.22082396187636788, -0.8070559673728284, 0.28051760432400763, -0.06495717396913614, -0.7226636817363321, 0.8125400374479101, -0.3942200308105557, 0.5440465500442062, 0.3521534443929304, 0.7279162794112133, -0.010961000641544372], "b": -0.7662484510525722}, {"weights": [-0.09908005739910752, -0.03549794970664011, 0.15173952399536828, 0.11371713849888421, -0.022372971634515126, -0.5788886063557008, -0.6281593417362947, 0.2966686626357302, 0.2400287334973339, -0.6390259444285149, -0.7197581204478816, -0.4291059236123078, -0.3705034279513628, -0.6557244286034669, -0.1950720738697902, -0.034173594568471355, -0.29676878803275253, 0.5689273263320369, 0.19283095249545834, 0.02492960363661756, -0.7916495702551434, -0.46745296545953163, 0.5301245089572741, 0.30395515210238555, 0.5712034837668558, 0.776991728950782, -0.38985255833819976, 0.9367793820361596, 0.9248700819039706, -0.24141975139767968, 0.27902447383626416, 0.3441175556030138, -0.4195516943626332, -0.7772416599543632, 0.3326290126240212, 0.6896392958408903, -0.42762842845977045, 0.2110805882656892, 0.3498749069060525, 0.03935983906681728, 0.29898927648224394, 0.34993709920523863], "b": -0.9361245744274271}, {"weights": [0.8094790670565344, 0.13869324691489893, -0.5428560185529441, -0.6634811009796122, -0.7178646888432942, -0.1514702833866428, -0.7799761899349784, -0.40177716563979304, 0.045863560653910174, 0.46527936368981315, 0.4732340131002104, -0.8755982159214122, -0.34620797347684285, 0.4999550134578603, -0.17594938682480565, 0.2584604444889891, 0.7469004771380656, 0.2598329744290593, 0.015389050803917614, -0.045203877616624144, 0.03931200866110962, -0.23884120214293159, 0.194098842032707, 0.550815225034595, 0.9349016658327229, 0.12902659435723818, 0.994460597763563, 0.18413883322599167, -0.7827058736524102, 0.4368879938517982, 0.30319692873428417, -0.8906888153715746, 0.15797182933156262, 0.7951724906794286, 0.22061503607002386, 0.6989977549770126, -0.016929257242706663, -0.34412149339202314, -0.22121624793133265, 0.8081094504221686, 0.2658949863975151, -0.7240817595775537], "b": -0.034692347471917406}, {"weights": [-0.3251972446642588, 0.2369540583264007, -0.5177228348688119, 0.21323048990159088, -0.21920494755031728, -0.17785090345169863, 0.7197434093062909, -0.7537216448484878, -0.433818855649724, 0.9253613883373479, -0.12250538056462967, 0.8685406038419099, -0.7455081951658344, 0.2120306301424384, 0.2654559459938288, -0.5223685767089288, 0.7986169721938807, -0.4203282013544998, -0.5681381303784008, -0.8278409952273298, -0.6812103109570844, 0.6355008185889461, -0.8281753058189536, 0.2298250150001282, -0.8675875322967674, 0.1505869322743978, 0.13940934829380636, -0.8396402842147885, -0.6243660982908272, 0.588869897575631, 0.393673746648447, 0.7229539822427524, 0.21700134580719843, 0.9082048891544627, 0.5658711058383943, 0.1548723705213293, 0.430121230506028, -0.21166784736560462, 0.843229403460765, -0.9985385209244686, 0.7437017452103007, -0.1768725958066948], "b": 0.09886152815772942}, {"weights": [-0.05765431594196935, -0.011207369814787427, -0.5051981693531962, 0.6519086808763119, 0.9272147273634253, 0.6186533577411888, -0.44358913611695594, 0.5249779190268384, 0.9233440136684785, 0.3061113539340612, 0.3900203913217426, 0.7898048540174281, 0.6229065159088167, 0.9781872286014879, -0.4650531018677393, -0.6885152899202232, -0.5680162867150131, 0.1983644591979974, 0.47893365370009255, 0.8714072162855047, 0.2221493394298184, -0.8327935633732821, 0.4046398270764131, 0.8736330667521057, -0.2288350577874585, -0.08538585276367217, -0.6280170933038789, 0.6269037962453456, -0.3507718162690412, 0.48631719593007894, 0.6205400931741905, 0.2252066160988926, 0.05884958699226339, 0.3990712189045911, 0.23939862655890698, 0.8929664305285658, 0.09859282416877813, -0.03919036063939796, -0.6057783901375173, 0.14523756322873993, -0.5557721455787539, -0.4277007347776349], "b": 0.9458746168681271}, {"weights": [0.22525211503537013, -0.31422973417858513, 0.5461358272321264, 0.9804572066578698, 0.8960014806363117, -0.6466922059177989, 0.34286890972493733, -0.8457049436580875, 0.9750998805009385, 0.10271118292386738, 0.5550894141257203, -0.09813831549040253, 0.8682727754214994, -0.37480636801012235, 0.9481961131731023, 0.6610211637058641, -0.7483044929996894, -0.4018824338768483, -0.6274248822555564, 0.8596694943138621, 0.6213037367923273, 0.5654144329169994, 0.2436403778772962, -0.7468672759871933, -0.970341326110564, -0.8116962119737763, -0.3823581094892492, 0.12158728827009857, -0.2097637157812653, 0.3006368655246623, 0.886689764696253, 0.8855706309040501, 0.6156506090617035, 0.1579654429379278, -0.18383902782951722, -0.16105280165495217, -0.48213374192002156, 0.15258578481861806, 0.30201448303074563, -0.3144786781642377, -0.5452733321613252, 0.46957659655632167], "b": -0.7027280424664766}, {"weights": [-0.8180234879810453, 0.9787859018724467, -0.11313118376448816, -0.6296970814342955, 0.1849994411493443, 0.31733358839578885, 0.13137021595312603, 0.9140096841405163, 0.19923095634007226, 0.4502364159909955, 0.19792335261760674, -0.4002479731894424, -0.38551511581687503, -0.9089142780094688, -0.6468086214072171, 0.8055680702213033, 0.5414836423987954, 0.72627599014687, 0.9456415010211439, -0.758963337375999, -0.3530999092806344, -0.9029598502830618, -0.8441643224385886, -0.654335337972253, 0.8331606900080513, 0.3768776039987587, -0.8638768976426985, -0.33589710559187247, -0.8595702629551008, -0.05903231604535897, 0.2507328494504155, -0.9201265805950849, -0.9760256057172638, 0.6304013429631832, 0.43248856450540063, -0.31213199842575, -0.49010427871471207, -0.4117335394511623, 0.2773561180300792, -0.9680316363902259, 0.5269015959764765, 0.17386203331993655], "b": 0.6369770534729315}, {"weights": [-0.8691027156778073, 0.48466984745552577, -0.019024818921811404, 0.6378779039944436, 0.09700506426195132, 0.05694062710330683, -0.22353263760447062, 0.48543100885793256, -0.5445636159874128, -0.6145559666862292, 0.038740734616221406, 0.14192994406708048, 0.8011638772567902, -0.2277933447124434, 0.031607061158216654, -0.3700471232196969, 0.8687854760010165, -0.8434562475550007, 0.08438127715430577, 0.7040023057865654, 0.08882905320127232, -0.09126172576350555, 0.5368127586552853, 0.9212102091714844, -0.07632644490563467, -0.3437948511161417, -0.35310981442361644, 0.4708472225698792, 0.4060605311036849, 0.511851568548576, 0.7479027235259632, 0.24526725948577477, -0.7290350157650616, -0.5488717928913143, 0.9352662341173115, -0.5734463164903931, -0.7956680154586913, 0.21894505776248474, -0.09429796963863457, 0.08679360443289363, -0.9886215419718369, 0.39325760081861594], "b": -0.7867840901462642}, {"weights": [0.2818526879367891, -0.3066183419137569, -0.8011608597016597, -0.1145894863738326, -0.09210406050864717, -0.18994685961913826, 0.0540485814965046, 0.05483900709052403, -0.48434505708834275, -0.24372083195427185, -0.9468633222703322, -0.14809173188084945, -0.9755511874745844, -0.20391318192851515, 0.4478364809118722, -0.8658476953838858, -0.5573610371305959, 0.9653553083091204, -0.7488352293153455, 0.5991694044033573, 0.8808784210389979, -0.5788027209381899, -0.10661089959635395, -0.23919387854036023, -0.2152235128546114, -0.7196924208573456, 0.5566924643508873, 0.5080847197274716, -0.31846405007449996, 0.06989925451747814, -0.9006874710297885, 0.9726907404315355, 0.5468175874397689, -0.9335375057610533, -0.5884800127712713, 0.8222159941217657, -0.2913032243414315, 0.5161960202443201, 0.3273980653023152, 0.13731300001015567, -0.5438018914473479, -0.2816543729599439], "b": 0.45532721880830973}, {"weights": [-0.5174740147921126, 0.2597082276433238, 0.7278982883177996, -0.300918704521971, 0.3387593916004452, 0.1456892452366232, -0.44553291001327966, 0.1184805298411935, 0.8809153722969376, 0.8110474789022413, 0.4989873769649431, 0.04450410337441135, -0.8254902713801926, 0.902270442624181, -0.056273952321588494, 0.8368804941176036, 0.3829488910531518, 0.2900303086782894, 0.07308312550624185, 0.37074717488912445, 0.9428382474910337, 0.07332125268148704, -0.01436428975252979, -0.2128867742561471, 0.3963435959674608, 0.17070818510613006, 0.33446245683480225, -0.5104363597467794, 0.7130923471021096, -0.915056840122112, 0.43922577280048847, -0.9006318419364228, -0.7149597558212619, 0.6069840095637997, -0.08172549413300656, -0.47779827679437514, -0.3536234676820047, -0.9527826254067882, 0.49609883668005006, 0.3525844995824572, -0.8046621168317134, 0.6642366466780818], "b": -0.18798443181245594}, {"weights": [-0.9197739762401398, 0.3189594359582688, 0.3349130249735677, -0.36969740813196883, -0.769836570483815, -0.13434143154805556, -0.4751983402892437, 0.5827531113965287, -0.8968732538855735, 0.8423936915382291, 0.7671410816754807, 0.34733740696233406, -0.2661436433914246, -0.7316398195132594, 0.34641783032581497, -0.37614783124076356, 0.4494781167463031, -0.1936529558943496, 0.22289762202148, 0.5741732654990688, 0.6878277965437436, -0.613566784546707, -0.29923784610495363, 0.4434810394273698, 0.4320227854180676, -0.7637828720349831, 0.5529964155154372, -0.24101214536731397, -0.008322699054792437, -0.691146932885137, 0.06989935768290878, -0.0009901092406046086, 0.945148981818493, 0.12423607867514952, 0.19689511055808118, 0.8622121590417382, 0.3257838079380695, 0.5855906494896075, -0.6884980858725569, 0.775121997562594, 0.5175805952544792, -0.3743953349475031], "b": -0.3156535768150288}, {"weights": [-0.846246739574515, -0.9388955305876667, 0.06310168730605037, -0.5352361559466616, 0.10448182964785069, 0.8271236498052321, -0.7514601410455146, -0.846757902988587, -0.6186044160690203, 0.939080752802955, -0.5226038210176023, 0.9554944760703408, -0.38233534266186653, -0.8586727469790931, 0.2966077132486269, -0.2061331535788955, 0.5082424368823215, 0.9752632513021433, 0.689429210711493, 0.940517623350485, -0.5494389142376621, 0.8982226523281329, -0.24521711929154288, 0.1761658393966512, -0.7637301929571532, 0.09669780793814753, 0.7434678226025302, 0.6317896181874809, 0.9579461279254944, -0.6622154232943596, -0.9891504380562262, -0.9416361371431368, 0.5994558985606591, 0.6206974154916338, 0.6730876281913711, 0.24585094797451723, -0.1926387600516375, -0.3304535485617801, -0.5812065824515036, -0.41923645801757226, -0.34866527712681217, -0.37380536591250935], "b": 0.893008750203895}, {"weights": [0.9275481416413822, 0.8695412605493207, 0.45867579599893804, -0.4002839868336161, 0.6493808402643282, 0.93473400270102, 0.751992690896893, -0.24576378463973514, 0.6117162771311606, -0.20927789224983395, -0.629164696813135, 0.8822406617568228, -0.768577378746967, 0.22377709879145535, -0.5623495793253781, -0.8413841230467172, 0.16431091545712873, 0.8102063772729153, 0.7117172316358078, 0.8602287907594037, 0.15587600696792814, -0.5309452448646075, 0.4669062046127921, 0.2011365870640629, -0.8016901038782422, -0.5655192968336571, 0.21684713559235647, -0.703046844110677, 0.47986305770797455, 0.8857769389173875, -0.32011424430047986, -0.9057572652152968, 0.5156783886147502, -0.5516179627162017, 0.16932496146371134, -0.7543535755827329, -0.009926909659552674, -0.9044398831171898, -0.21970531927168646, 0.3672322432405213, 0.8665235552230077, 0.7426734906188046], "b": -0.1967736666405624}, {"weights": [0.23874180293112923, -0.6811766708575588, -0.6436344572473058, 0.41024664162213864, -0.48266417026492214, 0.4726599845362993, 0.5182491272985656, -0.579662534303331, -0.9128819962802646, -0.6659207311088053, 0.16104980312070794, 0.458377757846153, 0.8800413428373504, 0.11353134575619128, -0.9840859056586497, 0.3412577413464055, 0.3256143030872285, -0.7271152845833833, -0.6630535536578113, 0.3641500026684623, -0.298226734783416, -0.8397956083019078, 0.8076012252030125, 0.888713393601783, 0.09830971202315752, -0.1958953420157663, -0.2629997194912095, 0.8030885931713747, 0.05568739159695979, 0.974206167535373, 0.09444732600950667, 0.49797943734697725, 0.8836230521467785, 0.21934393503294958, 0.6759288675231923, -0.09997033811180933, 0.7902215928246221, 0.5833008183636523, -0.4651575112155679, -0.11713324198562391, -0.7684413568837443, 0.8266223516931743], "b": 0.9395815539578827}, {"weights": [-0.7713650534087717, -0.8215344354843064, -0.3434809867947999, 0.985204704167304, -0.1990107101135028, 0.07754348318565318, -0.2445227463376649, -0.6655707518790555, 0.5845501789867293, -0.027132162425560935, 0.03325761050035547, 0.9339061426916344, 0.46308058345879366, 0.3337425129084626, 0.7644444391603575, -0.027044573697619034, -0.45489028374560925, 0.26913058560738534, -0.42757947998396073, -0.20297443032103835, -0.7329253197206644, -0.3358233049600101, 0.029500332526686934, 0.9290859708597685, -0.3746456343973825, -0.8149965942087438, 0.025789603999249344, -0.8378654407649089, 0.3095446186244166, 0.7451451915656206, -0.28819810816543634, 0.35773756710274673, -0.7483033474550977, 0.1878595346783405, -0.13853506554704365, -0.5362964208615604, 0.5268493653232371, -0.9162536243351707, 0.2822785799333911, 0.29084710301377203, 0.4459853663530513, 0.659122196114815], "b": 0.4779043669993186}, {"weights": [-0.7908405878961424, 0.5173333065367227, 0.9697603335983003, 0.6262341986707884, -0.3755714207129086, 0.596950391046511, 0.8783745151352105, 0.8722552808287964, 0.363836256748433, 0.7510597082629309, 0.9812897085358598, 0.5078687229037673, 0.5587065539342342, 0.12952431156958544, -0.6755731694487601, 0.3602347873397185, -0.4783099121674683, 0.7253981685268496, 0.49481211434920325, -0.6258101317866585, -0.3250375159042802, -0.13234091273003457, 0.15444270486284495, -0.553896082148837, 0.18320215902589632, -0.7911034467146236, 0.8111363806767473, -0.14610374629841716, -0.8726265778995934, 0.8064959973795269, -0.8697268154947071, 0.6065188358796592, -0.7403785309701654, 0.37328561580016584, -0.3451897095490013, 0.5129552467346483, 0.4551575967844481, -0.8562001794145171, -0.7842691902555183, 0.4250514711087021, -0.6423655488238229, 0.22811973766484694], "b": -0.017023172778376505}, {"weights": [-0.3299238313648407, 0.8046415848636004, -0.7100133637852077, 0.570450957457614, 0.5459440151677901, -0.9611381684588323, 0.16570261592077173, 0.9702208714846552, 0.19504937673885525, -0.10091725798828421, 0.39632082274907776, 0.6676060764561242, -0.0714564926438086, 0.2848936719944031, 0.4579307705362894, -0.7824628830059228, 0.1296926695440972, -0.10434762653063334, -0.4991943141666213, -0.4105135040203802, 0.33929192976065736, -0.6907590242366044, -0.46577632112249434, 0.9941365111540743, -0.21580800734686423, -0.45580135124243526, -0.44780236108161975, 0.32152259801312466, -0.34760216043448566, -0.10930884655027673, 0.12424128688628877, -0.9047719305083788, 0.27145718184659384, -0.6134774035827488, 0.12512752668105276, 0.791597569382724, 0.2555232850829954, -0.24656868358578654, -0.8446806468468007, -0.1908545081847719, 0.968081371910885, 0.37171158063524223], "b": 0.3520355402796187}, {"weights": [-0.4166068258434146, 0.032459688460750646, -0.40119651158611536, -0.12511472129436174, -0.3776664190027854, 0.726672028949247, -0.14041512921977017, -0.18698158863204273, -0.5543778496328016, 0.016379461230232817, -0.707931529987113, -0.4746348767676758, 0.5989201537058821, -0.5212024181356929, 0.7394847246167096, -0.9804729383334043, 0.3358069619666024, -0.06675180032985906, -0.5593231680288497, 0.4323320909099324, 0.060636350612927936, -0.3855499728234084, 0.5296201279711032, -0.9789767866537498, -0.6061619056128391, 0.8642087008980064, 0.9608265021130729, 0.4026794678487793, -0.09738605981707082, 0.32468261572181367, 0.6765475084650159, -0.9374481491197808, -0.9703800001675897, -0.5041666736793695, 0.7238364022012564, -0.10476283162808198, -0.6177927639165188, 0.016936760940584383, 0.30074399761228143, -0.7208554432448406, -0.04189869158048998, -0.5054839670925846], "b": 0.22042169135403822}, {"weights": [-0.6901969160769748, 0.16046444728288445, -0.43250276130598997, -0.4380641020811471, 0.960857853323595, 0.7716713198491962, 0.11930858207240047, -0.7735166811082428, 0.5393547848531788, 0.3815402685591751, 0.35854493048574465, -0.6273650604388212, -0.32152175133988736, -0.18542381937036878, -0.9406089529421109, 0.12132156097590929, 0.36187216481977513, -0.8804211377105136, 0.2180815957440183, 0.5840043513313811, -0.7889885932209031, 0.24569796755755702, -0.6866983269577491, 0.010976386206585032, 0.3966983259905832, 0.5303586961977693, 0.04983781743729376, -0.8470317954817108, -0.6689276785824607, 0.43244411299779295, -0.6190570152433543, -0.2044432179871738, -0.7997911116109451, 0.24964726865788656, -0.25504120289873167, 0.8000588545200145, 0.9387300470322044, -0.9622196973061907, -0.6781215224166386, 0.5638023978742484, -0.9058151455346004, -0.24206034047903469], "b": 0.213541263673372}, {"weights": [-0.1259465884453328, -0.47460279084524637, -0.42073070314323013, 0.2506727306554333, 0.49389072569888004, 0.9328053173166158, 0.9059875151299257, -0.03648872988559959, -0.5355018722630995, 0.49644149079981736, -0.21623404176367078, -0.6270025607210818, 0.9059982205125479, -0.9105585020690399, -0.43114658067333234, 0.8255567393832608, 0.3904440760204426, 0.0056425231965182565, 0.010829831411643065, -0.880597336601068, -0.5624562264331865, -0.5971561156280552, 0.9047491092983331, -0.4116080928093162, 0.7146543639656053, -0.20042681923891825, 0.6189531603403582, -0.09135898816156973, -0.019019847630184827, -0.9889782386035426, 0.3972727619045182, -0.8454383553698694, -0.20046719763653886, -0.29447031441597615, 0.07085972190963807, -0.5367228362455958, 0.8474423171428891, 0.9532695680568275, 0.682054768958765, 0.8587443323018831, -0.12629958117643336, -0.737491155178009], "b": -0.649889379213749}, {"weights": [-0.5406558443991298, -0.793955619338732, 0.11354453079401639, 0.22969400756647196, 0.3008781301034307, 0.36379403237448993, -0.27992400048941946, 0.6483288612622542, -0.489204051813646, -0.22383333600513633, 0.37869048341756284, -0.15704109145466805, -0.20691405285201125, 0.050110659718229034, -0.7682655632380797, -0.9521137152470853, -0.2581775100366701, 0.9198622501230831, -0.8961579288995825, -0.37188310717292783, 0.5572183323857776, -0.3592067298558228, -0.7355271749206982, 0.8901871454702142, 0.6992922213835189, 0.9621053490109486, -0.9920796369624192, -0.38886264793784076, 0.5555982352434452, -0.8652127938322092, 0.8136085701881577, -0.4785986420906072, -0.6209479544903025, 0.30909997237240705, -0.30787619036873837, -0.014170610359901525, -0.34447699860602743, 0.5780227384566545, 0.8085366633665354, -0.03546868459061869, 0.1289812048081045, -0.22860399346479632], "b": 0.0235247925534805}, {"weights": [0.73660900263506, -0.5508824398663359, 0.18003927480099868, -0.8170399536082482, 0.04984341415593474, 0.8588202001909013, 0.8069874148327367, -0.8323533832597254, 0.2089999487772385, 0.1503790543389507, -0.9960543857835915, 0.6508244973266426, -0.4195659925466191, 0.7435064685208772, 0.34992652366170596, -0.40216267386042337, -0.8165267312274662, 0.5191112639268549, -0.507675956862051, -0.6486955914186814, -0.3800636672109552, -0.13724628341933975, -0.7823569093961593, 0.2768086957244338, -0.03803432485035452, 0.01260402595424015, -0.17688316141393767, 0.04958832963637172, -0.40572916607291454, 0.2802022108075777, -0.13615017742444913, 0.1455808476976157, -0.9973002513505203, 0.26312060607078913, -0.6833406607757935, 0.9063548316486647, -0.7303411981569703, 0.6850737277468602, 0.20107689945637963, -0.6214057019255388, -0.1399627394536056, 0.9381758679931569], "b": -0.9013778466330578}, {"weights": [0.5596954054432515, 0.6987775709467063, 0.4340539524075293, 0.2421669086907976, 0.9854145001490746, 0.339661058675776, 0.9382320429737427, 0.31890524374324336, -0.06658766827855866, -0.12216871670098839, -0.2827455477891423, 0.3018469381830917, -0.3899598344695576, -0.006452934980767822, 0.2642470712694216, 0.4801715645665934, -0.6014667178793036, 0.4362576072500821, -0.9561358819996262, 0.4668665320194647, -0.30739284311135395, 0.8900452296417789, 0.15267090090559465, 0.059192861129407026, -0.5546936404365013, -0.43498022390130253, -0.7530845557854984, 0.9473337104983364, 0.07888114785418243, 0.3886007731210792, 0.05603208290067663, 0.7557566282791119, -0.49039196074685476, -0.2576643219955239, 0.6058062400486386, 0.7520277343167214, -0.3446985667651703, 0.5555641990771347, -0.041740110623858406, 0.32229939748231873, 0.22258048794122676, -0.03260861480863575], "b": -0.8708090613026185}], "output_neurons": [{"weights": [0.3677897053647301, -0.3146178260677761, 0.8273358583938313, 0.2855578241416714, 0.07915171944615151, -0.06599095266409383, 0.038264443545233284, -0.6376666518840644, -0.2820866083308964, -0.6368687731384659, 0.7345174419977618, -0.30709650624978657, 0.1976300278337726, -0.9147429635809896, 0.21222639190101789, -0.9044358100512302, -0.31773770815005875, 0.7202263388168781, 0.24955746979687787, -0.8770792339815103, 0.8992471004247076, -0.3087956026909908, 0.6654675166267365, 0.5728691014873504, -0.4485731276471361, 0.6958438830516727, 0.40382307311591625, -0.30845837060783987, -0.7787710974949824, 0.7714929426020052, 0.6679799703531959, 0.41910774341384704, -0.0727388335150525, -0.5933873866304704, -0.644493731387795], "b": -0.5085898361372816}, {"weights": [-0.3528884675250956, 0.9148062577955494, -0.4623155111193529, 0.852856450542375, 0.6139158061800389, -0.39455054016731883, 0.0401356333509153, -0.9548016338058374, -0.4367614901564889, 0.19865352582112106, 0.2510539291528888, -0.6549520859811331, 0.1167539017782846, -0.4835272970869371, 0.33456864168511347, 0.8038286233574519, -0.7094370468008366, -0.4681739025594731, -0.641652164223627, -0.4879387541129603, -0.8171745430451021, -0.09015162376121633, 0.6887285638319869, -0.07917314674945697, -0.2798370440904008, -0.39739273448000323, 0.8087790164708679, -0.5434961403604661, -0.9591249358422682, 0.7000012656437231, -0.602876163886606, 0.17669890901929697, 0.3696934273964061, -0.19963757319367237, 0.6705228194513184], "b": 0.19754758397650374}, {"weights": [-0.8931867023938906, -0.3003962082499576, -0.5916139303227739, -0.07506521080308759, -0.05162255312737174, -0.6470551199563783, 0.07824190137685783, -0.749740961229935, -0.5366062286799589, 0.9483809284184646, 0.8858298840516812, -0.41529961567741425, 0.9566782559172755, -0.5711722396706906, 0.9357363325854009, 0.4036283494267714, -0.6228661264156936, -0.6911892118077154, 0.0007926174069992076, -0.018504471798802324, 0.7108754203882197, -0.27017279529538274, -0.9187402945828911, 0.7295671424622043, 0.6171542170339575, 0.6932663502284799, -0.8992703575446377, 0.5124426114030687, 0.7165058342673001, 0.4041746733706588, 0.224714465870117, 0.37406446059281984, 0.9571493037526448, -0.8903994745632733, 0.6859753687228463], "b": 0.9834915563033857}, {"weights": [-0.5505894285221968, -0.888200137895677, -0.36260976752374185, 0.007115733485550058, -0.8108222847905544, -0.43490794810322275, -0.6929291675528739, 0.32682690728487085, -0.7511207027115276, 0.7729520740704403, 0.2050715362232376, 0.28516583833601916, 0.4747570174100719, -0.6690354240689751, -0.04109141208089495, -0.9399200582153211, -0.24919078042744558, -0.3751377431850127, -0.9772407767745197, -0.7444062977413883, 0.5806562128768302, 0.9858882017738966, 0.395905365862941, -0.8127978121490664, -0.3160181551683803, -0.45626644187520404, 0.3939153686897474, 0.13240843822250103, -0.07323785349515033, -0.6564198937419676, -0.4966255688499339, -0.9188249730502329, -0.6789030455945226, -0.778300246797518, 0.019989891894727663], "b": -0.4847781673058067}, {"weights": [-0.9696619045487334, -0.38175571091730576, 0.45430202638568096, -0.22418042045241182, -0.9127065774634855, -0.0499604810216967, 0.6079831992328177, 0.4437472491891581, 0.9710619110086494, 0.7781931015304349, -0.4933649474901616, 0.5711408969428193, -0.2514075557243465, 0.31730198378913266, 0.32937748812368994, -0.5738162437345375, 0.6963440608840465, 0.7162448214896449, -0.3467807162947518, 0.14950386852420672, -0.21627084672011065, -0.6075284116004533, 0.10007488673383169, 0.07050053141215362, -0.4494563644291558, 0.017291579355845244, 0.8952349441140071, 0.46104401118239813, -0.320656777228421, -0.524151262709118, 0.8591076654389871, 0.3700700160899475, -0.883012630172944, 0.5037988840797296, -0.13586053276457877], "b": 0.6185575094898299}, {"weights": [0.8450595763319231, -0.4096390502187113, -0.42907223241589487, -0.8431230798971261, -0.1391325631183833, 0.6309544192670211, -0.4428451483663003, 0.11194913500990555, 0.02001123068798849, -0.9041523250436236, 0.3024885378180213, -0.2834184182925288, -0.4880721905435381, 0.6275698956976563, 0.3357575149722163, 0.9427158578054198, -0.3127017482885939, 0.6685754680686062, -0.540323961951181, 0.853436532325504, -0.280996102260769, 0.2964703359257743, -0.03854216264490873, -0.7896741512087384, -0.49119502124301717, 0.29467191345663113, -0.5129210739728558, -0.46413895301582664, 0.5093760159926612, -0.41763438832639355, -0.489293379969747, -0.8060202220232695, -0.15486920598415788, -0.510377087616847, -0.8881662914436372], "b": -0.11410488421376996}, {"weights": [-0.7924244095599846, 0.9512318752012416, 0.9366513262109066, -0.49087942254764894, 0.6639851260683924, 0.8186070206654568, -0.8309048048555083, -0.6383723743625522, -0.8490052626215681, 0.46024916415040296, -0.21161572444114785, -0.4472588229742993, -0.9888453672146409, -0.49470816221320235, 0.7310660490610319, -0.6471255904912914, -0.13652307590587553, 0.21836605023926747, 0.12463099257413135, 0.7251881486292537, -0.6061860274904061, -0.9168953388032037, -0.7873951258623808, -0.8118492995523736, -0.04506611303164232, -0.42859691739068606, -0.1570147420992063, -0.21288415644882375, -0.3945711875214133, 0.4709267204441874, 0.3514634786579782, 0.33843447904749335, 0.7721111635513309, -0.589007384722235, 0.3111962052478532], "b": -0.13818189839396533}]}