{"input_neurons": [{"weights": [-0.365909034903912], "b": 0.6965096937718875}, {"weights": [-0.6401113429689651], "b": 0.8360757600780433}, {"weights": [0.19071583648554413], "b": 0.1603521290708605}, {"weights": [0.48112695884990253], "b": 0.96153762759456}, {"weights": [-0.8471002652708299], "b": -0.4337233758331882}, {"weights": [0.10809619050234986], "b": 0.293030727814247}, {"weights": [-0.9361868347156423], "b": 0.2385465905659141}, {"weights": [0.9474414410399896], "b": -0.8336624089788809}, {"weights": [-0.0307280745872629], "b": -0.2702168957963682}, {"weights": [-0.18951893309905832], "b": 0.9735985186724292}, {"weights": [-0.12282566696329233], "b": 0.9853151114683019}, {"weights": [0.6976030807493603], "b": 0.30446886165406406}, {"weights": [-0.74694754726392], "b": 0.10104224959606234}, {"weights": [0.1756574887226514], "b": -0.4678644798711371}, {"weights": [0.8598552764235885], "b": 0.5760452893170975}, {"weights": [-0.7241344168456023], "b": 0.734571898877699}, {"weights": [-0.6094704089556846], "b": -0.9883855578652165}, {"weights": [-0.8329506299907223], "b": -0.5246550822509894}, {"weights": [0.41161825214777426], "b": 0.22741417382885643}, {"weights": [-0.925569232541124], "b": 0.3010293560398194}, {"weights": [-0.8664716066336664], "b": 0.3888136072392987}, {"weights": [-0.6436142912889229], "b": 0.3643184186421793}, {"weights": [-0.9362512874760964], "b": -0.647755324033576}, {"weights": [0.6578008429981075], "b": -0.08224577358718888}, {"weights": [-0.8867616484101446], "b": -0.8016432625720484}, {"weights": [0.6432115714524749], "b": -0.8277992644075811}, {"weights": [-0.5653996548162856], "b": 0.16925077695661717}, {"weights": [-0.031052477848815485], "b": -0.4745198278201854}, {"weights": [-0.14879100044232896], "b": -0.9143719068516285}, {"weights": [-0.17059753189710092], "b": -0.7135610710173548}, {"weights": [-0.7976295385935064], "b": -0.6190902728004519}, {"weights": [0.49982744204104224], "b": 0.9458753360930441}, {"weights": [0.2565743670796443], "b": 0.17324654234298964}, {"weights": [-0.30145658915975493], "b": 0.7869247139150712}, {"weights": [0.4508981260394971], "b": 0.27373366249495223}, {"weights": [0.8136098759585773], "b": 0.529153321664722}, {"weights": [-0.8869668596651898], "b": 0.0015825070351951354}, {"weights": [0.1467655396456662], "b": -0.8855574342529582}, {"weights": [-0.8297393952898195], "b": 0.9109539857601616}, {"weights": [-0.23052881347517817], "b": 0.18962116694443498}, {"weights": [0.3834459679493969], "b": -0.9918947601287198}, {"weights": [-0.46290497177215983], "b": 0.8420775953010393}], "hidden_neurons": [{"weights": [0.4826975097971289, -0.46751267049992573, -0.21080991329728405, -0.918397125090612, 0.6827458681986265, -0.5314018417012902, 0.6532539694650643, 0.33861925995889175, 0.7463409274688506, -0.6758804404384462, 0.8004419807915828, -0.8432306154930727, -0.01873804738678264, 0.7427371988415501, 0.5721257234771822, 0.9104426386004851, 0.3852435724666545, 0.9089242789574485, -0.218858914606209, 0.3828608065208807, -0.27546054846841583, 0.3582389254639926, 0.6927234461593321, 0.17114136403892855, 0.8447500665685306, -0.3471633585191447, -0.7169156950717857, -0.9596624869908554, -0.6106480576739524, -0.67903336489615, 0.8987005327697837, 0.19990091761997153, -0.9437482334759997, -0.15637638282509725, 0.04102422056094435, -0.8513829365279744, 0.5330016514331504, 0.9964986725573952, 0.4791260831678066, -0.7093625425781063, -0.49816452515459475, -0.9054605206145314], "b": 0.015578792086963222}, {"weights": [-0.21568013058772428, 0.727128201248751, 0.6955528208375568, 0.5519909506918961, 0.6449237317130974, 0.1334914998995509, 0.5008754103056028, -0.3356736254577246, 0.8155379199869761, -0.6420340980780002, 0.4748714126247884, -0.1724262955192426, 0.966812294038011, -0.004478097441741102, 0.5923888435590838, -0.6177719099973906, 0.1511738982750792, -0.3249114296492177, 0.849762359948554, -0.9672511385364608, -0.42300069394077555, -0.34409805678558936, -0.6322054101186902, -0.7397635084906378, 0.5931285104141109, 0.5692345953228553, 0.4714527014697507, 0.03264502061015939, 0.7958207728780002, -0.3676464688792245, 0.2628104093969359, -0.30377820069515016, -0.591966982690084, 0.729501776541716, -0.08637011812990214, 0.4990093208581423, -0.15918953614974862, -0.6130411737281642, -0.4297997930773838, 0.45033856277308604, 0.8187479466473113, 0.7105858104579486], "b": -0.763344192929134}, {"weights": [-0.6226284696802133, -0.8466342354585483, -0.4614956305341067, -0.48332668423886926, -0.21960984501446013, 0.8699574130712266, 0.641626915926049, 0.562001951196681, 0.8291297022237849, 0.9011001794438183, -0.9653218324547683, -0.8643502590942147, 0.083536515350906, -0.27789814324112627, -0.09426671840267975, 0.521057704135355, -0.05293020104754631, -0.7712895965058104, 0.7755543094529562, 0.4419683163251744, -0.8618294578284849, -0.2886264987950604, -0.4317329860805821, 0.3150638870564648, 0.8663282536622909, -0.2663223707342155, 0.81314672201941, -0.13710072934479256, 0.9196653528445689, -0.6931398670788695, 0.11443808119830257, -0.3613230515952166, 0.9270267621426826, -0.183456149242881, -0.03789648527232914, -0.012991026795669436, -0.6033956611024243, -0.479089974306121, -0.9746121761757658, 0.1374334331862226, -0.4007702926764536, 0.7482102741153791], "b": -0.4307350542149282}, {"weights": [-0.9033526901036077, 0.22226661204245013, -0.9990925725241979, -0.8568687710020044, -0.3453124041403961, 0.03687241642213457, 0.015430441768613523, -0.6506329273027873, 0.20849609964070726, -0.35987215140170714, 0.12389007222323412, -0.7028592771805953, 0.25008604887069286, -0.18565152570138999, -0.45798880076699744, -0.8780012715584777, 0.2100104310674964, -0.47035679394914043, 0.13165849189803702, 0.278224104080911, 0.2788101436186794, -0.4338884117245967, -0.7619551427019648, 0.42033091485107765, 0.2817169996269415, 0.3540719308312481, 0.20359906322932209, -0.8026068600114078, 0.026388420410188518, -0.883514020085785, -0.724350492379414, 0.20808177655504045, -0.9401699192657273, -0.5073194535580581, -0.2552441592290069, 0.4305785494717942, -0.963436562862154, -0.7689221243734954, 0.8372620269042679, -0.618817929934792, -0.9725126112076219, -0.9278244916754663], "b": 0.6458995852811262}, {"weights": [-0.1625146216158433, -0.06411149165389252, -0.46939901953526, 0.7407315425863643, -0.7611192100439887, 0.4664354633507244, 0.3526121507834199, 0.17321726894263478, -0.9066633041052732, 0.058250125542725906, -0.19446481615257571, -0.4723535002175743, 0.3148226450797771, 0.09711063043400614, 0.5314957071142992, 0.7817156008658457, -0.07732186015800502, 0.20737612323300025, 0.08023639826265327, 0.22371605506411218, -0.8763703828334861, 0.013565972572225027, 0.07466924044707857, 0.6961813481332633, 0.35902736941126934, -0.8521693659660907, -0.08495189100012612, -0.5878308803254768, 0.7954929995722191, -0.3591644186714731, -0.48116967120050713, 0.8671454825006668, 0.2723734944842535, -0.1547150631520704, -0.0066697399134065805, -0.4028616536447489, -0.5897961655081703, -0.324008152600201, -0.40968820879287704, 0.9546150100295105, 0.6810168525994198, -0.05454533957481633], "b": 0.60818382869894}, {"weights": [0.5107454922721124, 0.9650704171061635, 0.3221147670362008, 0.22914001588717814, -0.5787133816276031, 0.12284052510046428, 0.4004783200378921, 0.6608175733808739, -0.08947020311650267, 0.6758229849096347, 0.05094416633744059, 0.2041078010404591, 0.5451985831985293, 0.749412439577491, -0.2297119648627024, 0.8231278819191179, 0.15103508208697325, -0.42425496246216765, -0.9929818259177443, 0.7788503374690274, 0.2388257794759494, 0.9503361103370453, -0.7799882482057141, 0.4549166495317294, 0.23038837558006642, -0.15451043875263637, 0.5179853324649057, -0.6229561687857141, 0.37664399960766093, -0.8948705859261501, 0.09984003375183903, 0.5518607076443061, 0.13954011342490813, 0.4620631712556973, -0.42237596338724415, 0.46754777818773774, -0.7882311850210448, 0.5043242531441865, 0.9441916094423926, 0.6792095407653207, -0.23854135771705676, 0.671944170676829], "b": -0.06720509468268698}, {"weights": [0.9874751818015397, -0.7644096142116734, 0.48950199332090283, -0.9678289505396944, -0.49062553686708266, 0.009034421549721339, 0.7869277743710641, -0.1092021860733905, -0.6923805088862467, 0.023284218064613782, 0.9650000676425246, -0.5955021070773516, 0.7294178547696601, 0.7646622406012684, -0.5504304995039038, 0.8000037092082195, -0.003638806060206168, 0.5524786781319202, 0.6264674022575307, 0.785146926380591, 0.6643760574868078, -0.459432224377891, 0.3133622730485235, -0.20731622243894798, -0.699732876434537, 0.8759997092429095, 0.4092956174008233, -0.5858795612766787, 0.40635279317468354, 0.44068198200729003, -0.15576663980807925, -0.19452709808165247, -0.5305482367270946, -0.4804432390225799, 0.013956505563903265, -0.3969701333477298, 0.9231544020417568, 0.12336101656722431, 0.3908233388207072, 0.15165283919636852, -0.6713353594692371, -0.8935277779049451], "b": 0.3250520485078521}, {"weights": [-0.8605606451596328, 0.824590906300374, -0.6973324444888633, -0.8508738937903884, -0.592302656821339, 0.9039357925214411, -0.46360312533924586, 0.1771791472603388, -0.9697899826190595, 0.7249853602218794, 0.1032787816160583, 0.22190350400048575, -0.7181986576619686, 0.009964253394122657, 0.5862590961941387, 0.008579544747779444, -0.595091721061493, -0.25067598279368375, -0.09872680550476454, 0.9445508893183419, 0.8163613702025492, -0.7015115115981785, -0.09670415331269244, -0.10033791649350654, -0.7934662836525284, -0.22865114171518486, -0.9869809386252748, -0.059670957775883826, -0.020153863409346773, -0.12051048614505477, -0.8153021598502401, 0.12371307446657598, -0.779258836695855, 0.27498199260702627, -0.10255633806763975, -0.4936524712108401, 0.8391161923468584, 0.6609071992083075, -0.16256349787261226, 0.19991434369559147, 0.7977784721151429, -0.39683614221033925], "b": 0.6462873752606708}, {"weights": [-0.9650903462942495, -0.32416401240826787, -0.981923096380642, 0.01915070084470516, 0.6751259411677224, -0.6803087499552363, 0.48543585442255033, -0.7427730126425769, 0.8786007019354416, 0.3361118713515254, -0.8279670144234237, -0.48138179762856037, 0.7827026371882939, -0.9032072748807378, -0.20953801912312797, -0.25972290007708576, -0.030296253961025643, -0.19654994904302758, -0.30302956966681416, 0.44363696134408803, -0.3086412661876512, -0.2796811939976347, -0.6647970297171728, 0.6939148204783792, 0.06815641198097411, 0.43321654118923836, -0.5553233036376317, 0.6564774880867812, 0.2553194328584485, 0.20783860260136322, -0.9477459511595911, -0.05722545445663618, 0.6077544001730308, -0.8627017673435275, -0.2339445775330844, -0.547200008669122, -0.5147722539320574, 0.3287077100933744, 0.7315924008140544, 0.6092331551689676, 0.7879667945282667, 0.10729157785944698], "b": 0.09079655910713735}, {"weights": [-0.027252674032415047, 0.3596478377419401, 0.12547032792856272, 0.4274399340037809, 0.15269206295922744, -0.8090401789052448, -0.10678645076225379, -0.9386580788965584, 0.35217731982131917, -0.632396638962311, -0.231986890567782, 0.048302526541265545, -0.15925323638990108, -0.8301688793927624, -0.39259221765843044, 0.9353941263065308, -0.2501465360896864, -0.3899782893836199, 0.05835557505185052, 0.004142553392061377, 0.7482122847454196, -0.1655522088476069, 0.4250800544651847, 0.07628424222916186, 0.17488273902041418, 0.6485882086137964, -0.6824079415753637, 0.5576505878833891, 0.6155184735997439, 0.5383583046241176, -0.3240261977373877, 0.33318643862204533, -0.2793341206226938, -0.1854460300043168, 0.6334872137148482, -0.17172451812807554, -0.7345173253016142, -0.8844668483901732, 0.7281780598449501, -0.5148818374175339, -0.09054515684786213, -0.8926885935335409], "b": 0.6214707673013329}, {"weights": [0.5679803049250076, -0.3433661131003476, 0.7211136018904492, -0.9248725502459627, 0.44253373388279216, 0.5293484226278153, -0.07448778240789267, -0.551420833828693, 0.9605376931760008, -0.2620106501785653, 0.13469059176044706, 0.06278911175035984, -0.7501003182029891, -0.39537932898861605, 0.7696957643317279, -0.0280572280396727, 0.3611729526202212, -0.4635106780835021, 0.15684929046573926, -0.478362601873652, -0.13118134230578815, 0.5596069957394092, -0.29451452584834725, 0.7938769421670118, -0.9630267433318558, 0.8660528777570586, -0.25414813487122556, 0.19113172097948206, -0.32067979642720257, -0.15872026886708746, 0.8220135307589718, 0.14498480131143987, -0.003990764642987976, 0.5131060804378624, 0.3893891301228236, 0.5010400883723123, -0.05948591884654064, -0.5174983328286578, -0.24384595098565875, 0.7702053684665298, 0.04738070870503197, -0.5939767065820523], "b": -0.5718801862277558}, {"weights": [-0.717410915823137, 0.054203141815673206, -0.7851934409049941, -0.2840552483158756, -0.2981528812858918, 0.943909245589821, -0.4833630012933883, 0.5781324249691437, 0.8987156452035099, -0.2852104619087672, -0.20400123733012054, -0.6283847056173253, -0.41912254779365643, -0.6407617467710112, 0.6333785024901071, 0.38555959034298537, -0.41974740098384844, 0.763200179041565, 0.8124954946716234, 0.7778047571419138, 0.2894588402067868, -0.9135146790272644, -0.3887521494202908, 0.47331125816929687, 0.38687109897862104, -0.17615855997446128, 0.9573101116027358, 0.9080084041517316, -0.7057356857911012, -0.0626180774816738, 0.5193332015315553, 0.4268967850911347, 0.7530012716949337, -0.12096952634488245, -0.49616325886623125, 0.44039215337450166, -0.9621196389766611, -0.6508150693505332, 0.9642991287912681, -0.8057989173114373, 0.4814445702340546, 0.40352839356689874], "b": 0.5851469397046754}, {"weights": [-0.360183725586688, -0.5689310001608714, -0.929456004078641, -0.15181190871697514, 0.7163047960399787, -0.3689196837948836, -0.15968626804293073, -0.42795449575755273, 0.8612775419265091, -0.6908106912337992, -0.004748497491186665, -0.426668250152215, 0.0735598378712583, 0.4511705017832346, -0.8361311130901532, -0.8205233626848121, -0.24006695800414302, -0.790782253929257, -0.5464035102543419, -0.3096466794062991, 0.17121459379420179, -0.7124913182380699, -0.22053500407785087, -0.9090801104726478, -0.4773347700419712, 0.8222595420860821, 0.26077648614664883, -0.7451812808794238, -0.9520867882697079, 0.5492890283650784, 0.38806009219927207, 0.9675835537720223, 0.5526620090659413, 0.9893824971839453, 0.09712322417906072, -0.449938505320866, 0.7412370962497592, 0.2866337196875779, -0.9951962157777965, 0.7766855487898845, -0.8325478823907777, 0.17102545588620677], "b": 0.2049540292623393}, {"weights": [0.19741012400916924, -0.03761083747914462, 0.7460000067629318, -0.42089249832364195, 0.7231923395045992, -0.9817822792741864, -0.6224872653265416, -0.8548777465461783, -0.7500709438317936, -0.9343344443068884, 0.8507347195780153, -0.7415846378240485, -0.12382283217818024, 0.3285259846404074, 0.35556030002864225, -0.25590810524146645, 0.973967978410073, 0.7649446654119771, 0.5350901273218804, 0.3163461319396612, 0.702923158058099, 0.3693162606632705, 0.25447036145330326, 0.2822859392347241, -0.16205690837498743, -0.6415158276486845, 0.28388686783077155, -0.40412339322909396, -0.8574617380905851, 0.00024401531775519736, -0.9061978310866032, -0.9849205083239538, 0.43608819386392605, -0.16906577307839843, 0.6407767629027095, -0.7086739459453466, 0.6264589480247353, -0.13736186171699005, 0.15781683761965826, 0.5958388781080093, 0.5797267777803288, 0.22559317553309244], "b": 0.7191180258330343}, {"weights": [-0.6820695932860452, -0.7386839020098126, -0.6731921712403117, 0.11418956499788813, -0.1667297622994095, -0.08882530146748646, -0.628082681877052, 0.6624337383730146, 0.999287445102534, -0.36607721563994944, 0.1667573326646481, 0.7287396161623376, -0.944986100776547, 0.46622821010515203, 0.4817977019395401, 0.48346790334626766, 0.7234182140178063, -0.418583700396415, -0.45174371889083487, -0.6240404761084677, 0.237570562364666, -0.22129873710158576, -0.017799365425198665, 0.6004703485592693, 0.8954635817751617, 0.4243913282321483, -0.9685359871008312, -0.7600299818268443, 0.245792006538619, 0.1737640846276567, -0.5153320872885834, -0.3987441243772387, -0.14387716905329961, 0.6714290868808916, 0.5997293255394025, -0.35531650526292946, -0.7840128215466713, -0.3419142161041586, -0.560129993042467, 0.6192190313514894, -0.2720803228986437, -0.36024525051273826], "b": 0.6723085282372476}, {"weights": [-0.8679598217281783, 0.7118409048476986, 0.713039342500591, 0.024362195423887956, -0.0910620381017555, 0.49354865484758514, -0.4862849082123253, -0.503579745799897, -0.8713175759547036, 0.5592664186277543, 0.25682051066561407, -0.930344656939043, 0.5700390897212702, 0.19400435408399086, 0.9642870499086367, 0.3466600527512216, 0.11745594859108, -0.8113249653965393, -0.8368586194307353, 0.5944745874437019, -0.6520796724729423, 0.2685626001276995, 0.25839837408641175, 0.7604360197227047, 0.7356470038235714, 0.6949346930724065, 0.16590381596759718, 0.01240006429915863, -0.7716310612635477, -0.9609124281289378, -0.3228657516275413, 0.05034536180674665, -0.16600502864611855, 0.29251801241020003, -0.6642773432199154, 0.5141380159016662, 0.9470350523649862, -0.2923609004022909, -0.4624032548914334, 0.15164802742999917, 0.9904260564140595, 0.88820280851914], "b": -0.20701086544809266}, {"weights": [0.6126577395522619, -0.6315093940090681, 0.12426947088488816, -0.5517261094178347, -0.6381206093560488, -0.35882712687111185, -0.8778335168059381, 0.11728508419922656, 0.1846075446290394, -0.19897069277885127, 0.5701188905459142, 0.6652389890225521, 0.03208799771444548, -0.32357144916223946, 0.3559409246351459, -0.003357873165324543, 0.27664425383557045, -0.13513422399749375, -0.6716730482181485, -0.5706741663197437, -0.24036865316955192, 0.1277896040802906, 0.8716945060745485, 0.5146565592221557, -0.5674715067272984, -0.7748097659573132, -0.22528223009887793, -0.9270231660103196, -0.7737044578942556, -0.3491416251493533, 0.393426808678792, -0.2654841929869791, 0.06508219796472137, 0.2776220850913511, -0.13894159265100514, -0.16840408912754357, -0.19460398236191345, -0.6520069287413959, 0.4270699815257144, 0.4129177673593829, -0.9327737382761427, 0.8037093390610939], "b": -0.4903878646878601}, {"weights": [-0.3955675471139395, -0.918579294802248, 0.7819009427330312, -0.7686122266168691, 0.7341922380454415, 0.379062496096628, -0.7851101652630534, 0.5968177777442101, 0.6307714177067625, 0.3179874936582483, -0.06741529821324344, 0.5558334903959004, -0.6100036052987139, 0.4537570254694472, -0.8697658224012419, 0.7614198596833164, 0.8288088631153743, -0.3660890807944859, -0.20865847520624614, -0.612630245559804, 0.46958736212784746, -0.8824068774011606, -0.3568387488610678, 0.14644909239299153, 0.5964788921462494, 0.08905781512647759, -0.3730792810176189, -0.9687288165491053, 0.5980868117065787, 0.012215465806287629, 0.251272862309907, 0.5550192384600348, 0.5301118201570993, 0.7429725346164207, -0.3601748913582048, -0.8229858514325101, -0.4864906777947313, -0.2901888443005729, 0.9033134273729462, 0.8758512454811918, 0.7677888753984425, 0.22791060959799858], "b": 0.4193187767929858}, {"weights": [-0.7669388978285085, -0.12092288054309752, 0.1388903995248496, -0.8359568714039609, -0.5310989199890392, 0.9824641322664149, 0.37630831463123515, -0.8667931066304795, -0.0376990357080329, -0.7647169458053473, -0.3509361966726843, -0.9478095644116602, -0.7476149716300453, 0.10669093483167602, -0.06189437201612935, 0.7086651736792808, 0.5774177833911571, -0.7266112132163154, 0.9844511898207706, 0.6501040335910995, 0.6955213333938908, -0.010896142131143982, 0.017060796221631813, 0.4202040352298597, 0.3961580336193886, 0.9267126934038503, -0.11933564152249554, -0.9736635464309256, -0.7006354635324736, -0.492019408953964, -0.6477502927451575, -0.003776886370470356, 0.2878325120671452, -0.5540432001036733, 0.8221835485837106, 0.5370195611122637, -0.4503188987314024, 0.3808367996494486, 0.4952949338120478, 0.9065420458780347, 0.9759452335325218, 0.5195414676803041], "b": -0.22993476701798232}, {"weights": [0.8352491771508415, 0.770369601499505, 0.6199768084491799, -0.9962296619478195, 0.1983315972927313, 0.7771071466893338, 0.8042764600809769, -0.12774233569878213, 0.6574950416242518, -0.5644333651612559, 0.3986043472905667, 0.6286104131592904, -0.5666106656003245, -0.9057659223648686, 0.7290752531486497, 0.5741678626776097, 0.5709766042063438, -0.8783768039758681, 0.7436616064903161, -0.36736394589603916, -0.010803027635423623, 0.6770413675777349, 0.8817813407992854, 0.7997739469301857, -0.8115301499647549, 0.3025207605930289, -0.6774382147229652, -0.9307994616418593, -0.7532299886898912, -0.5098788506625933, -0.9509540239704501, -0.8346805141995817, 0.8362064704535197, 0.3869854736987237, 0.8943850732152696, 0.07907648635472309, -0.9556319771041153, 0.9953600915116629, 0.5255634389240602, -0.39226634566789076, -0.10205535186607784, -0.606980792866233], "b": 0.6909873851110271}, {"weights": [-0.5275917906125944, 0.44824505967186146, 0.7828548000306312, 0.9587617153568755, -0.9264743695317739, 0.13157261349259808, 0.3551412701345573, 0.3404101370393018, -0.015611567305194418, -0.4705770223062, 0.012832031288383838, 0.22005711984513643, -0.9152574102157245, 0.13769073752415362, -0.4302866686660156, 0.11838069568310461, -0.8611077261628817, 0.17081283971089745, 0.8743863227373168, -0.437115748864211, -0.18836810427913142, -0.3603094541922889, -0.3588431361503759, 0.9430790926571484, 0.4515361884356843, -0.041075585150874616, -0.41883813160498407, 0.8392198138262472, 0.2979828480781217, 0.7093387583821444, -0.9015481418958784, -0.6555476289577773, -0.5334174875678845, 0.01114924354494784, -0.9488688568434327, -0.5262042154654218, 0.7622770504135008, 0.09727065299796811, -0.24013075079626156, -0.5124995240323105, 0.9045876871046614, 0.3269343920798071], "b": 0.8309679972534112}, {"weights": [0.7035171596242495, 0.7013275312663747, -0.28907252072902034, 0.8333104390301769, -0.8827278336308335, 0.6203041682474926, -0.9167709964080817, 0.7105457864044171, 0.6285222175912462, 0.40610693994037694, 0.4512713938716406, 0.43532326907706764, 0.3008498438193483, 0.6219748233371343, -0.56005812851852, -0.5676594448428522, -0.5720908278585441, -0.8455153660329142, -0.7970734252972318, -0.6296724691857969, -0.4842241829347531, -0.73046224849458, 0.348243383815914, -0.24474679935949362, -0.0790980372989174, -0.8294350149473406, -0.5098419053585952, 0.5844049124933288, -0.4897953337752008, 0.17189351349899673, -0.6147260235361478, -0.16214235338841476, -0.42623160420352235, 0.0016464716941841928, 0.6160784513139894, -0.5861366426331829, -0.9876616330168657, 0.07894826711238667, 0.8484577856994471, -0.557148277833621, 0.5928249815487119, 0.8804467814035051], "b": 0.7501874108816509}, {"weights": [-0.7007651930563064, 0.8252089206109661, -0.12358748334006697, -0.5707366319290004, 0.12329075553613289, -0.611520788999085, 0.02376700929199771, -0.9900731165635184, -0.6052955197240013, -0.07789102667731607, -0.3674382433164629, -0.16634008978060044, -0.2182634978912792, 0.8627311875719765, 0.8768579546591162, -0.5004680694955366, -0.06650742494260942, -0.1800548919042777, -0.5949944715412889, 0.7722712001191572, -0.40427859922792253, -0.31132038713867005, 0.8549058021410052, 0.14328202528758327, -0.8549058533737453, -0.13813921433325427, -0.04119819879083142, -0.8932975963648706, 0.08900093461226621, -0.1820677868391989, 0.1473832917046387, 0.06579522599059273, -0.44993981397452343, 0.9954721598494574, 0.8837285648699587, 0.0484599729597639, -0.4028241576269771, -0.08360659960129024, -0.14240169250292367, -0.19412643776377858, -0.8738043936154705, -0.8827544738701865], "b": 0.005636219452605173}, {"weights": [0.8974644188986203, -0.8973036684704223, -0.1549938974971159, 0.323751503899828, -0.5720009228543146, -0.2195821198092076, 0.3151025363168176, 0.7429690197657606, -0.39435231664203285, -0.5006610558057616, 0.935646096012432, 0.4310271438102664, 0.8598942962172753, -0.5075324223027922, -0.30442513902554036, -0.9099242440613893, 0.8520100756756823, 0.6546758045843288, -0.814513073285978, -0.5361702474284691, -0.3529790156959054, -0.8224701088167916, -0.8656219895334532, -0.17391687033043945, -0.1788935423057032, 0.32702591007619497, 0.3158059624926648, 0.4717746624757837, -0.5829750837638314, -0.5245978682813242, -0.4205967145524856, -0.12250755310524553, -0.6541274784534321, -0.23676044338916458, -0.7159226692205347, -0.4413185148807901, -0.7976138299065216, -0.2568104169621028, -0.8116549410150693, -0.8457244688708891, -0.15299563656697424, -0.3941580785145793], "b": 0.963716690547209}, {"weights": [-0.010808960778927235, -0.5918607216101617, 0.49480054260869344, 0.16335827034875106, 0.9532355367323988, 0.4386860705497453, -0.39479354262838595, -0.1892619081619138, 0.6622035458595381, -0.874520795217792, -0.8146754051847431, -0.8031181369532396, 0.7898554539275571, -0.7775827945654505, 0.5492005629882086, 0.930970085067867, -0.14691107900782496, -0.21793045446318882, -0.8500478704504904, 0.65300289041337, 0.8260629753376689, -0.7669935621164303, 0.5543626944592184, 0.45928829827146234, -0.7411589242386236, -0.48193477948047847, 0.05941477376383597, 0.629014796609376, -0.43286313846930313, 0.3181352403718378, 0.5082595096292959, -0.6102206090322722, 0.6246493766862631, -0.7751936582428693, 0.8795376922747067, -0.11148222010756359, -0.612928776857981, 0.8328859555070145, -0.8258192395877175, -0.8108837429314886, -0.3254950853443195, -0.6323639772579241], "b": -0.7621581606656098}, {"weights": [0.283906450908743, 0.7210323928780447, 0.7203712664418593, 0.27107245515148914, 0.5699888255067109, 0.4396293967061151, -0.2709630498053319, -0.012152221062588398, 0.6069474315661167, -0.581257555955969, -0.12780539660360035, 0.3386845380698229, -0.992632747415523, -0.17496114208748015, -0.5414316371397845, 0.30953698168729615, 0.965068782066524, -0.28038085045753514, 0.44637507073908766, 0.21152357101558428, -0.22305950563286658, -0.3862361283009217, 0.3612414952470313, 0.8484693490329169, 0.6488134329022259, -0.5273691034961259, 0.19059016042818389, -0.44176949570411894, -0.7196145922189405, 0.4806723218214779, -0.2959502926248321, 0.39762029628020357, -0.23851837827600186, -0.3895987787104176, -0.4480340869244128, 0.7293805775175468, 0.09344760402563668, -0.0330620882601973, -0.039233084037492816, 0.21229436677896318, -0.020665901779246765, 0.8533267476198427], "b": 0.8124545452557135}, {"weights": [-0.7296825051847531, -0.5453339574946934, -0.9571549102431984, -0.25777769083432545, 0.5270788962114046, -0.4307686331790488, 0.20172569426957976, 0.48854506028851263, 0.46578966897387897, 0.09761776423349944, -0.6541833696170749, -0.3112179976414291, -0.21247382012537286, -0.17226612464589253, 0.06393988411834606, 0.5467194878049559, 0.6451767711834961, 0.14869981415912004, 0.47478959997314285, -0.39623197249015085, -0.5155235339346487, -0.33981308457507375, -0.8866102175635107, 0.5750815660286328, 0.2936034956221998, 0.9785439565955323, -0.10298418348752603, -0.7291234850536057, -0.11763260330269065, 0.2736294191114037, 0.8682819988069224, -0.36125053613500246, 0.7024170607919136, 0.8807537996638122, -0.7349471259362936, 0.6850549051320904, 0.7282979473657871, 0.7501174107042896, 0.5662994079286141, -0.4601662704867515, 0.3219420555486363, 0.703705248722186], "b": 0.28024528610918087}, {"weights": [0.04638471380193554, -0.5653600793953011, -0.5515457318744119, -0.6676509587519508, -0.8909476508358392, -0.25563260457769865, 0.7664438325872869, 0.9887431476043451, 0.0826846299129873, 0.4267128617489364, -0.8727972144473191, 0.3950599137949282, 0.8591624664387554, -0.48859936886488775, 0.01649435049748682, 0.6212181801665191, -0.4753916511165388, 0.5925347195542443, -0.4124773272852871, -0.0848071731102551, -0.38867996465366805, -0.4953115655970992, 0.7131418584749636, -0.9588509639349807, 0.026361565056684633, 0.4145919834938727, -0.5103423886740113, 0.12364989610622246, -0.2680770627418516, -0.30242229441922186, 0.41556267157785776, -0.5417532118216566, -0.238558507139629, -0.48299230833737017, -0.39574976912529825, -0.8987321775067432, -0.8127426760596439, 0.8747781508659649, 0.2605377554246151, -0.1154150886448817, -0.0846308495760486, -0.7611438205047263], "b": -0.02790267840598215}, {"weights": [-0.5512733362486206, -0.9540631311053749, 0.14487386916397993, -0.8921040069495167, 0.016990185097967236, 0.0468219894766293, 0.2911891768774968, 0.7984080864137499, -0.24085550851559034, 0.5860834687536864, 0.010907599200594253, -0.5873242501751874, 0.15774201816657207, -0.3991131845670297, 0.4938928537444305, 0.16372415859213052, 0.003681214135580202, 0.06553289266071793, 0.10606322409171165, -0.3883104362154173, -0.9276834219365009, 0.19703972019669558, 0.8785321117076625, -0.5416317904891148, 0.44259567776525444, 0.42314506950107744, -0.83024718154008, -0.5411139414841564, -0.008323948047682439, 0.3948444571847598, -0.46228497721092765, 0.8218214690945187, -0.28380683226823145, -0.3085376624911378, -0.5231119082762807, 0.08707227392585226, 0.45929263864582004, 0.30247763052762533, 0.900924479730459, -0.34460878810179363, -0.609548123393856, 0.11565766388511722], "b": -0.43541545607006515}, {"weights": [0.37150267002339543, -0.9367933315746984, -0.6370722443002543, 0.5271998963414166, -0.678690435199701, 0.5708688144113254, 0.30395532149800686, -0.8914338873536356, -0.950826080512692, 0.6742282415593992, -0.8104837588164773, 0.6324644692575514, 0.493732430023744, -0.8665138823779386, 0.9348357075990523, -0.2732948804929589, -0.210808113855526, -0.627381530679098, 0.572953070199804, -0.6851995016492529, -0.3775687846829243, 0.8482751438999783, 0.729162427696673, 0.7873976606851127, -0.1499248074022641, 0.7132973686534003, -0.6958688877615373, -0.03641911887765481, 0.3677141357221867, 0.31580660504461666, 0.7368576197328247, 0.4248599741351322, 0.6631156850873487, 0.5013649338878561, 0.47634503170204634, -0.8234700396613257, 0.16517650364977166, 0.7583215981808435, 0.6512968920209732, 0.00027154376553739645, -0.9806865104981413, 0.9716525405635266], "b": 0.9193242050233645}, {"weights": [-0.42608326384427375, -0.48098437501465097, 0.021163530270678965, 0.4599073380366976, 0.9826842704479959, -0.8131453578479457, 0.9393759786445364, -0.9129075825797988, -0.5037216551113877, 0.4854007884544975, 0.7717275381314992, 0.625647785559631, 0.8344216215136542, 0.16552611489604518, 0.625737953210705, 0.8544640626478281, -0.771998821951944, 0.1918750145781496, 0.5775707604874885, 0.21523712825750962, -0.16781331193057203, 0.5390777217858536, 0.5775809803451339, 0.49905141598849667, -0.5602822526473248, 0.010325060896587468, 0.1947666855730339, -0.5445885248996465, 0.39835459265693873, 0.005661660048032147, 0.9294947131393803, -0.6129684905926227, 0.5992667796878666, -0.0018334908652182236, -0.7444609531138604, 0.17362886838324365, -0.5134766421002834, 0.7700381405577033, -0.5333246582262727, -0.20553315727781674, 0.5333104202350019, 0.14543884469114787], "b": 0.2432528698944154}, {"weights": [-0.7946205072280867, 0.7547390631824695, -0.7727314504986085, -0.3784622806041209, 0.504918798851046, -0.07380190908883266, -0.5468962319659436, -0.46469293118135413, 0.5723943388071411, 0.38129965906711827, -0.0542362981182809, 0.8908515976623681, -0.5447638827914283, -0.8332045396222714, -0.20706130075061036, 0.6543089805018822, 0.37262317594014704, 0.8588289461530771, 0.10798424077042945, 0.9888591265536011, -0.880069473299764, -0.1672234659848213, -0.110254280615667, 0.7231489934649995, -0.8895410147262637, -0.7064537658904806, -0.008267409987473329, -0.4187077238012735, -0.05050585548885578, 0.010349595539485668, -0.5898482173053057, -0.13009303881330214, 0.15203294754625163, -0.17751622702026748, -0.8561319761590507, -0.15254250107027456, 0.9642146538337211, -0.5943040898600094, -0.22849287532103824, 0.1351122301116987, 0.9905258865632096, -0.49450740239615265], "b": 0.9412555114982661}, {"weights": [0.03762702676372087, 0.4846985103470698, 0.6951261260823347, -0.267442765470596, -0.07949247545600335, 0.674877470596283, 0.8439827805783406, -0.6469000497022486, 0.5844846708290421, 0.012701022594968636, 0.49556981946551737, -0.3791492518682693, 0.6117139168711649, 0.3767253320025117, 0.13441887913034378, -0.3948436913944664, 0.040351791000996284, 0.7001856055009905, 0.7214832774328324, 0.1849649288237314, -0.22415971279014157, 0.5194893415136459, -0.4212475701289875, -0.4915398034640117, -0.717818698297521, -0.19666606638996798, -0.4348528542123633, -0.5794977238845107, 0.4661127113827275, -0.7908965927115845, -0.13203712658279732, 0.7569094368604761, 0.8610088097023885, -0.10635547666232936, -0.11405307444942481, 0.268635708086177, -0.7527010666167291, -0.8994051659986877, 0.6574117270137585, 0.15299636509709513, 0.6805879941157515, 7.612381927390999e-05], "b": 0.7500922708227469}, {"weights": [0.7402242501192715, -0.34457651281244117, 0.08313716067871968, 0.6810346948294816, 0.466925338469913, -0.6134006767675175, 0.6854781201157949, -0.18462275987725896, 0.9269560085516959, 0.4581109536366841, -0.7175207777839996, -0.2171127618649229, 0.9947186640998253, 0.21198105914837262, 0.09896785448260381, 0.27176993581885167, -0.8560462373442603, 0.875013725804219, -0.6109444085371114, -0.8906135968113715, 0.5767762567639372, 0.5951825504557156, -0.7733433669215968, 0.9106009568486411, 0.3767007222045937, 0.9312148410292282, 0.6320750254073726, -0.4691332547840503, -0.7164741911660311, -0.4696672031039999, -0.5289814661599368, 0.5929774822276763, -0.2910913631506036, -0.7821851670060946, 0.6785952424955988, -0.9257125956982615, 0.36969033231266657, 0.21792546690147585, -0.8454284578603413, -0.12049523190852796, 0.3978690057788208, -0.16066815837848436], "b": 0.25988346767664483}, {"weights": [0.3829485376938606, 0.3615262828148067, -0.7334100727890511, -0.7621417349617552, -0.40561729291917614, -0.6097858109023382, -0.4976597340178013, -0.1483775568914112, 0.6977212250271225, -0.17586641702464623, -0.12284966354237614, -0.687981394130055, 0.7451959926274383, 0.7703214801497686, -0.18888827626404558, 0.3651203155001057, 0.7850661033062427, 0.25833326804761536, -0.2819833793840443, 0.3250207678653796, 0.0797478026590357, -0.3849698373741144, 0.7129798120073705, -0.12108231312448292, -0.22938871267321792, 0.32306592118840083, 0.8123042287587678, -0.6141618594364664, -0.4200868579366026, 0.8595742882563215, 0.07960121989118085, 0.6779381551532191, -0.99562068674136, -0.9060655446074168, -0.39176900512889, -0.3192106163991366, -0.2559792146254998, 0.2209015445418836, 0.0882905914489287, 0.5792187552976911, 0.25641018709561125, -0.37797269326316374], "b": 0.4158182383209017}], "output_neurons": [{"weights": [0.7536414225449579, 0.25461332633610456, -0.6601801860030878, -0.05040479407998322, -0.386978130763159, 0.47897611599089696, 0.9434904065028085, 0.9347932493731117, -0.06953064410050191, 0.11694608475649626, 0.7991077879400026, 0.8032236646412532, -0.48832561178539846, -0.33983493369803974, 0.8186706221769988, -0.6418311856851666, -0.2569134886609492, -0.35519376336212405, 0.40979950858227787, -0.4007791201221884, -0.10903654119048412, -0.43226206837558356, -0.38390303064212694, 0.2164258598629767, 0.7806929000122169, 0.8485324351966528, 0.9968859042095777, -0.914503066411424, 0.019908253834607148, 0.24332749651069618, -0.16865790055017849, -0.3405970453884215, 0.7732684029268304, 0.20610097012162876, 0.7756956348952906], "b": 0.8727234403416451}, {"weights": [0.08637368595848205, -0.13321466718989106, -0.29717073603247446, -0.2930995103529541, -0.4897573994556288, -0.17286041815484943, 0.22138261166467266, 0.8111359742232644, -0.6863097527562183, -0.31171859418547854, -0.6520447588670963, -0.8538853534619955, 0.702702716319312, 0.555622870445414, 0.4868474539973331, 0.2363027563458473, -0.4673172574926352, 0.48152391383321547, -0.4054387795107597, 0.1215894403899136, -0.21105523436692586, 0.755851823682202, -0.090376450794587, 0.8784343514726958, -0.8444996103174627, 0.6590492915737853, -0.19916713756108217, -0.821010153033646, -0.7097124333307856, -0.7120404345594078, -0.8597310431844571, -0.7578251558513966, 0.15297102323843847, -0.6105477750690946, -0.9608133517079567], "b": -0.13267088539225225}, {"weights": [0.5953239274408479, 0.8591951332900107, -0.3700247592004553, -0.9161378581541224, -0.428868041138313, -0.6848122318234922, -0.359391359625306, 0.49113875951820973, 0.6462531858755927, 0.2937528869888104, -0.8661096029424886, -0.3361880221649869, 0.4157926075750651, 0.030953106872052105, -0.5736479581689495, -0.7622720028500054, 0.5955822665702406, -0.3103802485009999, -0.8463041710474337, 0.059045839308490056, 0.17343560479310716, -0.5793178592356101, -0.17013475842599712, 0.1785892540558971, 0.8862989018668226, 0.8471809948485145, 0.0070319754210235175, 0.4594655788506019, 0.9545151389816586, -0.14992604226035677, 0.06147784253105626, -0.11783660222597692, 0.8008051225990709, -0.9941660319447896, -0.41048079372411084], "b": 0.36106095318094433}, {"weights": [0.565739585261348, -0.5936175972727595, -0.6791066429494574, 0.6377328312653372, -0.9469178153733551, -0.026025864510567764, 0.46940144399387296, -0.7194835407220199, 0.7993577280435284, -0.9687248918902842, 0.5488879936277784, -0.7097993383444632, -0.30256429598613366, -0.7162643701317517, 0.6670298171409024, 0.4256095632207404, -0.5611647520635161, -0.0960700844291913, -0.6230240598532151, -0.5287264540167498, 0.49519088230780683, 0.9952836097721527, -0.43492232843342316, -0.34922604355574327, -0.6626784145846141, -0.8107506382236873, -0.8754810684733103, -0.3444937618402111, -0.14724844190202901, -0.42296082076234165, 0.09986438479610316, 0.23928843189725568, -0.3701371627641401, -0.46398033430203967, -0.7273901843930306], "b": 0.38982445841905866}, {"weights": [0.7772756408679478, -0.838497652155263, -0.9705469172792176, 0.16553942877699335, -0.20971153434518142, 0.8141087147938957, -0.48410669908953174, 0.6468566462362217, 0.3571548507154263, -0.16066839076746242, -0.8091054044443204, -0.09529562422572435, -0.11017075702158952, -0.11510611356186118, -0.7931140320626793, -0.8339050107058894, 0.5122695578730687, 0.39192112278554325, 0.25557546530761854, -0.6131783555298587, 0.24390999128312685, 0.41009008779351785, 0.45031788950574403, -0.7765999106661774, -0.6082100493202371, 0.827852337902254, 0.7837350641027445, 0.8860360259630138, -0.9081801712021915, -0.8873594982178503, 0.24335917216862746, -0.5074159899358135, -0.6660832878379319, 0.04540171634215362, -0.2749986748122253], "b": -0.06333786202284397}, {"weights": [0.4132816525427656, -0.8145993863108956, 0.35484553410927067, 0.6196867867125351, -0.9334389003324606, 0.5267909250718679, -0.430478401462709, -0.4837640778322141, -0.417058187521534, 0.8155551845545284, -0.648224508760938, -0.5171907851696569, -0.15397263118417603, -0.42728810191610855, -0.7918322902501829, -0.6357012834822433, 0.8915798148653045, 0.49969774623579344, -0.7064141118626952, 0.45567875072172037, -0.1747537385032969, -0.8054664671023626, 0.826560753639511, 0.8692172080611595, -0.4635538985414678, 0.10370744438482027, 0.9166806963084797, 0.1377335223985836, -0.850256581903859, -0.4255525980160324, -0.17249204243858007, 0.19860399656295957, -0.46863074144031525, 0.3302510534484975, -0.16269968876656749], "b": 0.2354516274740952}, {"weights": [-0.38470148761588296, -0.4903096694896225, -0.27181185922817575, 0.036166684450924746, -0.7683131619910899, 0.48775100225691315, 0.07903163859249895, -0.3860233549784162, -0.38108583319295675, 0.5803247696785803, 0.16164819667555586, -0.5140118031140952, 0.9700526565701901, -0.43932777770947484, 0.9685502906476824, -0.1669911916546909, -0.5977057041755474, -0.3838961328258721, -0.612887530158053, 0.5625599007694904, -0.363652492075627, -0.9021980645700782, -0.18915484448183317, -0.11720932192077216, -0.1542347239077395, -0.09396492309095117, -0.19575570312744905, -0.6047128264900721, 0.48813818116157726, -0.49482918411013554, -0.9681251996489322, 0.9998012886033376, -0.8642565151692376, 0.9184760163218326, -0.37740390538421], "b": -0.5314877634367354}]}