{"input_neurons": [{"weights": [-0.1359112700976972], "b": 0.7420689904774886}, {"weights": [-0.522603293463787], "b": -0.04279485524831217}, {"weights": [0.5384341634178569], "b": 0.6432007643190218}, {"weights": [0.28292486842132414], "b": 0.8758190507585011}, {"weights": [0.11805480774410593], "b": 0.2944516696421404}, {"weights": [0.7439318251439295], "b": 0.6558346168261182}, {"weights": [0.19853395414199992], "b": -0.7317641755097797}, {"weights": [0.13527756349377573], "b": -0.27729111581221266}, {"weights": [0.46470761578376085], "b": -0.7324531923756272}, {"weights": [-0.7707873572560027], "b": -0.9057526880009068}, {"weights": [0.5838921171149476], "b": 0.17649292437582176}, {"weights": [0.4438535423111576], "b": 0.6897683100233849}, {"weights": [-0.09183851362858042], "b": 0.4026896413187755}, {"weights": [-0.5506842591292227], "b": -0.6897747019701088}, {"weights": [0.45776217950259124], "b": 0.4101799978774505}, {"weights": [-0.6969978566677593], "b": 0.01851292107073177}, {"weights": [-0.47145162056832857], "b": -0.6649850663765342}, {"weights": [0.3959658107717199], "b": -0.2946682345292464}, {"weights": [0.8315548778599791], "b": 0.1291444598832292}, {"weights": [-0.3362606102203294], "b": 0.03258699405270926}, {"weights": [0.5341180676291764], "b": -0.06694994888160832}, {"weights": [0.16844585078518937], "b": -0.4701267559673583}, {"weights": [-0.3168064478011072], "b": 0.4429443859316389}, {"weights": [0.11824839747014138], "b": 0.3503942700228393}, {"weights": [-0.7293387772887565], "b": -0.2097706254507703}, {"weights": [-0.5026061307917582], "b": -0.5918429649648485}, {"weights": [0.24122436342478348], "b": 0.3057606853986641}, {"weights": [-0.519002974226014], "b": 0.18380994946424667}, {"weights": [0.9790382681046792], "b": -0.2931121519297071}, {"weights": [0.6630127171901237], "b": -0.5064369068775851}, {"weights": [0.18589157791905397], "b": 0.8180750756485922}, {"weights": [-0.1428146471985512], "b": 0.22061918183435858}, {"weights": [-0.0009919110491571903], "b": -0.6456770205035351}, {"weights": [-0.20867665027644544], "b": 0.6113951456098425}, {"weights": [-0.22825895216437742], "b": -0.3299653901135611}, {"weights": [0.374385827208743], "b": 0.5694347253021426}, {"weights": [-0.48689234301960327], "b": 0.9873437221239376}, {"weights": [-0.6609032740553304], "b": -0.1688066444511387}, {"weights": [0.6013557892570367], "b": 0.7844967283630822}, {"weights": [0.4006575663981644], "b": -0.09462055806867253}, {"weights": [0.890874759338111], "b": 0.5955071476328577}, {"weights": [0.8123855043379113], "b": -0.03611269195771172}], "hidden_neurons": [{"weights": [0.1455439647368808, 0.35075434080479106, -0.17867217187539786, 0.5041707705403013, -0.46824332427203297, 0.3452126951433854, -0.8100001090358349, 0.24081611372753886, -0.5827571357345904, 0.5772714144648947, -0.25838815485627786, -0.9249912447108921, -0.7490931336556415, 0.28785112237927724, 0.03946007433596832, -0.7757814246770776, 0.40144887174762345, -0.29321327596234026, 0.7518443483779829, 0.7411317930669066, -0.5664677758399739, 0.36791505660219825, 0.8158963910463093, 0.7803154032261312, 0.8885276692215851, -0.8269179054453009, -0.5402421323923265, 0.7075740564077362, -0.547568192937856, 0.6625517260523581, 0.4913051034757401, 0.6965101858042255, 0.5789108966967837, 0.486062632968119, 0.22009868661905063, 0.6030081598988768, 0.8478925709199541, 0.5324988565962099, -0.14449349743086093, 0.3955623750230717, -0.3018518554182241, 0.20603522380121708], "b": -0.07375424835272515}, {"weights": [0.291550789148602, 0.21031770013479045, -0.9879943189720712, -0.12388954199818758, 0.3377857493222174, -0.07853289594871238, -0.8516744136771452, 0.9181955009506733, -0.1351985800188975, -0.06897113832192181, -0.8884510579141229, 0.4450784916788737, 0.1438833014175649, -0.35341403806434735, -0.030791953772366876, 0.05899808766235326, 0.9377722568169438, -0.576096552197785, -0.8473695012052305, 0.394241476630492, -0.8614042429615703, 0.522496115477397, -0.0010265337336743396, 0.3369024468747748, 0.8722316721443037, 0.5377796939062482, -0.03767743909781207, 0.9977691524862347, -0.2889934831158649, 0.5631080175032999, 0.19638763609952647, -0.6197900803828706, -0.34933216641773024, -0.31466278737856834, -0.35217557888022144, 0.19286159816509074, -0.2876441253311679, 0.6868207547961045, -0.5347424943653201, -0.313110737877327, 0.8347910134950476, -0.42301329828903667], "b": -0.42970665620883564}, {"weights": [-0.9872251954470415, 0.17804494199115362, -0.3874693947779879, 0.037641097126877465, 0.45456575177511027, -0.6280583028845905, -0.35066957589792747, 0.7118360893323441, 0.8625104351355486, -0.058636114247996085, 0.05728264163730201, -0.9007830826490055, 0.008748910560861134, 0.8470137513666198, -0.28158286422386825, 0.9819712683131991, 0.2549952197172445, 0.017123822443942727, 0.39813878845899464, 0.5020167865048006, 0.22583457285945596, -0.3800823931324464, -0.2764869147828275, -0.18777141291537247, 0.48770327924917756, 0.15425121760950278, 0.30953794384995326, 0.7444498407201321, 0.18181249933917787, -0.5014048947467082, 0.8038461882251695, 0.394065746333071, -0.07750652151598625, 0.054514267047019116, 0.81841708865495, -0.4882384190815148, 0.548535225558874, -0.804681405401962, 0.8987204021577899, -0.3484389133854793, 0.5296241382128397, -0.5883854270164408], "b": 0.18815974487958687}, {"weights": [-0.9410445941759866, -0.8420402294436542, 0.4615922079079702, 0.9455099353711434, -0.7254038141622394, 0.9112485527634628, -0.33624293926364346, 0.2158928657320658, 0.097187993693437, -0.8347129388223515, 0.19810623535059735, -0.1754684021670163, -0.7338686410634034, -0.33223149232747695, -0.3645578247772989, -0.40805237104350445, 0.20446895971304357, 0.9102530257849593, 0.10445655199643245, 0.9251994925047566, -0.7723312439080312, 0.1496289105572146, -0.5536088099937844, 0.7237774553761231, -0.8325433966265174, -0.2548930566661316, 0.8059856886514165, 0.8618648251815706, -0.5914691978212094, -0.27942161019612577, -0.4887717120317989, 0.5400299936020805, 0.631840830928643, -0.7407621262666289, 0.5923288800633373, 0.9687293996566775, 0.3292000180783683, -0.5448752338747032, -0.37576057912679706, 0.5790762674860594, -0.6159939572885629, -0.15010405700820062], "b": -0.41791178316482736}, {"weights": [-0.9694049667634141, -0.7716686582393717, 0.7753950122498414, -0.10795876913940172, -0.4950601258673135, 0.9347753024956778, 0.2770174106189003, 0.39794338793436546, 0.6299147054691852, -0.748466535501102, 0.5076530285350689, -0.6724411347775192, -0.1127483629909094, -0.8830272480358048, -0.44540291028858925, 0.9143812539425495, 0.009492171807403471, -0.32239212828424857, 0.15418144598503902, -0.21310397980456774, 0.6101982623593691, -0.2986672182161252, -0.722180150386625, 0.47312507154420347, 0.48766657307133676, 0.916298500471761, -0.10664360048016541, -0.38316896045474413, -0.5543171668427298, -0.8390932683969532, -0.6146336592271722, 0.01985680662741718, 0.1649947499115929, -0.05518736306415217, 0.161640215914709, -0.3927263466288542, 0.6528382533611896, 0.945196563679537, -0.015903318427020974, -0.39038629669631253, -0.35361632114544994, 0.8293996900210205], "b": 0.2671666873735712}, {"weights": [-0.9721361363779308, 0.12900919325974836, -0.4531619633722621, 0.08197177060680838, -0.7786983126586491, 0.5226898860425937, -0.9778518695617782, 0.4844495726158007, 0.36134529878239907, -0.3700226542071068, 0.9146129374057033, -0.6141841299841826, 0.32137510577926953, 0.685083006554982, -0.13287776536934537, -0.07048871689464065, -0.9118266360847049, -0.3221537260434415, 0.837092048552559, -0.7944681848347581, -0.06854643232764768, 0.3175116613145288, 0.04707131205787651, 0.9948847881339551, -0.6223220201829576, 0.5301562125962016, 0.8243835650522562, 0.2888200426958656, -0.025812570766188925, -0.9451340636886747, 0.7226211596120107, 0.5467191177524371, 0.92635805211399, -0.19184951223937774, 0.027657346393434867, 0.5680635023205993, -0.5198818458287342, 0.2833148211281822, -0.30731760330567925, 0.8457966731594473, -0.7522333981355656, -0.2251445274652244], "b": 0.584540716835861}, {"weights": [0.7503349601361315, -0.6996086317065895, 0.521830820241082, -0.7760181061224303, -0.4484149466795042, 0.18739170428772134, 0.9548773399792305, 0.8988402434823604, -0.42827924826445973, 0.7996849740151495, -0.7852073122353302, 0.8037741910940472, 0.233251226824847, -0.11293801386957747, 0.16128263663329134, -0.6527297325951431, 0.936153599229852, 0.7097526364777007, -0.017329194261583636, 0.3921525454719854, -0.022978047188832784, 0.6667888676712268, 0.5348147879496166, 0.9531987881069655, 0.9468472105628076, 0.8262891211856127, 0.5676139111822709, -0.3748524451786086, -0.32369750805951303, -0.06264864246302992, 0.43635316289176207, -0.7107061281569504, -0.3228680963984305, -0.23935486992996236, 0.5379090054913027, 0.7642505737199925, 0.8274573755869974, -0.022630067857530856, -0.18997316112123586, -0.9110717353209117, -0.4982128565156443, 0.027576509163321106], "b": -0.16971617588875154}, {"weights": [0.8478996340432519, -0.44017479643782553, -0.5181564550007256, 0.7243130069491956, -0.029785916330262507, -0.3071781377355782, -0.3344531811505811, 0.9630038229198818, 0.36717518982768627, 0.2709839413309141, -0.608773628015163, 0.364450631322603, 0.806698900758076, 0.599282534307328, -0.0064485428615024265, -0.5671897058875892, -0.48215242813917203, 0.03915333481691796, -0.12686181685522158, -0.4658105302187865, 0.1479784369497632, 0.48071576411246486, -0.6151970255990686, 0.6416899860796266, -0.20585387662759835, 0.21444268105105158, 0.18838205577654743, -0.990658900385571, 0.4977576318446302, 0.8230531558429173, -0.14291303283726253, -0.13208916071491061, 0.8957617426976527, 0.6153725763262297, 0.02451004767331444, -0.22936950531859357, -0.1474141114369194, 0.18649177706339137, 0.9172042048073952, -0.5867777134878043, 0.7735723596037491, -0.4850831535564042], "b": 0.6491547549536489}, {"weights": [0.998798560797719, 0.6526527037380998, -0.6417936716302177, -0.3224440804823667, 0.757872342878438, -0.05833957971020287, 0.046518129647991735, 0.1586156126838456, -0.6769365443758466, 0.21810513567519285, 0.4104721669788134, 0.008755412872339274, -0.8529036332818463, -0.3617338341913079, 0.8403162317179511, 0.3219317072059915, 0.6182469329925586, 0.16447371408019418, -0.14785481763272745, -0.8551412918285093, 0.716004115424945, -0.9807185774970648, -0.13259891027315218, -0.5649064862406099, 0.6781128349506291, -0.5866948342335128, 0.9333168681664767, 0.8923912196451937, 0.23790051174205828, 0.14619980166410262, -0.9117631884034838, 0.0008581767593061063, -0.3452828407725792, -0.8001976031877178, -0.7652503472793153, -0.5593149915489926, -0.0659821888617862, 0.2661975967699586, 0.8580893144499762, 0.8616676176000526, 0.5337732892075377, -0.7161690086225474], "b": -0.27728268657713717}, {"weights": [-0.6096205712029299, -0.34697573107056967, -0.534410674371756, 0.8385433550078736, 0.48855096813444177, -0.2976154610090691, 0.9349417332777763, -0.7019448357950113, 0.8578432099800939, -0.11236462461835695, -0.38542085836106277, 0.47435232652901504, -0.5250421221253918, 0.1305927535765905, 0.5121898920308638, -0.9119035387138417, -0.5563884113761908, 0.05994572573557311, 0.09802284337341627, 0.015304081354010624, -0.038544981232943476, 0.4051692484273066, -0.7181234695180039, -0.30023530595605785, 0.5360865915582382, 0.30431039399168824, 0.07903416018248799, 0.7421639132678131, 0.1228188056275219, 0.8238266070805065, 0.07445704041040346, -0.0478273788517285, 0.458634428510833, -0.8846069885677426, -0.5174307811940146, 0.9549828047484752, 0.45746171964271776, -0.07095087643952347, 0.36490406654112606, -0.4800098176535792, -0.5345495732142955, -0.8771245663209921], "b": 0.5229294200441705}, {"weights": [0.6958181593742157, 0.17160259695120716, -0.6020398378007779, 0.8932245449600806, -0.8214636055853795, -0.5470999346696621, 0.29417790429300106, 0.17894499734712577, 0.6550991172379221, -0.7950393868485914, -0.5621050488265338, -0.382063994891094, 0.7456286529791993, 0.6399649697350138, 0.5805192560718777, 0.42064724208719917, 0.4378969950696052, 0.9983434283095023, -0.5193440045595907, 0.30943822358751616, 0.08176196356957743, -0.2833952877773531, -0.7393752316929325, -0.34121928242909316, 0.553387698683879, -0.4238206963121032, 0.7116481004310447, 0.13680574148527125, -0.9212191160044967, 0.024160513645918202, -0.08588092155475202, 0.7842402833307125, -0.4848815406013267, -0.7326356071189652, -0.24826268713808486, -0.9047794537863088, 0.9889561337587838, 0.4826759326366341, 0.4860468910086757, -0.08373314448776537, 0.6832893952504457, -0.1720000267304329], "b": 0.9523203623946814}, {"weights": [0.6329553311096785, -0.8387857844629956, 0.8746697157748586, 0.3613275038082544, 0.611909918945114, 0.9591612098844013, -0.23555855120395952, 0.5664025393838179, 0.2523243617564941, 0.7298507193414103, -0.6839735658808908, -0.4724763030712249, -0.6959671083520897, 0.22357328437055246, 0.8963792110382176, 0.014200369418711167, 0.51743975968605, -0.16250915970907753, -0.9262887247278251, -0.053331897122916416, -0.8473735194038632, -0.5740762885591144, 0.3955296642063393, 0.7997808053200015, 0.7183377407788665, -0.30154631998256565, -0.2254858388898846, 0.9101960849305253, -0.23509283079842302, 0.9571068555547897, 0.07907413336590285, -0.8159571640540442, 0.8757352882057641, 0.37876085790754255, 0.7285223489107657, -0.45768821022523687, -0.23212005418870918, 0.11337086900313698, -0.3678636801882953, 0.7182570700548521, -0.03480146503798287, 0.30685213739703787], "b": 0.5002732275211679}, {"weights": [0.029905500899233717, -0.4953565501602655, -0.435341372059308, 0.4779681413128123, -0.9803558324820649, -0.09092978217931846, 0.5532037289341007, 0.3234473765301804, 0.38107369477427966, -0.18092696130365304, 0.2226324874613459, 0.7807038053311977, -0.8891093870372266, -0.7847954345330719, 0.34427346502684686, -0.4885200393753759, -0.16488395713672177, 0.1808813152887443, 0.15000966426100382, -0.47591024724842623, -0.5549028756581664, -0.12031240476308636, -0.25960296413365547, 0.35658475442449555, -0.553482841881509, -0.5715271455106941, 0.3005179486606171, 0.13800309144289136, -0.5611012301613658, -0.45020651966537506, 0.6652964285634511, 0.5456288448694377, -0.7690013848919794, -0.09992800119739642, -0.9849027689980687, 0.14882794938684807, 0.8127507841147008, 0.24272660761304787, -0.19126061633939817, -0.15584648873361107, -0.07468254487151404, 0.3854206338320252], "b": 0.7345460026484278}, {"weights": [0.6698351361171022, -0.3176646771716285, 0.6060822655664022, -0.5525178165438593, 0.11921520776649297, 0.5635838208805626, 0.7620431225505346, 0.11104930343423902, -0.6504309861337483, -0.7919108863110575, 0.12206804154823447, 0.016717133909265547, 0.4021165423144277, 0.35892700368968056, -0.3643143115892249, -0.011661941943938992, -0.3269844296298112, 0.3941333630913082, -0.9908471685438573, -0.32711065829503516, -0.7379400635971993, 0.23986200272872238, 0.3461673983729201, 0.23262217293805443, -0.7322606539528367, 0.07617040961128296, -0.8946530073571184, -0.6978496767137643, 0.11393391459082958, -0.12044260375862392, 0.5996393405743388, -0.20306509707223475, 0.07590573549258073, 0.5042034884294448, -0.19530095146102178, 0.22740247423118842, -0.4294192971423545, -0.7168681681991649, -0.6202421697343377, 0.37492394294075493, -0.13878074675066632, -0.35415161778411], "b": 0.9464667328645855}, {"weights": [0.14257836674208657, 0.5890509873027008, -0.29803753570393243, 0.09600757749755373, 0.8641168853561105, 0.45926837398759335, 0.655349692940868, 0.8979368663071479, -0.31777851181801564, -0.9327388842876747, 0.5672110450162933, 0.23093054966658677, 0.11944553697835114, -0.7264634135145251, -0.2270700103533687, -0.031936920360091214, -0.5050307815721176, 0.6950205081159808, -0.20096836733429013, 0.7741354443213826, -0.8346122107217389, -0.9921384176852468, -0.3756412609261426, -0.12175508569660987, 0.32870479401954067, -0.4844735062329064, 0.7614454166269926, -0.6220541136798428, 0.08911102859744413, 0.5588959213341034, -0.6788497383707359, -0.16118219733285044, -0.2980029379426654, 0.0853034556064225, -0.4980484402451695, 0.8269945477035681, -0.5272389816318905, 0.394398273112186, 0.9694797175022167, 0.1144635123559703, 0.7088933733995748, 0.7006559473042415], "b": 0.43808025546652685}, {"weights": [-0.2392917792612026, 0.6405102485001957, -0.6876529665894311, 0.18209746455993736, -0.1036897799450971, -0.6094789235371945, -0.533153622982353, -0.8249287231005826, -0.6518350506793862, -0.8138572071252941, -0.49070084338736564, -0.3670485271367263, 0.37974074086251863, 0.6798975036628419, 0.3594369692805184, 0.4618872532538516, 0.9525658785915481, -0.9393889611212649, -0.19615651747407803, 0.9385104310202286, -0.21694597383117498, -0.4653609982741995, -0.9479631008658487, 0.5761351882397205, -0.3957923727236663, 0.2452697456433266, -0.22875591447883092, 0.5241624124891462, 0.12463330620218027, -0.380353655692508, -0.33287250009834124, -0.7959035378016344, 0.5858837673023074, -0.7833275860511981, -0.9637399575397743, -0.7528655781011468, -0.48486387971248646, 0.685605879543709, 0.8165312144219254, -0.8987770677819609, -0.06684204247192871, -0.2703141011498029], "b": -0.4441349679808775}, {"weights": [-0.08446621965907442, 0.7956675183879229, -0.3984020773272008, -0.779926834338398, 0.24657171701613012, -0.5934630243676025, 0.459314890275923, 0.25539836469351096, -0.8241932981424711, -0.7618995436099281, -0.8457311206335467, -0.8999109183196572, 0.17573076762911222, -0.6184483758449351, 0.6006722190956213, -0.9488926751967655, -0.0023292964223302626, -0.5819564154224779, -0.16212683237295145, -0.7651655542717746, -0.9237412387592421, 0.9652740037798266, -0.707293034988929, 0.8461289863249144, 0.3029327206472543, 0.12489695326951189, -0.7100204287461793, 0.854503682891862, 0.8544860972041819, 0.38309791790389736, -0.7589005885314202, 0.5706726214528217, 0.7963713116625077, 0.739941836618583, 0.26261391002166956, -0.2772528817385864, -0.6939170961535193, 0.9047900881380764, 0.4780895406150707, 0.040733723892930396, 0.7411699864897578, -0.17107416288614008], "b": -0.86991732867407}, {"weights": [-0.7583132744642092, 0.7824645823364949, 0.874273573121098, -0.5900561188071844, -0.47494803816232456, 0.789651783613007, -0.47814068427376344, 0.6398308624302742, -0.6520049210850913, 0.38419370441679157, 0.24650307705279428, 0.13132058021848825, -0.22544834203971664, 0.8427523393207093, -0.6640597212482167, -0.1977216160722699, 0.3379773150023575, 0.3253701371794038, 0.3819247838948545, 0.6580592609344686, -0.4585666242065878, 0.9806599237124265, -0.04158749513351001, -0.731048713993699, -0.061228233995703096, -0.6320389786873901, 0.7418798478906627, -0.6356863368488279, -0.36360661781979364, 0.005338083226160251, 0.554049198806787, -0.10881592478663205, 0.3080957253070926, -0.3383288803387212, 0.7997473033106639, 0.00046116454939237883, 0.7401796836496228, -0.5655770332288876, -0.09400258514199566, -0.9757409333259333, -0.5108746449728021, -0.24757627918004732], "b": -0.19986534193198002}, {"weights": [0.37314725418741435, 0.3364103841030892, -0.010375996269533783, 0.18534076075119188, -0.6436652666469878, -0.9325202945936273, 0.20718354994128774, -0.3498770475856907, 0.8224491108613226, -0.5121115871430304, -0.3265294697332708, -0.22315907503887367, -0.7637451344554875, 0.9075145294564084, -0.3504132241305844, 0.6955367096337604, -0.12351407809997261, 0.6962808033088512, -0.12283738720746062, -0.9486447523929438, 0.07596822100029588, -0.19514437307837396, 0.6317112805769818, -0.7974197491582646, 0.08341035274797703, 0.0324186383892191, -0.11372880324672408, -0.329974256171081, 0.48631055893654307, -0.8724316905763796, -0.007605990676503804, 0.7403874205989744, -0.9204924217486123, 0.06201678849689585, 0.183934475312576, -0.20431359060521426, -0.6019668072056774, -0.3778134568343219, -0.4568053526517557, 0.4599367104449872, 0.9444445251718858, -0.055671990960704854], "b": -0.9313719199947494}, {"weights": [-0.8969928921958314, -0.2982845382538126, -0.8112544851800942, 0.37820627628735926, 0.3618043449834123, -0.27730059795951023, -0.4036751531145619, -0.9402275839339256, -0.7054881799745236, -0.08801177153863149, 0.893054076918788, -0.2712537052933872, -0.563999732311256, -0.6145577017726145, 0.525900411493299, -0.03980195687692878, 0.7761739653533686, 0.2347689306272207, 0.764386853111457, 0.296043716062691, 0.47185174934161744, 0.7026477935414153, -0.15823555088557106, 0.041529665174803165, -0.05347230782629553, -0.16753440043390544, 0.9630988574351311, -0.3366615463107845, -0.39918344741637624, -0.9413854290626229, 0.8373042730017668, -0.6973399078739131, 0.8772858372497849, -0.5577532111311176, -0.11443882199593913, -0.7386328168225211, -0.5293783564874657, 0.5134362770280723, 0.0042472614302997425, 0.22730094081677277, -0.602156509671576, 0.49052324816484516], "b": -0.2787870857969694}, {"weights": [0.7454036673794293, 0.9605256480501072, 0.5101692740971295, -0.547627600482022, -0.17103358856886608, 0.7729329375451808, 0.2769451129094087, 0.8016117747545124, 0.004967796912755951, -0.9386416771146169, -0.1009773027881169, 0.32211160699720054, 0.16253854993102523, 0.3787791256395072, -0.47334590968369117, -0.002980714839259546, -0.31598043296706835, -0.43816435460679837, -0.5208195062175414, -0.9161312557319592, 0.1991314275075804, 0.615569852819738, 0.2766915730679962, 0.7548489543183565, 0.0061106408514342014, -0.27660289255201853, 0.3653088262627626, -0.25860933824693055, -0.6495756337746093, 0.43471054495855177, -0.9571134275857638, 0.9411292603281438, 0.5140726960007911, -0.5124500236203156, 0.9345844470679652, -0.7814098469417059, 0.501104096334837, -0.13965071535949924, -0.8513718023357408, 0.15905623755406473, -0.20660862983678152, -0.2256183930901603], "b": 0.29307620850805516}, {"weights": [0.63088833860989, -0.2590564170100562, 0.43680576595434006, -0.46960034408965345, -0.7521268759145128, -0.9950999191436873, -0.533236459645158, -0.5139435771595937, 0.04397038100109918, -0.359921703167537, -0.09368649176370747, 0.6510340768064795, -0.5881523702345683, 0.6181606182829371, -0.42155091315016935, 0.04570175039314317, -0.2872766511010558, 0.3409610863367918, 0.6833282532492488, 0.1133270445550476, 0.3640743305427667, -0.598850432304668, 0.4978448618917566, -0.7576291071363666, -0.782309684121185, -0.3475216977663729, -0.2822198183431943, -0.4081225072541852, -0.3718409094954951, -0.5636981486282142, 0.17814153072124728, -0.1674199853865066, 0.8102641295150645, -0.9347982256461203, -0.21239005050608317, -0.19492795718213052, -0.5006096222216583, 0.9698223503783403, 0.6273723986851862, 0.9988807210172956, 0.8492938457049641, 0.3744761482551935], "b": -0.7803049786156044}, {"weights": [-0.08188798920479501, -0.05741070432609341, -0.08491498357094618, 0.7604926832705903, -0.9023497993425307, 0.6428143948326319, 0.5105219555340159, 0.09440521315571848, 0.13932682898620108, -0.7027831252135459, 0.5583307643303412, 0.9648798416334772, -0.25478327044605753, -0.5763395849644299, -0.9424087791337514, -0.010471016733575311, 0.20317616026412022, 0.5109555648268278, -0.7319258061094571, 0.7846988314357142, 0.2824605972143919, 0.39839230920049484, 0.9066868281710645, -0.16988621634270462, -0.8234255201495941, 0.1989048956254369, 0.21253489936326608, 0.7356339313523381, -0.2763530552890483, 0.8054229704126818, -0.8979861862005352, 0.7934751324373444, 0.8079472147895912, -0.5259418576534896, -0.5279957143076757, -0.6956973234749741, 0.5542972670038531, -0.7767461861189604, -0.07882052930749062, -0.4658586613398381, -0.6995040318777626, -0.9773587595882114], "b": -0.16350723524507704}, {"weights": [0.6235763658861502, -0.5665617342573621, 0.46560883562783495, -0.7055486697398712, -0.9641879249973391, -0.9539311808136934, -0.8320694775820732, -0.26895141440607184, -0.19182655780099211, -0.7284713547342898, -0.26989965933553717, -0.7671742370098436, -0.6757195818916217, 0.5536425005153753, -0.3650969473232799, 0.23583279951187786, 0.27544548237633637, -0.3241189859004887, -0.9657352965323096, 0.8943972397957938, -0.6279701017160089, 0.5192384209085281, 0.3011292135362911, -0.9050237291409959, 0.5992006389551139, 0.40665665394141803, 0.48828061639609577, 0.4204329010275154, -0.3601585183138034, 0.5261201667502822, -0.9672616309233251, 0.8957800018272564, -0.6057397590763365, 0.6564639355356521, -0.3027896911554191, -0.7918217340361193, -0.70545886095044, 0.16234775924638556, 0.46096298302802285, -0.28552256134607057, -0.8759536785553932, -0.8187046528309425], "b": -0.5013897578533242}, {"weights": [-0.8877046056399114, -0.5876677001108135, -0.7249438251239417, -0.06792833762475059, 0.7019222655419144, -0.144573596688099, -0.9236060839670928, -0.4595678356741155, 0.18947300661734245, 0.25105595352662036, -0.20603076095164097, 0.7019877608672547, 0.3637195111278939, 0.0765672939766584, -0.02701402134108255, -0.3403470132517723, -0.9702040644902548, 0.36561773505605233, -0.6032964618264962, 0.8204459922960736, 0.007369515813172356, 0.8140723388445652, -0.2915306241046107, 0.3203389999682855, -0.6095790868964654, 0.3733979355490338, -0.45101199996637753, -0.7043465807069516, 0.7055335806561538, 0.40273093333729104, -0.7167944968238236, -0.561783331209696, -0.08308689710582606, 0.8049024010396113, 0.17350976848020916, 0.8407911384763374, -0.057739181539794515, -0.7026477585327129, 0.07325733668706436, -0.7206505081031289, 0.8550165977612876, -0.38276787347512253], "b": -0.5049726931342904}, {"weights": [0.06531707752041194, -0.10080983318971182, -0.6786255615027945, -0.27016568256149154, -0.8296785458946896, -0.7096031781429262, 0.1498990706422514, -0.16826698089638903, -0.02849339633720338, 0.5484627420505956, -0.5071657664576841, 0.4917884458413706, -0.15710804252025445, -0.8210880222372234, 0.9859245097711811, -0.3586684513529892, -0.7210480711658322, -0.012591129096815257, -0.38735986679691026, -0.5539395417537061, -0.15786065912109226, 0.042726286442065, -0.6304324723981505, -0.9370410814725258, 0.7247934277030366, -0.5440562938960762, 0.20765365328174212, -0.9827986444872323, 0.3851536521712309, 0.10915843978051121, -0.8053575811044176, -0.9895828013781933, 0.165635675582694, 0.31510269627249476, -0.6791782010811618, 0.9914470510445128, -0.4768083138559964, -0.03692387508146422, -0.06869422673993109, -0.2900322460481024, -0.9660560793598516, -0.15225096062554933], "b": -0.5609272369922287}, {"weights": [-0.644228271342695, 0.9327035485041681, 0.6996502887248282, 0.581615856150751, 0.40306301733494054, -0.27895554685877655, -0.16070048120207936, -0.8282106476407376, -0.3155140515594834, 0.9680053989384092, 0.5135525777358196, -0.24632508407195708, 0.046336964991113616, -0.8809293259320734, 0.458636130859742, 0.03489844021827926, -0.4256226143967674, 0.19535898408790575, -0.2673153814270972, 0.38065493756158286, -0.1483699736385522, -0.3492343616169893, -0.24427635902970035, -0.9078581400477872, -0.44198568611415023, 0.09526760268184953, 0.22227199321459024, 0.9885684325397586, 0.17780639256102249, -0.6951302300632443, -0.4234891083306611, -0.12510149972763118, 0.6038094238880862, 0.9566887697174737, -0.6315377987094373, -0.1501914355289813, 0.16122973036100285, -0.5286611689925707, -0.26885336899056034, 0.10347673006225122, 0.5489824399174479, -0.6546592142962613], "b": 0.43505966570449006}, {"weights": [-0.48887995885926716, 0.6175816325283912, -0.8582396489596968, -0.8354767281979907, -0.8075536047868312, 0.9466639897770983, 0.6257327226331104, -0.22125998130021052, 0.8060168926594495, 0.8993111804824425, 0.7310175962021266, -0.5431251403734703, -0.9698404591500347, 0.6501548943326132, 0.1518431054120266, -0.15646454933354748, 0.38498239254190647, -0.36479468133852855, -0.6567538551297205, -0.08687437933332509, 0.01312910084222585, -0.8266672960172528, -0.6647249861184199, -0.318706979438921, -0.5693812401416614, 0.5879496019488724, 0.7585439710969237, 0.8401994195792968, -0.3929977256593993, -0.0410370622295535, 0.9355177475507557, 0.19754607468968444, -0.2612572863577891, -0.436453925112801, -0.4527723754674553, 0.7898406953446884, 0.700879653132048, -0.22049613433712478, 0.21055339920367722, -0.6135626004434727, 0.6341841820936907, 0.11732132215247093], "b": 0.024781262748550192}, {"weights": [-0.2814322923233712, -0.23853034297697007, -0.13454161463654013, 0.002869042987557302, 0.4704367398563434, 0.20848884410844404, 0.7909238687159146, 0.7530296285102565, 0.9169260600299174, -0.6556660638800298, 0.5338065238452709, -0.6790592405328333, 0.4646473800875075, 0.7298519572236881, -0.10018827902990401, 0.16944972650912926, 0.5474074098504622, 0.12848350385059804, 0.11048428647595765, -0.9711114343961675, 0.932406935348135, 0.33522032520737555, -0.1896418569435241, -0.5708466096852065, -0.18588585763279375, 0.8180897775909173, -0.9542240685622385, -0.7633979998010885, 0.41841518381479537, 0.8069105281743276, 0.2837714220212759, -0.1655110236325381, -0.5798168078536057, -0.24338051326780152, -0.22927017788394766, 0.35690505859000954, -0.06999023254247883, -0.4074846047966749, -0.1339967403568192, -0.7612723762490679, 0.1081169565928608, -0.2924673259527577], "b": 0.653964503157596}, {"weights": [-0.9424710726038992, -0.14945278776538573, 0.5475824971983128, 0.049932622436435814, 0.10180122844812134, 0.29155470364311786, 0.8750581209882025, -0.5069940725712079, 0.616387037082591, -0.780106330885757, -0.5952753509670121, 0.9436706745952699, 0.22336804853300807, -0.5546056648611422, -0.8197582184465921, 0.8132792723134628, 0.08289588562904182, 0.713537590897311, -0.6509756999795768, 0.513383310853984, -0.4341204687697249, -0.6503949165075649, 0.45348786244519323, 0.7681141500986328, 0.37059450564831287, -0.5814481063313217, -0.34231716812940016, 0.7784197628224303, 0.902225919604335, -0.6086746206213813, -0.028495992062377073, 0.7196138556451235, 0.6956771957078898, -0.6174875982988988, 0.3372576204752573, -0.6672174490491114, -0.7414407410101764, -0.25492550478243503, 0.7961348918331201, -0.3974480619757794, -0.5842515308112988, 0.6956305124661375], "b": -0.3469889500030445}, {"weights": [-0.14946488849823125, -0.774182148796827, 0.7027440192418077, -0.9577688434180072, 0.8782556682243141, -0.08014121490101633, -0.9646036353048013, 0.5041287922449915, 0.6091179364374559, 0.8209541418142359, -0.6469694807112876, -0.8028254476170791, 0.8843360552794104, -0.03900244164257871, 0.3572632483011755, 0.46048913905320465, -0.5121009478237402, 0.8634971731421384, -0.7622716489424526, -0.39953852559274927, -0.426850327463844, -0.6734244742367825, -0.9856655702847639, 0.4638772216085656, -0.09756219351515205, 0.059904485739421975, -0.33207111568132053, 0.430630027456089, -0.8656298265046005, 0.2841247197411312, 0.510681103317729, -0.5000462938195245, 0.9888131527120878, 0.6460200263900799, 0.9151302022227492, 0.4659614458167527, -0.30170977352790507, -0.22906727469749777, 0.5408560675166099, -0.39859534674738173, 0.43177842586200477, 0.7105184176333461], "b": 0.45093604755854044}, {"weights": [0.15633435510651372, -0.3818612537807009, 0.5243875006043546, 0.036476178314002405, -0.842146129904666, 0.5108307066016369, 0.6755907781092902, -0.8890231113603593, -0.7782941342838627, 0.8756899576711401, 0.4158273801125345, -0.9982657562689123, 0.13325808364080594, -0.7791430098535366, 0.30497252412977316, -0.7287825079556529, 0.8084042950077035, 0.1825077567126665, 0.7865971984547973, 0.013463382361375675, -0.8681330684765141, 0.7962525664493585, 0.3298809143884949, -0.5507468533513085, -0.7291310009966703, 0.8843628705438262, 0.7324325663287508, 0.06989331335739846, 0.6117811551969472, -0.21919700183930502, 0.8237824879679727, 0.35827296105820894, 0.893928727218096, 0.06257158667127549, 0.11285306959292196, -0.5327057371967998, -0.9842994590750236, 0.9174648747478569, -0.9855420090205096, -0.5441267785570192, -0.5697090397054254, 0.45025913760361935], "b": -0.3225747564199761}, {"weights": [-0.32073008708853634, -0.39930155319968574, -0.33402757068344213, -0.7858589340722744, -0.4837065984736022, 0.45511122507770585, 0.6231086827160981, 0.7378541966349144, 0.10315750686386327, 0.8943360171272317, 0.36813777111424684, -0.3932109622879909, 0.13065032420371736, 0.15249179835756133, 0.11548781590932666, -0.2540895906903584, 0.1342800753254656, 0.015227291653171715, -0.4218793922853741, -0.4310551082350724, -0.6111848563898508, 0.4631703830291687, 0.3367062280048687, 0.20161381884226626, -0.32264672461488053, -0.04255009183289604, 0.6028777765604936, 0.22025292990593837, 0.8941419761948408, 0.948734590358236, -0.8584948562805119, 0.7468424628993735, -0.9830500855625235, -0.9595077986068401, -0.5930373258588888, -0.3798819511297631, 0.40546682074073903, 0.9825249763710029, 0.4093800346527001, -0.04178526666629079, -0.3178390626558114, -0.534014367432126], "b": -0.09738942286614338}, {"weights": [0.24602909774389503, -0.06391570524713575, -0.100735240785786, 0.32360357343736923, 0.5300168637214826, -0.7672974942913866, -0.9931584753790503, 0.2891415154778092, 0.740857333572819, 0.47797188521391143, -0.16611504070855165, -0.01849271852268819, -0.42118120684540217, -0.388612670172674, -0.547938920099619, -0.48146362542616994, 0.27771304709911426, -0.0942028454762398, 0.04843165613644529, 0.16527074460432223, 0.4944622665330898, 0.2142460012533809, 0.38805179389033606, -0.6316828613872096, 0.19694531460192088, 0.8537876357715506, 0.344733414912634, 0.008699138432893605, 0.36783974172525236, -0.29718878168981955, 0.37559900478592123, -0.8883308534559367, 0.43089973240426116, -0.1597559581396908, -0.5251183412139879, 0.4155245639215608, -0.7185593143651234, 0.5541574751728662, 0.043219311938997196, 0.014105458055013509, 0.13416609344375452, -0.9727171602101317], "b": -0.19600652466294743}, {"weights": [0.8967552645597823, -0.6978522701578072, 0.8659280212177951, 0.5422385128092664, 0.9640760404332922, -0.7778601079387177, -0.0759163210984668, -0.545118085930298, 0.10865773476603158, 0.6623518662132144, 0.4647835822649351, 0.0411080794438583, 0.39839457056439453, 0.5860883119810696, -0.27232741621565837, -0.07272089615313249, 0.43938095527869914, -0.6137078648698611, -0.35848422931902424, -0.9460197963245931, -0.5844659024732746, -0.7592156211769963, -0.40638586661060816, 0.24961937246696797, -0.2496028794813403, -0.8080346196957635, 0.7149505786165571, 0.5356313901341427, -0.11543189920158037, 0.27374458894148757, 0.0021167390445324674, -0.36803121686652407, 0.5627337696056622, -0.30854467163302624, -0.21407187634661962, 0.3857295936331815, 0.3138240879829748, 0.2534473875873482, -0.028908094203037082, -0.48939089445613226, -0.9821446732566681, -0.6216120179512465], "b": 0.13452928591440916}], "output_neurons": [{"weights": [0.42848890574920473, -0.4759328986566862, 0.5381818003025294, -0.058056227144998696, 0.5320932566973007, 0.607428484842996, 0.22844083309978158, 0.11807886279094171, -0.06454470921699818, 0.53332621381037, 0.2861654906885376, -0.8397491157478558, 0.9875418381331633, -0.7142713930973816, -0.7919968171900678, 0.7897541355790123, -0.37272862238591964, 0.643243916794279, 0.9989444960748353, -0.9897728551700922, 0.05908314666172698, 0.384080770962977, 0.16288784843926085, -0.2773886897426263, -0.05764952000110091, -0.5263618664792409, -0.08094182605216571, 0.34292656079084716, -0.08271739831505198, -0.5362159204150279, 0.7811531534660403, 0.046566828279340555, 0.5844273082415279, -0.90257690739229, 0.6652542391502891], "b": -0.45463526093607354}, {"weights": [-0.8374227942042902, -0.851013586968631, 0.25271771223983874, -0.9106560025605754, -0.7482315698193012, 0.3720237789090841, 0.15753481831729998, -0.31012561719439957, -0.20147159713069662, 0.5413314852344084, 0.3300590049312373, -0.06888485257667942, 0.43422618677821134, 0.9972809091530124, -0.09897344117572104, -0.6114596108570551, 0.682754909949018, 0.47556501666500917, 0.9223250120168658, -0.5728263158370466, -0.3594081170478747, -0.5039269882491344, 0.7943748954905923, -0.4614003202157795, -0.13491812732547115, 0.2081708986767994, 0.17967492399476126, -0.5266666053060056, 0.03688449232884783, 0.7750205318240544, -0.5821679845067487, 0.5140890067999773, -0.19426427728602813, 0.8090337293252472, 0.43537314852252784], "b": -0.7628677115163434}, {"weights": [-0.5599267144800895, 0.40829934665370304, 0.3762887106128945, -0.29556920801589626, -0.08696738506847468, 0.977420868049679, -0.6601800502992392, 0.3801551959237013, 0.054306410208069256, 0.5198138575923492, 0.9915102319429496, 0.7767280653076454, -0.5839786908015236, 0.16922147726007464, 0.05153718949208708, -0.7293316340835603, -0.03700228778776693, 0.4805081525282273, 0.6434297736991155, -0.48190384797071006, -0.7622016213269469, -0.5265913345572268, 0.4405119691792456, -0.37622312361177856, 0.08618756948701667, -0.14025622866063814, -0.48692581109905264, 0.7926970858212787, -0.8066361130010524, 0.7620523916005999, 0.055066945749159935, 0.06550880013682758, -0.4092533390288342, -0.8516628828620629, 0.016865360979973598], "b": -0.06570597478592122}, {"weights": [0.8900713880599267, 0.043744001403160926, 0.899678605574115, 0.955372658242557, -0.7506257996629879, 0.830903703125065, 0.11828339965266887, -0.8043275482515466, 0.7230292125694389, 0.3129878018793475, -0.765872103000738, 0.8539656448330446, -0.5863802416018606, -0.6099464313446763, -0.6258935296670738, -0.8707610594141613, -0.8530495068105286, -0.8324003624319212, 0.3150927587191288, 0.47632919018548514, -0.09196055276754866, -0.3542590814521367, 0.08095781212608322, 0.8960923887442893, 0.3471029421596097, 0.44027055730852527, 0.002743748174454552, -0.4717825275970329, 0.3844525081109771, -0.18831799927116322, -0.3063456012990915, -0.40526019157051807, -0.8107670332913566, -0.30388787509640003, 0.570564093797512], "b": 0.39304479007271587}, {"weights": [-0.9228480386650737, -0.11639032171336727, -0.16463530375220414, -0.5939150877363422, 0.8095902113268256, 0.9307108836444404, -0.22267190902260836, 0.6858387215659034, -0.8793800909296139, 0.4196172433946834, 0.6906762860797231, -0.6608008064949658, -0.587485108759725, -0.6002599987756152, 0.2448700738392393, 0.8411145308502981, -0.8994210794416564, -0.04551513825982778, 0.7027633685158765, -0.8319313209056391, 0.27474540095812583, -0.49531689624279807, -0.4503708050254176, 0.9201087367000356, 0.387837313830258, -0.12074893600681591, -0.20034730823439095, 0.6994791788700958, -0.8948485963087489, 0.10127219701758117, -0.8549971225359179, 0.5274971032356526, 0.5342493083940529, -0.4857320500994482, -0.015456942812638985], "b": 0.5604199359792053}, {"weights": [-0.776875726187715, -0.40882279247528275, -0.2152696809994128, -0.5440874300967735, 0.2933178832678902, 0.5076647756606814, 0.9762075463667983, -0.24706028044657247, -0.3425152235217632, -0.8664350705329185, 0.5265695640873862, 0.013149364802031549, 0.785002015367263, -0.6881323060044289, -0.858149636217203, -0.018432157754251444, -0.639836093893601, 0.4663585970048578, -0.14412376483119216, 0.016776945239937557, 0.9057493032223363, -0.2942555725285254, -0.9977061278115473, -0.17768764060127462, -0.6522344031433163, 0.7366217337507375, 0.3236627272057453, 0.8100884202893956, -0.9850188900278818, -0.6270491890844518, 0.31762022714966043, 0.5029363986911328, 0.5353957936199516, 0.3169407401738935, -0.6603522737439547], "b": -0.8208804790648512}, {"weights": [0.2268577120992008, 0.5467655552133908, -0.22946604999692877, 0.5921640840580757, 0.46919828957696885, -0.7465777481843969, -0.09397455563937851, 0.2979079514962075, -0.3414890482946362, -0.45007012193878704, -0.1853477404914743, -0.5282174083891149, -0.8129856109971492, -0.4828919718457252, -0.07128134018447274, 0.5965590549520252, -0.4389102540822709, -0.8201976797302106, -0.31545691755369676, 0.10271286699010229, 0.12943154344373942, -0.10721433765366495, 0.8062901135988538, -0.3435102694139629, -0.9727147138472516, 0.4964554438806279, 0.0693364911237826, 0.5987607360717977, -0.4648615279378021, 0.6362557464813827, 0.619896560601062, 0.07899713428438737, 0.08907213572326689, -0.71437646829747, -0.8414042652152427], "b": 0.5042501779573241}]}